{
  "params": {
    "bootstrap": false,
    "criterion": "log_loss",
    "max_depth": 200,
    "min_samples_leaf": 1,
    "min_samples_split": 4,
    "n_estimators": 30,
    "train_test_split_seed": 7759
  },
  "classes": ["correct", "incorrect"],
  "features": {
    "points": [
      "LEFT_WRIST",
      "RIGHT_WRIST",
      "LEFT_ELBOW",
      "RIGHT_ELBOW",
      "LEFT_SHOULDER",
      "RIGHT_SHOULDER",
      "LEFT_HIP",
      "RIGHT_HIP",
      "LEFT_KNEE",
      "RIGHT_KNEE",
      "LEFT_ANKLE",
      "RIGHT_ANKLE"
    ],
    "angles": [
      ["LEFT_WRIST", "LEFT_ELBOW", "LEFT_SHOULDER"],
      ["RIGHT_WRIST", "RIGHT_ELBOW", "RIGHT_SHOULDER"],
      ["LEFT_WRIST", "LEFT_SHOULDER", "RIGHT_SHOULDER"],
      ["RIGHT_WRIST", "RIGHT_SHOULDER", "LEFT_SHOULDER"],
      ["LEFT_WRIST", "LEFT_SHOULDER", "LEFT_HIP"],
      ["RIGHT_WRIST", "RIGHT_SHOULDER", "RIGHT_HIP"],
      ["LEFT_SHOULDER", "LEFT_HIP", "LEFT_KNEE"],
      ["RIGHT_SHOULDER", "RIGHT_HIP", "RIGHT_KNEE"],
      ["LEFT_HIP", "LEFT_KNEE", "LEFT_ANKLE"],
      ["RIGHT_HIP", "RIGHT_KNEE", "RIGHT_ANKLE"],
      ["LEFT_ANKLE", "LEFT_HIP", "RIGHT_HIP"],
      ["RIGHT_ANKLE", "RIGHT_HIP", "LEFT_HIP"],
      ["LEFT_FOOT_INDEX", "LEFT_WRIST", "LEFT_SHOULDER"],
      ["RIGHT_FOOT_INDEX", "RIGHT_WRIST", "RIGHT_SHOULDER"],
      ["LEFT_FOOT_INDEX", "LEFT_WRIST", "RIGHT_WRIST"],
      ["RIGHT_FOOT_INDEX", "RIGHT_WRIST", "LEFT_WRIST"]
    ]
  },
  "model_data": [
    {
      "children_left": [
        1, 2, 3, 4, -1, 6, 7, 8, 9, 10, -1, -1, -1, 14, 15, -1, -1, -1, 19, -1,
        21, -1, -1, 24, -1, 26, -1, -1, 29, 30, 31, -1, -1, -1, -1, -1, -1
      ],
      "children_right": [
        36, 35, 28, 5, -1, 23, 18, 13, 12, 11, -1, -1, -1, 17, 16, -1, -1, -1,
        20, -1, 22, -1, -1, 25, -1, 27, -1, -1, 34, 33, 32, -1, -1, -1, -1, -1,
        -1
      ],
      "feature": [
        9, 0, 15, 13, -2, 14, 13, 9, 15, 7, -2, -2, -2, 4, 14, -2, -2, -2, 15,
        -2, 7, -2, -2, 1, -2, 15, -2, -2, 2, 1, 4, -2, -2, -2, -2, -2, -2
      ],
      "threshold": [
        0.12170351296663284, 0.2280159592628479, 0.5317172110080719,
        0.4054054617881775, -2.0, 0.5769542157649994, 0.5257396996021271,
        0.08519593253731728, 0.4653066396713257, 0.21885881572961807, -2.0,
        -2.0, -2.0, 0.5529390871524811, 0.5112064182758331, -2.0, -2.0, -2.0,
        0.503066211938858, -2.0, 0.13708192855119705, -2.0, -2.0,
        0.10829329490661621, -2.0, 0.44243378937244415, -2.0, -2.0,
        0.5497873723506927, 0.12877652049064636, 0.5304112434387207, -2.0, -2.0,
        -2.0, -2.0, -2.0, -2.0
      ],
      "value": [
        [0.4419475655430712, 0.5580524344569289],
        [0.5514018691588785, 0.4485981308411215],
        [0.7065868263473054, 0.2934131736526946],
        [0.8188405797101449, 0.18115942028985507],
        [0.0, 1.0],
        [0.8692307692307693, 0.13076923076923078],
        [0.9166666666666666, 0.08333333333333333],
        [0.9553571428571429, 0.044642857142857144],
        [0.9902912621359223, 0.009708737864077669],
        [0.9444444444444444, 0.05555555555555555],
        [1.0, 0.0],
        [0.0, 1.0],
        [1.0, 0.0],
        [0.5555555555555556, 0.4444444444444444],
        [0.3333333333333333, 0.6666666666666666],
        [0.6666666666666666, 0.3333333333333333],
        [0.0, 1.0],
        [1.0, 0.0],
        [0.375, 0.625],
        [0.0, 1.0],
        [0.75, 0.25],
        [0.5, 0.5],
        [1.0, 0.0],
        [0.3, 0.7],
        [1.0, 0.0],
        [0.125, 0.875],
        [0.3333333333333333, 0.6666666666666666],
        [0.0, 1.0],
        [0.1724137931034483, 0.8275862068965517],
        [0.1111111111111111, 0.8888888888888888],
        [0.375, 0.625],
        [0.0, 1.0],
        [1.0, 0.0],
        [0.0, 1.0],
        [1.0, 0.0],
        [0.0, 1.0],
        [0.0, 1.0]
      ]
    },
    {
      "children_left": [
        1, 2, -1, 4, 5, -1, 7, -1, -1, -1, 11, 12, -1, 14, -1, 16, 17, 18, -1,
        -1, -1, 22, 23, 24, 25, -1, -1, -1, 29, -1, -1, -1, 33, 34, 35, -1, -1,
        38, -1, 40, -1, -1, 43, -1, -1
      ],
      "children_right": [
        10, 3, -1, 9, 6, -1, 8, -1, -1, -1, 32, 13, -1, 15, -1, 21, 20, 19, -1,
        -1, -1, 31, 28, 27, 26, -1, -1, -1, 30, -1, -1, -1, 42, 37, 36, -1, -1,
        39, -1, 41, -1, -1, 44, -1, -1
      ],
      "feature": [
        5, 7, -2, 9, 1, -2, 3, -2, -2, -2, 8, 3, -2, 13, -2, 7, 3, 13, -2, -2,
        -2, 9, 11, 10, 10, -2, -2, -2, 5, -2, -2, -2, 0, 14, 6, -2, -2, 10, -2,
        2, -2, -2, 1, -2, -2
      ],
      "threshold": [
        0.49475014209747314, 0.19394563138484955, -2.0, 0.084748525172472,
        0.10693130642175674, -2.0, 0.4757903963327408, -2.0, -2.0, -2.0,
        0.0988679863512516, 0.40392759442329407, -2.0, 0.4076586216688156, -2.0,
        0.1374083161354065, 0.6229593753814697, 0.5321214497089386, -2.0, -2.0,
        -2.0, 0.10752026364207268, 0.5421372354030609, 0.4276101291179657,
        0.4195031225681305, -2.0, -2.0, -2.0, 0.5246382355690002, -2.0, -2.0,
        -2.0, 0.12010211497545242, 0.5326761901378632, 0.08957009017467499,
        -2.0, -2.0, 0.5636043548583984, -2.0, 0.4394061267375946, -2.0, -2.0,
        0.09657250717282295, -2.0, -2.0
      ],
      "value": [
        [0.4419475655430712, 0.5580524344569289],
        [0.08064516129032258, 0.9193548387096774],
        [0.0, 1.0],
        [0.2, 0.8],
        [0.5, 0.5],
        [1.0, 0.0],
        [0.2857142857142857, 0.7142857142857143],
        [0.6666666666666666, 0.3333333333333333],
        [0.0, 1.0],
        [0.0, 1.0],
        [0.551219512195122, 0.44878048780487806],
        [0.7575757575757576, 0.24242424242424243],
        [0.0, 1.0],
        [0.8130081300813008, 0.18699186991869918],
        [0.0, 1.0],
        [0.8771929824561403, 0.12280701754385964],
        [0.9555555555555556, 0.044444444444444446],
        [0.9772727272727273, 0.022727272727272728],
        [1.0, 0.0],
        [0.3333333333333333, 0.6666666666666666],
        [0.0, 1.0],
        [0.5833333333333334, 0.4166666666666667],
        [0.7777777777777778, 0.2222222222222222],
        [0.9285714285714286, 0.07142857142857142],
        [0.8, 0.2],
        [1.0, 0.0],
        [0.0, 1.0],
        [1.0, 0.0],
        [0.25, 0.75],
        [1.0, 0.0],
        [0.0, 1.0],
        [0.0, 1.0],
        [0.1780821917808219, 0.821917808219178],
        [0.4, 0.6],
        [0.9090909090909091, 0.09090909090909091],
        [0.0, 1.0],
        [1.0, 0.0],
        [0.10526315789473684, 0.8947368421052632],
        [0.0, 1.0],
        [0.5, 0.5],
        [0.0, 1.0],
        [1.0, 0.0],
        [0.023255813953488372, 0.9767441860465116],
        [0.5, 0.5],
        [0.0, 1.0]
      ]
    },
    {
      "children_left": [
        1, 2, 3, 4, 5, 6, 7, -1, -1, -1, 11, -1, 13, 14, -1, -1, -1, 18, 19, -1,
        -1, -1, 23, -1, 25, -1, 27, -1, -1, 30, 31, 32, -1, 34, -1, -1, -1, -1,
        -1
      ],
      "children_right": [
        38, 29, 22, 17, 10, 9, 8, -1, -1, -1, 12, -1, 16, 15, -1, -1, -1, 21,
        20, -1, -1, -1, 24, -1, 26, -1, 28, -1, -1, 37, 36, 33, -1, 35, -1, -1,
        -1, -1, -1
      ],
      "feature": [
        0, 9, 15, 14, 5, 12, 2, -2, -2, -2, 15, -2, 2, 5, -2, -2, -2, 7, 4, -2,
        -2, -2, 3, -2, 10, -2, 3, -2, -2, 14, 2, 15, -2, 4, -2, -2, -2, -2, -2
      ],
      "threshold": [
        0.2280159592628479, 0.08542657643556595, 0.5317172110080719,
        0.5769542157649994, 0.5074585974216461, 0.5615141689777374,
        0.48262549936771393, -2.0, -2.0, -2.0, 0.49937111139297485, -2.0,
        0.47275084257125854, 0.5635401904582977, -2.0, -2.0, -2.0,
        0.11340580508112907, 0.3400162607431412, -2.0, -2.0, -2.0,
        0.4796299487352371, -2.0, 0.40031829476356506, -2.0, 0.5040195286273956,
        -2.0, -2.0, 0.5191226005554199, 0.5099350810050964, 0.4989074170589447,
        -2.0, 0.5423779487609863, -2.0, -2.0, -2.0, -2.0, -2.0
      ],
      "value": [
        [0.4419475655430712, 0.5580524344569289],
        [0.543778801843318, 0.45622119815668205],
        [0.7724137931034483, 0.22758620689655173],
        [0.8503937007874016, 0.14960629921259844],
        [0.9459459459459459, 0.05405405405405406],
        [0.6363636363636364, 0.36363636363636365],
        [0.7777777777777778, 0.2222222222222222],
        [0.3333333333333333, 0.6666666666666666],
        [1.0, 0.0],
        [0.0, 1.0],
        [0.98, 0.02],
        [1.0, 0.0],
        [0.92, 0.08],
        [0.6666666666666666, 0.3333333333333333],
        [1.0, 0.0],
        [0.3333333333333333, 0.6666666666666666],
        [1.0, 0.0],
        [0.1875, 0.8125],
        [0.75, 0.25],
        [0.0, 1.0],
        [1.0, 0.0],
        [0.0, 1.0],
        [0.2222222222222222, 0.7777777777777778],
        [0.0, 1.0],
        [0.6666666666666666, 0.3333333333333333],
        [0.0, 1.0],
        [0.8, 0.2],
        [1.0, 0.0],
        [0.0, 1.0],
        [0.08333333333333333, 0.9166666666666666],
        [0.1875, 0.8125],
        [0.42857142857142855, 0.5714285714285714],
        [1.0, 0.0],
        [0.2, 0.8],
        [0.0, 1.0],
        [0.6666666666666666, 0.3333333333333333],
        [0.0, 1.0],
        [0.0, 1.0],
        [0.0, 1.0]
      ]
    },
    {
      "children_left": [
        1, 2, 3, -1, 5, 6, 7, 8, 9, -1, -1, 12, 13, -1, 15, -1, -1, -1, -1, -1,
        21, -1, 23, 24, 25, -1, 27, 28, 29, -1, -1, 32, -1, 34, -1, 36, -1, 38,
        -1, -1, -1, -1, -1, 44, -1, -1, -1
      ],
      "children_right": [
        46, 43, 4, -1, 20, 19, 18, 11, 10, -1, -1, 17, 14, -1, 16, -1, -1, -1,
        -1, -1, 22, -1, 42, 41, 26, -1, 40, 31, 30, -1, -1, 33, -1, 35, -1, 37,
        -1, 39, -1, -1, -1, -1, -1, 45, -1, -1, -1
      ],
      "feature": [
        9, 12, 3, -2, 6, 10, 1, 9, 15, -2, -2, 14, 9, -2, 12, -2, -2, -2, -2,
        -2, 2, -2, 1, 6, 2, -2, 15, 15, 12, -2, -2, 12, -2, 5, -2, 2, -2, 8, -2,
        -2, -2, -2, -2, 1, -2, -2, -2
      ],
      "threshold": [
        0.12170351296663284, 0.5592401027679443, 0.3957208842039108, -2.0,
        0.11952927336096764, 0.5077683925628662, 0.2312430962920189,
        0.05623247101902962, 0.4506526291370392, -2.0, -2.0, 0.537112295627594,
        0.08519593253731728, -2.0, 0.5148274004459381, -2.0, -2.0, -2.0, -2.0,
        -2.0, 0.362591877579689, -2.0, 0.20872417837381363, 0.303010530769825,
        0.4186585545539856, -2.0, 0.5290108323097229, 0.45481157302856445,
        0.5108045935630798, -2.0, -2.0, 0.4608079046010971, -2.0,
        0.46529021859169006, -2.0, 0.5259349644184113, -2.0, 0.0384329529479146,
        -2.0, -2.0, -2.0, -2.0, -2.0, 0.08988138660788536, -2.0, -2.0, -2.0
      ],
      "value": [
        [0.4419475655430712, 0.5580524344569289],
        [0.5514018691588785, 0.4485981308411215],
        [0.6647727272727273, 0.3352272727272727],
        [0.0, 1.0],
        [0.740506329113924, 0.25949367088607594],
        [0.8532110091743119, 0.14678899082568808],
        [0.7808219178082192, 0.2191780821917808],
        [0.890625, 0.109375],
        [0.9782608695652174, 0.021739130434782608],
        [0.0, 1.0],
        [1.0, 0.0],
        [0.6666666666666666, 0.3333333333333333],
        [0.8571428571428571, 0.14285714285714285],
        [1.0, 0.0],
        [0.5, 0.5],
        [0.0, 1.0],
        [1.0, 0.0],
        [0.0, 1.0],
        [0.0, 1.0],
        [1.0, 0.0],
        [0.4897959183673469, 0.5102040816326531],
        [0.0, 1.0],
        [0.5333333333333333, 0.4666666666666667],
        [0.6, 0.4],
        [0.6666666666666666, 0.3333333333333333],
        [1.0, 0.0],
        [0.6, 0.4],
        [0.72, 0.28],
        [0.4, 0.6],
        [1.0, 0.0],
        [0.0, 1.0],
        [0.8, 0.2],
        [0.3333333333333333, 0.6666666666666666],
        [0.8823529411764706, 0.11764705882352941],
        [0.0, 1.0],
        [0.9375, 0.0625],
        [1.0, 0.0],
        [0.75, 0.25],
        [1.0, 0.0],
        [0.0, 1.0],
        [0.0, 1.0],
        [0.0, 1.0],
        [0.0, 1.0],
        [0.02631578947368421, 0.9736842105263158],
        [1.0, 0.0],
        [0.0, 1.0],
        [0.0, 1.0]
      ]
    },
    {
      "children_left": [
        1, 2, 3, 4, -1, -1, 7, 8, 9, -1, 11, -1, -1, 14, -1, 16, -1, -1, -1, 20,
        21, 22, 23, 24, 25, -1, 27, -1, -1, -1, 31, -1, -1, -1, -1, -1, -1
      ],
      "children_right": [
        36, 19, 6, 5, -1, -1, 18, 13, 10, -1, 12, -1, -1, 15, -1, 17, -1, -1,
        -1, 35, 34, 33, 30, 29, 26, -1, 28, -1, -1, -1, 32, -1, -1, -1, -1, -1,
        -1
      ],
      "feature": [
        1, 7, 3, 0, -2, -2, 1, 14, 13, -2, 5, -2, -2, 7, -2, 5, -2, -2, -2, 9,
        14, 15, 5, 0, 15, -2, 12, -2, -2, -2, 11, -2, -2, -2, -2, -2, -2
      ],
      "threshold": [
        0.2071138173341751, 0.13485807180404663, 0.42664188146591187,
        0.05946584232151508, -2.0, -2.0, 0.18889062851667404,
        0.4979129731655121, 0.5113486647605896, -2.0, 0.5546724498271942, -2.0,
        -2.0, 0.1253202185034752, -2.0, 0.6048191785812378, -2.0, -2.0, -2.0,
        0.10585378110408783, 0.5561959147453308, 0.5289188623428345,
        0.4998823255300522, 0.1808166354894638, 0.4745180010795593, -2.0,
        0.4690447598695755, -2.0, -2.0, -2.0, 0.5592909753322601, -2.0, -2.0,
        -2.0, -2.0, -2.0, -2.0
      ],
      "value": [
        [0.4419475655430712, 0.5580524344569289],
        [0.543778801843318, 0.45622119815668205],
        [0.8636363636363636, 0.13636363636363635],
        [0.1, 0.9],
        [1.0, 0.0],
        [0.0, 1.0],
        [0.94, 0.06],
        [0.9587628865979382, 0.041237113402061855],
        [0.8125, 0.1875],
        [1.0, 0.0],
        [0.4, 0.6],
        [1.0, 0.0],
        [0.0, 1.0],
        [0.9876543209876543, 0.012345679012345678],
        [1.0, 0.0],
        [0.8888888888888888, 0.1111111111111111],
        [1.0, 0.0],
        [0.0, 1.0],
        [0.3333333333333333, 0.6666666666666666],
        [0.21495327102803738, 0.7850467289719626],
        [0.41818181818181815, 0.5818181818181818],
        [0.5476190476190477, 0.4523809523809524],
        [0.7666666666666667, 0.23333333333333334],
        [0.5384615384615384, 0.46153846153846156],
        [0.7, 0.3],
        [0.0, 1.0],
        [0.875, 0.125],
        [0.5, 0.5],
        [1.0, 0.0],
        [0.0, 1.0],
        [0.9411764705882353, 0.058823529411764705],
        [1.0, 0.0],
        [0.0, 1.0],
        [0.0, 1.0],
        [0.0, 1.0],
        [0.0, 1.0],
        [0.0, 1.0]
      ]
    },
    {
      "children_left": [
        1, 2, 3, 4, -1, 6, 7, -1, 9, -1, 11, -1, -1, 14, -1, -1, 17, -1, 19, -1,
        -1, 22, 23, 24, 25, -1, -1, 28, 29, -1, -1, -1, -1, -1, -1
      ],
      "children_right": [
        34, 21, 16, 5, -1, 13, 8, -1, 10, -1, 12, -1, -1, 15, -1, -1, 18, -1,
        20, -1, -1, 33, 32, 27, 26, -1, -1, 31, 30, -1, -1, -1, -1, -1, -1
      ],
      "feature": [
        0, 9, 15, 13, -2, 13, 7, -2, 14, -2, 11, -2, -2, 0, -2, -2, 3, -2, 11,
        -2, -2, 14, 9, 12, 10, -2, -2, 8, 10, -2, -2, -2, -2, -2, -2
      ],
      "threshold": [
        0.2280159592628479, 0.08542657643556595, 0.5317172110080719,
        0.4054054617881775, -2.0, 0.5305643081665039, 0.14616574347019196, -2.0,
        0.5398885011672974, -2.0, 0.571536511182785, -2.0, -2.0,
        0.13300135731697083, -2.0, -2.0, 0.4796299487352371, -2.0,
        0.5300968885421753, -2.0, -2.0, 0.5191226005554199, 0.12718944251537323,
        0.5038571953773499, 0.4781186282634735, -2.0, -2.0,
        0.053103575482964516, 0.3962078243494034, -2.0, -2.0, -2.0, -2.0, -2.0,
        -2.0
      ],
      "value": [
        [0.4419475655430712, 0.5580524344569289],
        [0.543778801843318, 0.45622119815668205],
        [0.7724137931034483, 0.22758620689655173],
        [0.8503937007874016, 0.14960629921259844],
        [0.0, 1.0],
        [0.907563025210084, 0.09243697478991597],
        [0.954954954954955, 0.04504504504504504],
        [1.0, 0.0],
        [0.7727272727272727, 0.22727272727272727],
        [1.0, 0.0],
        [0.16666666666666666, 0.8333333333333334],
        [0.0, 1.0],
        [1.0, 0.0],
        [0.25, 0.75],
        [0.6666666666666666, 0.3333333333333333],
        [0.0, 1.0],
        [0.2222222222222222, 0.7777777777777778],
        [0.0, 1.0],
        [0.6666666666666666, 0.3333333333333333],
        [0.0, 1.0],
        [1.0, 0.0],
        [0.08333333333333333, 0.9166666666666666],
        [0.1875, 0.8125],
        [0.35294117647058826, 0.6470588235294118],
        [0.8, 0.2],
        [0.0, 1.0],
        [1.0, 0.0],
        [0.16666666666666666, 0.8333333333333334],
        [0.5, 0.5],
        [1.0, 0.0],
        [0.0, 1.0],
        [0.0, 1.0],
        [0.0, 1.0],
        [0.0, 1.0],
        [0.0, 1.0]
      ]
    },
    {
      "children_left": [
        1, 2, 3, 4, 5, 6, -1, -1, -1, -1, 11, 12, -1, 14, -1, -1, 17, 18, 19,
        -1, -1, -1, 23, 24, -1, -1, 27, -1, -1, 30, 31, 32, 33, -1, -1, 36, -1,
        -1, -1, -1, -1
      ],
      "children_right": [
        40, 29, 10, 9, 8, 7, -1, -1, -1, -1, 16, 13, -1, 15, -1, -1, 22, 21, 20,
        -1, -1, -1, 26, 25, -1, -1, 28, -1, -1, 39, 38, 35, 34, -1, -1, 37, -1,
        -1, -1, -1, -1
      ],
      "feature": [
        0, 9, 2, 5, 10, 5, -2, -2, -2, -2, 5, 2, -2, 5, -2, -2, 7, 12, 13, -2,
        -2, -2, 13, 8, -2, -2, 6, -2, -2, 14, 11, 12, 3, -2, -2, 8, -2, -2, -2,
        -2, -2
      ],
      "threshold": [
        0.2280159592628479, 0.08542657643556595, 0.4400811642408371,
        0.5498085021972656, 0.46546657383441925, 0.5260768532752991, -2.0, -2.0,
        -2.0, -2.0, 0.5054325759410858, 0.48262549936771393, -2.0,
        0.44545193016529083, -2.0, -2.0, 0.1253202185034752, 0.4429759383201599,
        0.49377962946891785, -2.0, -2.0, -2.0, 0.4576488882303238,
        0.02824792917817831, -2.0, -2.0, 0.4721858873963356, -2.0, -2.0,
        0.5191226005554199, 0.5046153664588928, 0.5178827345371246,
        0.5245435535907745, -2.0, -2.0, 0.0570196732878685, -2.0, -2.0, -2.0,
        -2.0, -2.0
      ],
      "value": [
        [0.4419475655430712, 0.5580524344569289],
        [0.543778801843318, 0.45622119815668205],
        [0.7724137931034483, 0.22758620689655173],
        [0.35714285714285715, 0.6428571428571429],
        [0.5, 0.5],
        [0.09090909090909091, 0.9090909090909091],
        [0.0, 1.0],
        [1.0, 0.0],
        [1.0, 0.0],
        [0.0, 1.0],
        [0.8717948717948718, 0.1282051282051282],
        [0.42857142857142855, 0.5714285714285714],
        [0.0, 1.0],
        [0.8571428571428571, 0.14285714285714285],
        [0.0, 1.0],
        [1.0, 0.0],
        [0.9320388349514563, 0.06796116504854369],
        [0.975609756097561, 0.024390243902439025],
        [0.75, 0.25],
        [1.0, 0.0],
        [0.0, 1.0],
        [1.0, 0.0],
        [0.7619047619047619, 0.23809523809523808],
        [0.3333333333333333, 0.6666666666666666],
        [1.0, 0.0],
        [0.0, 1.0],
        [0.9333333333333333, 0.06666666666666667],
        [1.0, 0.0],
        [0.0, 1.0],
        [0.08333333333333333, 0.9166666666666666],
        [0.1875, 0.8125],
        [0.42857142857142855, 0.5714285714285714],
        [0.8333333333333334, 0.16666666666666666],
        [1.0, 0.0],
        [0.0, 1.0],
        [0.125, 0.875],
        [1.0, 0.0],
        [0.0, 1.0],
        [0.0, 1.0],
        [0.0, 1.0],
        [0.0, 1.0]
      ]
    },
    {
      "children_left": [
        1, 2, 3, 4, 5, 6, -1, 8, 9, -1, 11, -1, 13, -1, -1, 16, -1, -1, 19, -1,
        21, -1, -1, 24, -1, 26, -1, -1, 29, -1, 31, -1, 33, 34, -1, -1, -1, -1,
        -1
      ],
      "children_right": [
        38, 37, 28, 23, 18, 7, -1, 15, 10, -1, 12, -1, 14, -1, -1, 17, -1, -1,
        20, -1, 22, -1, -1, 25, -1, 27, -1, -1, 30, -1, 32, -1, 36, 35, -1, -1,
        -1, -1, -1
      ],
      "feature": [
        9, 0, 15, 14, 13, 7, -2, 3, 2, -2, 4, -2, 11, -2, -2, 13, -2, -2, 9, -2,
        15, -2, -2, 1, -2, 8, -2, -2, 4, -2, 10, -2, 0, 6, -2, -2, -2, -2, -2
      ],
      "threshold": [
        0.12170351296663284, 0.2280159592628479, 0.5317172110080719,
        0.5769542157649994, 0.5257396996021271, 0.1253202185034752, -2.0,
        0.4749174118041992, 0.4644329696893692, -2.0, 0.5007648766040802, -2.0,
        0.5392597913742065, -2.0, -2.0, 0.5102060437202454, -2.0, -2.0,
        0.0588991641998291, -2.0, 0.5026035308837891, -2.0, -2.0,
        0.10829329490661621, -2.0, 0.04075818136334419, -2.0, -2.0,
        0.5368633568286896, -2.0, 0.42371588945388794, -2.0,
        0.17968346923589706, 0.1320575773715973, -2.0, -2.0, -2.0, -2.0, -2.0
      ],
      "value": [
        [0.4419475655430712, 0.5580524344569289],
        [0.5514018691588785, 0.4485981308411215],
        [0.7065868263473054, 0.2934131736526946],
        [0.8188405797101449, 0.18115942028985507],
        [0.9090909090909091, 0.09090909090909091],
        [0.9469026548672567, 0.05309734513274336],
        [1.0, 0.0],
        [0.8285714285714286, 0.17142857142857143],
        [0.6428571428571429, 0.35714285714285715],
        [0.0, 1.0],
        [0.75, 0.25],
        [1.0, 0.0],
        [0.5714285714285714, 0.42857142857142855],
        [1.0, 0.0],
        [0.0, 1.0],
        [0.9523809523809523, 0.047619047619047616],
        [1.0, 0.0],
        [0.0, 1.0],
        [0.375, 0.625],
        [0.0, 1.0],
        [0.75, 0.25],
        [0.0, 1.0],
        [1.0, 0.0],
        [0.17647058823529413, 0.8235294117647058],
        [1.0, 0.0],
        [0.06666666666666667, 0.9333333333333333],
        [0.3333333333333333, 0.6666666666666666],
        [0.0, 1.0],
        [0.1724137931034483, 0.8275862068965517],
        [0.0, 1.0],
        [0.35714285714285715, 0.6428571428571429],
        [0.0, 1.0],
        [0.5555555555555556, 0.4444444444444444],
        [0.8333333333333334, 0.16666666666666666],
        [1.0, 0.0],
        [0.0, 1.0],
        [0.0, 1.0],
        [0.0, 1.0],
        [0.0, 1.0]
      ]
    },
    {
      "children_left": [
        1, 2, 3, -1, 5, 6, 7, -1, 9, 10, 11, 12, -1, -1, -1, -1, -1, -1, 19, 20,
        21, -1, 23, -1, -1, 26, -1, 28, -1, -1, -1, 32, -1, 34, -1, -1, -1
      ],
      "children_right": [
        36, 31, 4, -1, 18, 17, 8, -1, 16, 15, 14, 13, -1, -1, -1, -1, -1, -1,
        30, 25, 22, -1, 24, -1, -1, 27, -1, 29, -1, -1, -1, 33, -1, 35, -1, -1,
        -1
      ],
      "feature": [
        9, 12, 13, -2, 5, 0, 0, -2, 8, 15, 10, 3, -2, -2, -2, -2, -2, -2, 0, 6,
        0, -2, 9, -2, -2, 9, -2, 1, -2, -2, -2, 8, -2, 9, -2, -2, -2
      ],
      "threshold": [
        0.12170351296663284, 0.5592401027679443, 0.4076586216688156, -2.0,
        0.5357980132102966, 0.1878342404961586, 0.11680254712700844, -2.0,
        0.0718328021466732, 0.5317637622356415, 0.44728031754493713,
        0.4945412278175354, -2.0, -2.0, -2.0, -2.0, -2.0, -2.0,
        0.23816273361444473, 0.12109450623393059, 0.18932495266199112, -2.0,
        0.031243646517395973, -2.0, -2.0, 0.04784325882792473, -2.0,
        0.14767177402973175, -2.0, -2.0, -2.0, 0.13165449351072311, -2.0,
        0.0793624185025692, -2.0, -2.0, -2.0
      ],
      "value": [
        [0.4419475655430712, 0.5580524344569289],
        [0.5514018691588785, 0.4485981308411215],
        [0.6647727272727273, 0.3352272727272727],
        [0.0, 1.0],
        [0.73125, 0.26875],
        [0.38461538461538464, 0.6153846153846154],
        [0.5714285714285714, 0.42857142857142855],
        [1.0, 0.0],
        [0.4444444444444444, 0.5555555555555556],
        [0.7058823529411765, 0.29411764705882354],
        [0.8, 0.2],
        [0.9230769230769231, 0.07692307692307693],
        [1.0, 0.0],
        [0.5, 0.5],
        [0.0, 1.0],
        [0.0, 1.0],
        [0.0, 1.0],
        [0.0, 1.0],
        [0.8981481481481481, 0.10185185185185185],
        [0.941747572815534, 0.05825242718446602],
        [0.9882352941176471, 0.011764705882352941],
        [1.0, 0.0],
        [0.8888888888888888, 0.1111111111111111],
        [0.0, 1.0],
        [1.0, 0.0],
        [0.7222222222222222, 0.2777777777777778],
        [1.0, 0.0],
        [0.5, 0.5],
        [0.0, 1.0],
        [1.0, 0.0],
        [0.0, 1.0],
        [0.02631578947368421, 0.9736842105263158],
        [0.0, 1.0],
        [0.25, 0.75],
        [0.0, 1.0],
        [1.0, 0.0],
        [0.0, 1.0]
      ]
    },
    {
      "children_left": [
        1, 2, 3, 4, 5, 6, -1, 8, -1, 10, -1, -1, 13, 14, -1, -1, -1, 18, 19, 20,
        21, -1, -1, -1, 25, -1, -1, 28, 29, 30, -1, -1, -1, 34, -1, -1, 37, 38,
        -1, -1, -1, -1, 43, -1, -1
      ],
      "children_right": [
        42, 41, 36, 17, 12, 7, -1, 9, -1, 11, -1, -1, 16, 15, -1, -1, -1, 27,
        24, 23, 22, -1, -1, -1, 26, -1, -1, 33, 32, 31, -1, -1, -1, 35, -1, -1,
        40, 39, -1, -1, -1, -1, 44, -1, -1
      ],
      "feature": [
        12, 9, 0, 5, 2, 7, -2, 7, -2, 2, -2, -2, 15, 13, -2, -2, -2, 7, 6, 3, 3,
        -2, -2, -2, 12, -2, -2, 7, 2, 10, -2, -2, -2, 3, -2, -2, 1, 3, -2, -2,
        -2, -2, 6, -2, -2
      ],
      "threshold": [
        0.5588140487670898, 0.12170351296663284, 0.19439848512411118,
        0.5086585879325867, 0.48262549936771393, 0.1724030300974846, -2.0,
        0.1891070380806923, -2.0, 0.4099700003862381, -2.0, -2.0,
        0.5365217328071594, 0.47955912351608276, -2.0, -2.0, -2.0,
        0.13604053109884262, 0.141481913626194, 0.47335579991340637,
        0.4728906601667404, -2.0, -2.0, -2.0, 0.45553311705589294, -2.0, -2.0,
        0.1708512157201767, 0.4935544580221176, 0.5033655166625977, -2.0, -2.0,
        -2.0, 0.4348688870668411, -2.0, -2.0, 0.16303417831659317,
        0.44282135367393494, -2.0, -2.0, -2.0, -2.0, 0.03125183563679457, -2.0,
        -2.0
      ],
      "value": [
        [0.4419475655430712, 0.5580524344569289],
        [0.5518867924528302, 0.4481132075471698],
        [0.6647727272727273, 0.3352272727272727],
        [0.8057553956834532, 0.19424460431654678],
        [0.4166666666666667, 0.5833333333333334],
        [0.15384615384615385, 0.8461538461538461],
        [0.0, 1.0],
        [0.2857142857142857, 0.7142857142857143],
        [1.0, 0.0],
        [0.16666666666666666, 0.8333333333333334],
        [1.0, 0.0],
        [0.0, 1.0],
        [0.7272727272727273, 0.2727272727272727],
        [0.8888888888888888, 0.1111111111111111],
        [0.5, 0.5],
        [1.0, 0.0],
        [0.0, 1.0],
        [0.8869565217391304, 0.11304347826086956],
        [0.967391304347826, 0.03260869565217391],
        [0.9885057471264368, 0.011494252873563218],
        [0.8333333333333334, 0.16666666666666666],
        [1.0, 0.0],
        [0.0, 1.0],
        [1.0, 0.0],
        [0.6, 0.4],
        [0.0, 1.0],
        [1.0, 0.0],
        [0.5652173913043478, 0.43478260869565216],
        [0.3076923076923077, 0.6923076923076923],
        [0.5714285714285714, 0.42857142857142855],
        [1.0, 0.0],
        [0.0, 1.0],
        [0.0, 1.0],
        [0.9, 0.1],
        [0.0, 1.0],
        [1.0, 0.0],
        [0.13513513513513514, 0.8648648648648649],
        [0.4166666666666667, 0.5833333333333334],
        [0.0, 1.0],
        [1.0, 0.0],
        [0.0, 1.0],
        [0.0, 1.0],
        [0.01818181818181818, 0.9818181818181818],
        [0.3333333333333333, 0.6666666666666666],
        [0.0, 1.0]
      ]
    },
    {
      "children_left": [
        1, 2, 3, -1, 5, 6, 7, -1, 9, 10, 11, 12, -1, 14, -1, 16, -1, -1, -1, 20,
        -1, -1, -1, 24, -1, 26, -1, -1, -1, 30, 31, 32, -1, -1, -1, -1, -1
      ],
      "children_right": [
        36, 29, 4, -1, 28, 23, 8, -1, 22, 19, 18, 13, -1, 15, -1, 17, -1, -1,
        -1, 21, -1, -1, -1, 25, -1, 27, -1, -1, -1, 35, 34, 33, -1, -1, -1, -1,
        -1
      ],
      "feature": [
        9, 13, 2, -2, 0, 15, 13, -2, 5, 9, 6, 14, -2, 3, -2, 7, -2, -2, -2, 3,
        -2, -2, -2, 0, -2, 3, -2, -2, -2, 0, 1, 6, -2, -2, -2, -2, -2
      ],
      "threshold": [
        0.12170351296663284, 0.5297839045524597, 0.3587625175714493, -2.0,
        0.2322593852877617, 0.5317172110080719, 0.4054054617881775, -2.0,
        0.5653726756572723, 0.08323546499013901, 0.30559689551591873,
        0.5407956540584564, -2.0, 0.48571281135082245, -2.0,
        0.11032542958855629, -2.0, -2.0, -2.0, 0.44179728627204895, -2.0, -2.0,
        -2.0, 0.11323178932070732, -2.0, 0.4814431071281433, -2.0, -2.0, -2.0,
        0.11704831942915916, 0.13309524208307266, 0.05085267033427954, -2.0,
        -2.0, -2.0, -2.0, -2.0
      ],
      "value": [
        [0.4419475655430712, 0.5580524344569289],
        [0.5514018691588785, 0.4485981308411215],
        [0.6927710843373494, 0.3072289156626506],
        [0.0, 1.0],
        [0.7371794871794872, 0.26282051282051283],
        [0.8333333333333334, 0.16666666666666666],
        [0.8951612903225806, 0.10483870967741936],
        [0.0, 1.0],
        [0.9173553719008265, 0.08264462809917356],
        [0.8148148148148148, 0.18518518518518517],
        [0.9130434782608695, 0.08695652173913043],
        [0.9333333333333333, 0.06666666666666667],
        [1.0, 0.0],
        [0.625, 0.375],
        [1.0, 0.0],
        [0.25, 0.75],
        [1.0, 0.0],
        [0.0, 1.0],
        [0.0, 1.0],
        [0.25, 0.75],
        [1.0, 0.0],
        [0.0, 1.0],
        [1.0, 0.0],
        [0.2857142857142857, 0.7142857142857143],
        [1.0, 0.0],
        [0.16666666666666666, 0.8333333333333334],
        [0.0, 1.0],
        [0.6666666666666666, 0.3333333333333333],
        [0.0, 1.0],
        [0.0625, 0.9375],
        [0.5, 0.5],
        [0.25, 0.75],
        [1.0, 0.0],
        [0.0, 1.0],
        [1.0, 0.0],
        [0.0, 1.0],
        [0.0, 1.0]
      ]
    },
    {
      "children_left": [
        1, 2, 3, 4, -1, 6, 7, 8, -1, 10, -1, -1, -1, 14, 15, -1, 17, 18, 19, -1,
        -1, -1, 23, 24, 25, -1, -1, -1, 29, -1, -1, -1, 33, -1, 35, 36, 37, -1,
        -1, -1, -1, -1, -1
      ],
      "children_right": [
        42, 41, 32, 5, -1, 13, 12, 9, -1, 11, -1, -1, -1, 31, 16, -1, 22, 21,
        20, -1, -1, -1, 28, 27, 26, -1, -1, -1, 30, -1, -1, -1, 34, -1, 40, 39,
        38, -1, -1, -1, -1, -1, -1
      ],
      "feature": [
        9, 0, 13, 2, -2, 7, 2, 15, -2, 2, -2, -2, -2, 6, 8, -2, 5, 7, 14, -2,
        -2, -2, 4, 9, 2, -2, -2, -2, 8, -2, -2, -2, 1, -2, 0, 1, 7, -2, -2, -2,
        -2, -2, -2
      ],
      "threshold": [
        0.12170351296663284, 0.2280159592628479, 0.519271194934845,
        0.35230767726898193, -2.0, 0.13604053109884262, 0.4693494588136673,
        0.49784064292907715, -2.0, 0.4640796035528183, -2.0, -2.0, -2.0,
        0.2995753064751625, 0.02205672487616539, -2.0, 0.5274755358695984,
        0.21885881572961807, 0.5341541469097137, -2.0, -2.0, -2.0,
        0.5173294842243195, 0.06617488712072372, 0.4109092801809311, -2.0, -2.0,
        -2.0, 0.028591569513082504, -2.0, -2.0, -2.0, 0.09945874661207199, -2.0,
        0.11680254712700844, 0.1250147521495819, 0.11891590058803558, -2.0,
        -2.0, -2.0, -2.0, -2.0, -2.0
      ],
      "value": [
        [0.4419475655430712, 0.5580524344569289],
        [0.5514018691588785, 0.4485981308411215],
        [0.7065868263473054, 0.2934131736526946],
        [0.8257575757575758, 0.17424242424242425],
        [0.0, 1.0],
        [0.8650793650793651, 0.1349206349206349],
        [0.978021978021978, 0.02197802197802198],
        [0.9047619047619048, 0.09523809523809523],
        [1.0, 0.0],
        [0.6, 0.4],
        [1.0, 0.0],
        [0.0, 1.0],
        [1.0, 0.0],
        [0.5714285714285714, 0.42857142857142855],
        [0.625, 0.375],
        [1.0, 0.0],
        [0.5555555555555556, 0.4444444444444444],
        [0.7692307692307693, 0.23076923076923078],
        [0.9090909090909091, 0.09090909090909091],
        [1.0, 0.0],
        [0.5, 0.5],
        [0.0, 1.0],
        [0.35714285714285715, 0.6428571428571429],
        [0.6666666666666666, 0.3333333333333333],
        [0.8, 0.2],
        [0.0, 1.0],
        [1.0, 0.0],
        [0.0, 1.0],
        [0.125, 0.875],
        [1.0, 0.0],
        [0.0, 1.0],
        [0.0, 1.0],
        [0.2571428571428571, 0.7428571428571429],
        [1.0, 0.0],
        [0.16129032258064516, 0.8387096774193549],
        [0.625, 0.375],
        [0.25, 0.75],
        [0.0, 1.0],
        [1.0, 0.0],
        [1.0, 0.0],
        [0.0, 1.0],
        [0.0, 1.0],
        [0.0, 1.0]
      ]
    },
    {
      "children_left": [
        1, 2, 3, -1, 5, 6, 7, 8, 9, 10, 11, 12, -1, -1, -1, -1, -1, 18, -1, -1,
        -1, 22, 23, -1, 25, 26, -1, -1, -1, 30, 31, -1, -1, -1, -1, 36, 37, -1,
        -1, 40, -1, -1, -1
      ],
      "children_right": [
        42, 35, 4, -1, 34, 21, 20, 17, 16, 15, 14, 13, -1, -1, -1, -1, -1, 19,
        -1, -1, -1, 29, 24, -1, 28, 27, -1, -1, -1, 33, 32, -1, -1, -1, -1, 39,
        38, -1, -1, 41, -1, -1, -1
      ],
      "feature": [
        9, 13, 2, -2, 0, 5, 0, 12, 6, 13, 11, 12, -2, -2, -2, -2, -2, 6, -2, -2,
        -2, 7, 9, -2, 9, 5, -2, -2, -2, 7, 7, -2, -2, -2, -2, 10, 6, -2, -2, 11,
        -2, -2, -2
      ],
      "threshold": [
        0.12170351296663284, 0.5297839045524597, 0.3587625175714493, -2.0,
        0.2322593852877617, 0.5357980132102966, 0.1878342404961586,
        0.5312691926956177, 0.21036699414253235, 0.5121356844902039,
        0.5602484941482544, 0.4608079046010971, -2.0, -2.0, -2.0, -2.0, -2.0,
        0.4565106928348541, -2.0, -2.0, -2.0, 0.1354963555932045,
        0.05218290537595749, -2.0, 0.061196230351924896, 0.5993761718273163,
        -2.0, -2.0, -2.0, 0.1708512157201767, 0.14616574347019196, -2.0, -2.0,
        -2.0, -2.0, 0.542330801486969, 0.020536948926746845, -2.0, -2.0,
        0.4057781249284744, -2.0, -2.0, -2.0
      ],
      "value": [
        [0.4419475655430712, 0.5580524344569289],
        [0.5514018691588785, 0.4485981308411215],
        [0.6927710843373494, 0.3072289156626506],
        [0.0, 1.0],
        [0.7371794871794872, 0.26282051282051283],
        [0.8333333333333334, 0.16666666666666666],
        [0.53125, 0.46875],
        [0.6538461538461539, 0.34615384615384615],
        [0.5294117647058824, 0.47058823529411764],
        [0.6923076923076923, 0.3076923076923077],
        [0.5555555555555556, 0.4444444444444444],
        [0.8333333333333334, 0.16666666666666666],
        [0.5, 0.5],
        [1.0, 0.0],
        [0.0, 1.0],
        [1.0, 0.0],
        [0.0, 1.0],
        [0.8888888888888888, 0.1111111111111111],
        [1.0, 0.0],
        [0.0, 1.0],
        [0.0, 1.0],
        [0.9245283018867925, 0.07547169811320754],
        [0.978494623655914, 0.021505376344086023],
        [1.0, 0.0],
        [0.8666666666666667, 0.13333333333333333],
        [0.6, 0.4],
        [1.0, 0.0],
        [0.0, 1.0],
        [1.0, 0.0],
        [0.5384615384615384, 0.46153846153846156],
        [0.25, 0.75],
        [0.6666666666666666, 0.3333333333333333],
        [0.0, 1.0],
        [1.0, 0.0],
        [0.0, 1.0],
        [0.0625, 0.9375],
        [0.023809523809523808, 0.9761904761904762],
        [0.5, 0.5],
        [0.0, 1.0],
        [0.3333333333333333, 0.6666666666666666],
        [1.0, 0.0],
        [0.0, 1.0],
        [0.0, 1.0]
      ]
    },
    {
      "children_left": [
        1, 2, 3, 4, -1, 6, 7, 8, 9, -1, 11, -1, -1, -1, -1, -1, -1, 18, 19, 20,
        -1, -1, 23, 24, -1, -1, -1, 28, -1, 30, 31, 32, -1, -1, -1, 36, 37, -1,
        -1, 40, 41, -1, -1, -1, 45, 46, 47, -1, 49, -1, -1, -1, -1
      ],
      "children_right": [
        44, 17, 16, 5, -1, 15, 14, 13, 10, -1, 12, -1, -1, -1, -1, -1, -1, 27,
        22, 21, -1, -1, 26, 25, -1, -1, -1, 29, -1, 35, 34, 33, -1, -1, -1, 39,
        38, -1, -1, 43, 42, -1, -1, -1, 52, 51, 48, -1, 50, -1, -1, -1, -1
      ],
      "feature": [
        13, 7, 1, 9, -2, 7, 6, 6, 6, -2, 8, -2, -2, -2, -2, -2, -2, 1, 11, 3,
        -2, -2, 5, 7, -2, -2, -2, 3, -2, 11, 14, 14, -2, -2, -2, 3, 10, -2, -2,
        2, 13, -2, -2, -2, 12, 15, 7, -2, 11, -2, -2, -2, -2
      ],
      "threshold": [
        0.5297839045524597, 0.13604053109884262, 0.24358365684747696,
        0.05218290537595749, -2.0, 0.12744542956352234, 0.13766617327928543,
        0.09410472586750984, 0.050800422206521034, -2.0, 0.05739128589630127,
        -2.0, -2.0, -2.0, -2.0, -2.0, -2.0, 0.12385585159063339,
        0.5354568660259247, 0.5189338773488998, -2.0, -2.0, 0.524141401052475,
        0.2133486568927765, -2.0, -2.0, -2.0, 0.45487044751644135, -2.0,
        0.41351059079170227, 0.5449776351451874, 0.4865460991859436, -2.0, -2.0,
        -2.0, 0.4644909203052521, 0.4450872391462326, -2.0, -2.0,
        0.4356842339038849, 0.4500849097967148, -2.0, -2.0, -2.0,
        0.5592234134674072, 0.5410135090351105, 0.07277710735797882, -2.0,
        0.3859924226999283, -2.0, -2.0, -2.0, -2.0
      ],
      "value": [
        [0.4419475655430712, 0.5580524344569289],
        [0.5693069306930693, 0.4306930693069307],
        [0.8392857142857143, 0.16071428571428573],
        [0.9591836734693877, 0.04081632653061224],
        [1.0, 0.0],
        [0.7777777777777778, 0.2222222222222222],
        [0.6666666666666666, 0.3333333333333333],
        [0.7272727272727273, 0.2727272727272727],
        [0.5, 0.5],
        [1.0, 0.0],
        [0.25, 0.75],
        [0.5, 0.5],
        [0.0, 1.0],
        [1.0, 0.0],
        [0.0, 1.0],
        [1.0, 0.0],
        [0.0, 1.0],
        [0.23333333333333334, 0.7666666666666667],
        [0.5714285714285714, 0.42857142857142855],
        [0.9, 0.1],
        [1.0, 0.0],
        [0.0, 1.0],
        [0.2727272727272727, 0.7272727272727273],
        [0.5, 0.5],
        [1.0, 0.0],
        [0.0, 1.0],
        [0.0, 1.0],
        [0.13043478260869565, 0.8695652173913043],
        [0.0, 1.0],
        [0.1836734693877551, 0.8163265306122449],
        [0.5555555555555556, 0.4444444444444444],
        [0.8333333333333334, 0.16666666666666666],
        [0.0, 1.0],
        [1.0, 0.0],
        [0.0, 1.0],
        [0.1, 0.9],
        [0.75, 0.25],
        [1.0, 0.0],
        [0.5, 0.5],
        [0.027777777777777776, 0.9722222222222222],
        [0.16666666666666666, 0.8333333333333334],
        [0.5, 0.5],
        [0.0, 1.0],
        [0.0, 1.0],
        [0.046153846153846156, 0.9538461538461539],
        [0.14285714285714285, 0.8571428571428571],
        [0.375, 0.625],
        [1.0, 0.0],
        [0.16666666666666666, 0.8333333333333334],
        [1.0, 0.0],
        [0.0, 1.0],
        [0.0, 1.0],
        [0.0, 1.0]
      ]
    },
    {
      "children_left": [
        1, 2, 3, 4, 5, 6, 7, 8, 9, 10, -1, -1, -1, -1, 15, -1, -1, -1, 19, -1,
        -1, -1, 23, 24, -1, 26, 27, -1, -1, -1, 31, 32, 33, -1, -1, -1, -1, 38,
        39, -1, 41, 42, 43, -1, -1, -1, 47, -1, -1, -1, -1
      ],
      "children_right": [
        50, 37, 22, 21, 18, 17, 14, 13, 12, 11, -1, -1, -1, -1, 16, -1, -1, -1,
        20, -1, -1, -1, 30, 25, -1, 29, 28, -1, -1, -1, 36, 35, 34, -1, -1, -1,
        -1, 49, 40, -1, 46, 45, 44, -1, -1, -1, 48, -1, -1, -1, -1
      ],
      "feature": [
        1, 8, 3, 4, 13, 13, 0, 10, 2, 9, -2, -2, -2, -2, 4, -2, -2, -2, 1, -2,
        -2, -2, 7, 4, -2, 12, 12, -2, -2, -2, 14, 9, 10, -2, -2, -2, -2, 7, 5,
        -2, 0, 11, 15, -2, -2, -2, 10, -2, -2, -2, -2
      ],
      "threshold": [
        0.2071138173341751, 0.0989748053252697, 0.4739251583814621,
        0.594397097826004, 0.5215671956539154, 0.5025783479213715,
        0.17784809321165085, 0.5272721648216248, 0.5668677687644958,
        0.08271832391619682, -2.0, -2.0, -2.0, -2.0, 0.4855035990476608, -2.0,
        -2.0, -2.0, 0.09567439556121826, -2.0, -2.0, -2.0, 0.13604053109884262,
        0.49265235662460327, -2.0, 0.4429759383201599, 0.44139423966407776,
        -2.0, -2.0, -2.0, 0.5561959147453308, 0.09448620304465294,
        0.4249579459428787, -2.0, -2.0, -2.0, -2.0, 0.18428827077150345,
        0.5051358193159103, -2.0, 0.12052204459905624, 0.48069658875465393,
        0.4483898729085922, -2.0, -2.0, -2.0, 0.4481305330991745, -2.0, -2.0,
        -2.0, -2.0
      ],
      "value": [
        [0.4419475655430712, 0.5580524344569289],
        [0.543778801843318, 0.45622119815668205],
        [0.75, 0.25],
        [0.4, 0.6],
        [0.47058823529411764, 0.5294117647058824],
        [0.6521739130434783, 0.34782608695652173],
        [0.5294117647058824, 0.47058823529411764],
        [0.36363636363636365, 0.6363636363636364],
        [0.2222222222222222, 0.7777777777777778],
        [0.125, 0.875],
        [1.0, 0.0],
        [0.0, 1.0],
        [1.0, 0.0],
        [1.0, 0.0],
        [0.8333333333333334, 0.16666666666666666],
        [0.0, 1.0],
        [1.0, 0.0],
        [1.0, 0.0],
        [0.09090909090909091, 0.9090909090909091],
        [1.0, 0.0],
        [0.0, 1.0],
        [0.0, 1.0],
        [0.89, 0.11],
        [0.975609756097561, 0.024390243902439025],
        [0.0, 1.0],
        [0.9876543209876543, 0.012345679012345678],
        [0.8571428571428571, 0.14285714285714285],
        [1.0, 0.0],
        [0.0, 1.0],
        [1.0, 0.0],
        [0.5, 0.5],
        [0.6428571428571429, 0.35714285714285715],
        [0.8181818181818182, 0.18181818181818182],
        [0.0, 1.0],
        [1.0, 0.0],
        [0.0, 1.0],
        [0.0, 1.0],
        [0.16883116883116883, 0.8311688311688312],
        [0.3939393939393939, 0.6060606060606061],
        [0.0, 1.0],
        [0.48148148148148145, 0.5185185185185185],
        [0.7058823529411765, 0.29411764705882354],
        [0.8571428571428571, 0.14285714285714285],
        [0.3333333333333333, 0.6666666666666666],
        [1.0, 0.0],
        [0.0, 1.0],
        [0.1, 0.9],
        [1.0, 0.0],
        [0.0, 1.0],
        [0.0, 1.0],
        [0.0, 1.0]
      ]
    },
    {
      "children_left": [
        1, 2, 3, 4, -1, 6, 7, 8, 9, -1, -1, -1, 13, -1, -1, -1, -1, 18, 19, 20,
        21, 22, 23, 24, 25, 26, -1, -1, -1, -1, 31, -1, -1, 34, -1, -1, -1, -1,
        -1, -1, 41, 42, -1, -1, -1
      ],
      "children_right": [
        40, 17, 16, 5, -1, 15, 12, 11, 10, -1, -1, -1, 14, -1, -1, -1, -1, 39,
        38, 37, 36, 33, 30, 29, 28, 27, -1, -1, -1, -1, 32, -1, -1, 35, -1, -1,
        -1, -1, -1, -1, 44, 43, -1, -1, -1
      ],
      "feature": [
        12, 7, 0, 3, -2, 10, 13, 2, 2, -2, -2, -2, 5, -2, -2, -2, -2, 8, 15, 1,
        7, 6, 1, 2, 5, 6, -2, -2, -2, -2, 12, -2, -2, 0, -2, -2, -2, -2, -2, -2,
        13, 4, -2, -2, -2
      ],
      "threshold": [
        0.5588140487670898, 0.13485807180404663, 0.23816273361444473,
        0.3891410678625107, -2.0, 0.5210420191287994, 0.5155566036701202,
        0.46971724927425385, 0.4640796035528183, -2.0, -2.0, -2.0,
        0.5735632181167603, -2.0, -2.0, -2.0, -2.0, 0.1305585578083992,
        0.5274912416934967, 0.20491767674684525, 0.23536963760852814,
        0.18128568679094315, 0.1249968409538269, 0.5398736298084259,
        0.5266402959823608, 0.16645973920822144, -2.0, -2.0, -2.0, -2.0,
        0.557487815618515, -2.0, -2.0, 0.1801113709807396, -2.0, -2.0, -2.0,
        -2.0, -2.0, -2.0, 0.5280782878398895, 0.4989427328109741, -2.0, -2.0,
        -2.0
      ],
      "value": [
        [0.4419475655430712, 0.5580524344569289],
        [0.5518867924528302, 0.4481132075471698],
        [0.8034188034188035, 0.19658119658119658],
        [0.9306930693069307, 0.06930693069306931],
        [0.0, 1.0],
        [0.9591836734693877, 0.04081632653061224],
        [0.9375, 0.0625],
        [0.9821428571428571, 0.017857142857142856],
        [0.8888888888888888, 0.1111111111111111],
        [1.0, 0.0],
        [0.0, 1.0],
        [1.0, 0.0],
        [0.625, 0.375],
        [1.0, 0.0],
        [0.0, 1.0],
        [1.0, 0.0],
        [0.0, 1.0],
        [0.24210526315789474, 0.7578947368421053],
        [0.3484848484848485, 0.6515151515151515],
        [0.4791666666666667, 0.5208333333333334],
        [0.5476190476190477, 0.4523809523809524],
        [0.6052631578947368, 0.39473684210526316],
        [0.46153846153846156, 0.5384615384615384],
        [0.7333333333333333, 0.26666666666666666],
        [0.6363636363636364, 0.36363636363636365],
        [0.875, 0.125],
        [1.0, 0.0],
        [0.0, 1.0],
        [0.0, 1.0],
        [1.0, 0.0],
        [0.09090909090909091, 0.9090909090909091],
        [0.0, 1.0],
        [1.0, 0.0],
        [0.9166666666666666, 0.08333333333333333],
        [1.0, 0.0],
        [0.0, 1.0],
        [0.0, 1.0],
        [0.0, 1.0],
        [0.0, 1.0],
        [0.0, 1.0],
        [0.01818181818181818, 0.9818181818181818],
        [0.09090909090909091, 0.9090909090909091],
        [0.0, 1.0],
        [0.5, 0.5],
        [0.0, 1.0]
      ]
    },
    {
      "children_left": [
        1, 2, 3, 4, 5, -1, -1, 8, -1, -1, 11, 12, -1, 14, 15, -1, 17, -1, 19,
        -1, -1, -1, 23, 24, 25, -1, -1, -1, 29, 30, -1, -1, -1, 34, 35, 36, 37,
        38, -1, -1, -1, -1, -1, -1, -1
      ],
      "children_right": [
        44, 33, 10, 7, 6, -1, -1, 9, -1, -1, 22, 13, -1, 21, 16, -1, 18, -1, 20,
        -1, -1, -1, 28, 27, 26, -1, -1, -1, 32, 31, -1, -1, -1, 43, 42, 41, 40,
        39, -1, -1, -1, -1, -1, -1, -1
      ],
      "feature": [
        0, 9, 3, 10, 2, -2, -2, 1, -2, -2, 7, 9, -2, 2, 1, -2, 14, -2, 11, -2,
        -2, -2, 7, 14, 13, -2, -2, -2, 9, 6, -2, -2, -2, 7, 11, 12, 14, 4, -2,
        -2, -2, -2, -2, -2, -2
      ],
      "threshold": [
        0.2280159592628479, 0.08542657643556595, 0.4327062964439392,
        0.4058634787797928, 0.47517016530036926, -2.0, -2.0, 0.1290290355682373,
        -2.0, -2.0, 0.13463731855154037, 0.042956944555044174, -2.0,
        0.47830110788345337, 0.12325763702392578, -2.0, 0.4736951142549515,
        -2.0, 0.4369252920150757, -2.0, -2.0, -2.0, 0.1584753394126892,
        0.5595879852771759, 0.5207174122333527, -2.0, -2.0, -2.0,
        0.04689108207821846, 0.16051746159791946, -2.0, -2.0, -2.0,
        0.20500411838293076, 0.5046153664588928, 0.5333462357521057,
        0.5259412825107574, 0.4774893671274185, -2.0, -2.0, -2.0, -2.0, -2.0,
        -2.0, -2.0
      ],
      "value": [
        [0.4419475655430712, 0.5580524344569289],
        [0.543778801843318, 0.45622119815668205],
        [0.7724137931034483, 0.22758620689655173],
        [0.18181818181818182, 0.8181818181818182],
        [0.6, 0.4],
        [0.0, 1.0],
        [1.0, 0.0],
        [0.058823529411764705, 0.9411764705882353],
        [1.0, 0.0],
        [0.0, 1.0],
        [0.8780487804878049, 0.12195121951219512],
        [0.9574468085106383, 0.0425531914893617],
        [1.0, 0.0],
        [0.84, 0.16],
        [0.6, 0.4],
        [1.0, 0.0],
        [0.3333333333333333, 0.6666666666666666],
        [1.0, 0.0],
        [0.2, 0.8],
        [1.0, 0.0],
        [0.0, 1.0],
        [1.0, 0.0],
        [0.6206896551724138, 0.3793103448275862],
        [0.3, 0.7],
        [0.6, 0.4],
        [1.0, 0.0],
        [0.0, 1.0],
        [0.0, 1.0],
        [0.7894736842105263, 0.21052631578947367],
        [0.3333333333333333, 0.6666666666666666],
        [0.6666666666666666, 0.3333333333333333],
        [0.0, 1.0],
        [1.0, 0.0],
        [0.08333333333333333, 0.9166666666666666],
        [0.18181818181818182, 0.8181818181818182],
        [0.2727272727272727, 0.7272727272727273],
        [0.42857142857142855, 0.5714285714285714],
        [0.75, 0.25],
        [0.0, 1.0],
        [1.0, 0.0],
        [0.0, 1.0],
        [0.0, 1.0],
        [0.0, 1.0],
        [0.0, 1.0],
        [0.0, 1.0]
      ]
    },
    {
      "children_left": [
        1, 2, 3, 4, 5, -1, 7, -1, 9, -1, -1, 12, -1, -1, -1, 16, 17, 18, 19, 20,
        21, 22, 23, 24, -1, -1, 27, -1, -1, -1, -1, -1, -1, -1, -1, -1, 37, 38,
        -1, 40, -1, -1, -1
      ],
      "children_right": [
        36, 15, 14, 11, 6, -1, 8, -1, 10, -1, -1, 13, -1, -1, -1, 35, 34, 33,
        32, 31, 30, 29, 26, 25, -1, -1, 28, -1, -1, -1, -1, -1, -1, -1, -1, -1,
        42, 39, -1, 41, -1, -1, -1
      ],
      "feature": [
        13, 7, 0, 15, 9, -2, 0, -2, 13, -2, -2, 3, -2, -2, -2, 5, 7, 8, 0, 9, 6,
        15, 7, 11, -2, -2, 4, -2, -2, -2, -2, -2, -2, -2, -2, -2, 12, 8, -2, 11,
        -2, -2, -2
      ],
      "threshold": [
        0.5297839045524597, 0.13604053109884262, 0.23816273361444473,
        0.5362534821033478, 0.058784015476703644, -2.0, 0.08991559594869614,
        -2.0, 0.4054054617881775, -2.0, -2.0, 0.4866076111793518, -2.0, -2.0,
        -2.0, 0.5723915100097656, 0.23392044752836227, 0.13056061416864395,
        0.19446370750665665, 0.10585378110408783, 0.18128568679094315,
        0.5241560339927673, 0.1524437889456749, 0.4105716794729233, -2.0, -2.0,
        0.45918188989162445, -2.0, -2.0, -2.0, -2.0, -2.0, -2.0, -2.0, -2.0,
        -2.0, 0.5592234134674072, 0.04673820547759533, -2.0, 0.3930723965167999,
        -2.0, -2.0, -2.0
      ],
      "value": [
        [0.4419475655430712, 0.5580524344569289],
        [0.5693069306930693, 0.4306930693069307],
        [0.8392857142857143, 0.16071428571428573],
        [0.9591836734693877, 0.04081632653061224],
        [0.978494623655914, 0.021505376344086023],
        [1.0, 0.0],
        [0.8, 0.2],
        [0.0, 1.0],
        [0.8888888888888888, 0.1111111111111111],
        [0.0, 1.0],
        [1.0, 0.0],
        [0.6, 0.4],
        [1.0, 0.0],
        [0.0, 1.0],
        [0.0, 1.0],
        [0.23333333333333334, 0.7666666666666667],
        [0.31343283582089554, 0.6865671641791045],
        [0.4117647058823529, 0.5882352941176471],
        [0.4883720930232558, 0.5116279069767442],
        [0.6363636363636364, 0.36363636363636365],
        [0.7777777777777778, 0.2222222222222222],
        [0.6470588235294118, 0.35294117647058826],
        [0.7333333333333333, 0.26666666666666666],
        [0.25, 0.75],
        [1.0, 0.0],
        [0.0, 1.0],
        [0.9090909090909091, 0.09090909090909091],
        [0.0, 1.0],
        [1.0, 0.0],
        [0.0, 1.0],
        [1.0, 0.0],
        [0.0, 1.0],
        [0.0, 1.0],
        [0.0, 1.0],
        [0.0, 1.0],
        [0.0, 1.0],
        [0.046153846153846156, 0.9538461538461539],
        [0.14285714285714285, 0.8571428571428571],
        [1.0, 0.0],
        [0.1, 0.9],
        [0.6666666666666666, 0.3333333333333333],
        [0.0, 1.0],
        [0.0, 1.0]
      ]
    },
    {
      "children_left": [
        1, 2, 3, 4, -1, 6, 7, -1, 9, -1, 11, -1, -1, 14, 15, -1, -1, -1, -1, 20,
        21, 22, -1, -1, 25, -1, 27, 28, -1, -1, -1, -1, 33, 34, 35, -1, -1, -1,
        -1
      ],
      "children_right": [
        32, 19, 18, 5, -1, 13, 8, -1, 10, -1, 12, -1, -1, 17, 16, -1, -1, -1,
        -1, 31, 24, 23, -1, -1, 26, -1, 30, 29, -1, -1, -1, -1, 38, 37, 36, -1,
        -1, -1, -1
      ],
      "feature": [
        13, 9, 0, 13, -2, 15, 4, -2, 14, -2, 12, -2, -2, 0, 11, -2, -2, -2, -2,
        9, 7, 6, -2, -2, 14, -2, 1, 13, -2, -2, -2, -2, 15, 0, 4, -2, -2, -2, -2
      ],
      "threshold": [
        0.5297839045524597, 0.08366459235548973, 0.2280159592628479,
        0.4054054617881775, -2.0, 0.5317172110080719, 0.45918188989162445, -2.0,
        0.5811871290206909, -2.0, 0.5240001678466797, -2.0, -2.0,
        0.17366156727075577, 0.5031069666147232, -2.0, -2.0, -2.0, -2.0,
        0.12170351296663284, 0.13686414062976837, 0.0847985316067934, -2.0,
        -2.0, 0.47436267137527466, -2.0, 0.10292311385273933,
        0.5016574859619141, -2.0, -2.0, -2.0, -2.0, 0.5363934636116028,
        0.11704831942915916, 0.5697003304958344, -2.0, -2.0, -2.0, -2.0
      ],
      "value": [
        [0.4419475655430712, 0.5580524344569289],
        [0.5693069306930693, 0.4306930693069307],
        [0.7465753424657534, 0.2534246575342466],
        [0.8515625, 0.1484375],
        [0.0, 1.0],
        [0.9083333333333333, 0.09166666666666666],
        [0.9636363636363636, 0.03636363636363636],
        [0.3333333333333333, 0.6666666666666666],
        [0.9813084112149533, 0.018691588785046728],
        [1.0, 0.0],
        [0.5, 0.5],
        [0.0, 1.0],
        [1.0, 0.0],
        [0.3, 0.7],
        [0.75, 0.25],
        [0.0, 1.0],
        [1.0, 0.0],
        [0.0, 1.0],
        [0.0, 1.0],
        [0.10714285714285714, 0.8928571428571429],
        [0.3, 0.7],
        [0.8, 0.2],
        [0.0, 1.0],
        [1.0, 0.0],
        [0.13333333333333333, 0.8666666666666667],
        [1.0, 0.0],
        [0.07142857142857142, 0.9285714285714286],
        [0.25, 0.75],
        [0.0, 1.0],
        [1.0, 0.0],
        [0.0, 1.0],
        [0.0, 1.0],
        [0.046153846153846156, 0.9538461538461539],
        [0.09375, 0.90625],
        [0.75, 0.25],
        [1.0, 0.0],
        [0.0, 1.0],
        [0.0, 1.0],
        [0.0, 1.0]
      ]
    },
    {
      "children_left": [
        1, 2, 3, 4, -1, 6, 7, -1, 9, -1, -1, 12, -1, 14, -1, -1, 17, -1, 19, -1,
        -1, -1, 23, 24, 25, 26, 27, -1, 29, 30, -1, -1, -1, -1, 35, 36, -1, -1,
        -1, 40, -1, -1, -1
      ],
      "children_right": [
        22, 21, 16, 5, -1, 11, 8, -1, 10, -1, -1, 13, -1, 15, -1, -1, 18, -1,
        20, -1, -1, -1, 42, 39, 34, 33, 28, -1, 32, 31, -1, -1, -1, -1, 38, 37,
        -1, -1, -1, 41, -1, -1, -1
      ],
      "feature": [
        7, 1, 12, 5, -2, 8, 0, -2, 13, -2, -2, 4, -2, 9, -2, -2, 7, -2, 11, -2,
        -2, -2, 9, 14, 13, 1, 2, -2, 8, 11, -2, -2, -2, -2, 0, 1, -2, -2, -2, 1,
        -2, -2, -2
      ],
      "threshold": [
        0.13485807180404663, 0.2140863761305809, 0.5601560473442078,
        0.4260786175727844, -2.0, 0.09163275361061096, 0.17002328485250473,
        -2.0, 0.41973350942134857, -2.0, -2.0, 0.5822579860687256, -2.0,
        0.05112437531352043, -2.0, -2.0, 0.08195327967405319, -2.0,
        0.5413106977939606, -2.0, -2.0, -2.0, 0.10585378110408783,
        0.5363202691078186, 0.519271194934845, 0.2113405242562294,
        0.5106092393398285, -2.0, 0.032993861474096775, 0.5392597913742065,
        -2.0, -2.0, -2.0, -2.0, 0.17601031064987183, 0.1926494538784027, -2.0,
        -2.0, -2.0, 0.10857784003019333, -2.0, -2.0, -2.0
      ],
      "value": [
        [0.4419475655430712, 0.5580524344569289],
        [0.6418918918918919, 0.3581081081081081],
        [0.8636363636363636, 0.13636363636363635],
        [0.94, 0.06],
        [0.0, 1.0],
        [0.9591836734693877, 0.04081632653061224],
        [0.9878048780487805, 0.012195121951219513],
        [1.0, 0.0],
        [0.9444444444444444, 0.05555555555555555],
        [0.0, 1.0],
        [1.0, 0.0],
        [0.8125, 0.1875],
        [1.0, 0.0],
        [0.25, 0.75],
        [1.0, 0.0],
        [0.0, 1.0],
        [0.1, 0.9],
        [0.0, 1.0],
        [0.25, 0.75],
        [0.0, 1.0],
        [1.0, 0.0],
        [0.0, 1.0],
        [0.19327731092436976, 0.8067226890756303],
        [0.34328358208955223, 0.6567164179104478],
        [0.5116279069767442, 0.4883720930232558],
        [0.7142857142857143, 0.2857142857142857],
        [0.8, 0.2],
        [1.0, 0.0],
        [0.5833333333333334, 0.4166666666666667],
        [0.875, 0.125],
        [1.0, 0.0],
        [0.5, 0.5],
        [0.0, 1.0],
        [0.0, 1.0],
        [0.13333333333333333, 0.8666666666666667],
        [0.4, 0.6],
        [0.6666666666666666, 0.3333333333333333],
        [0.0, 1.0],
        [0.0, 1.0],
        [0.041666666666666664, 0.9583333333333334],
        [1.0, 0.0],
        [0.0, 1.0],
        [0.0, 1.0]
      ]
    },
    {
      "children_left": [
        1, 2, 3, 4, -1, 6, -1, 8, -1, 10, -1, 12, 13, -1, -1, -1, -1, 18, 19,
        20, 21, -1, -1, 24, -1, -1, 27, 28, 29, -1, -1, 32, 33, -1, -1, 36, -1,
        -1, -1, -1, 41, -1, 43, -1, -1
      ],
      "children_right": [
        40, 17, 16, 5, -1, 7, -1, 9, -1, 11, -1, 15, 14, -1, -1, -1, -1, 39, 26,
        23, 22, -1, -1, 25, -1, -1, 38, 31, 30, -1, -1, 35, 34, -1, -1, 37, -1,
        -1, -1, -1, 42, -1, 44, -1, -1
      ],
      "feature": [
        12, 7, 1, 14, -2, 3, -2, 13, -2, 13, -2, 9, 10, -2, -2, -2, -2, 7, 1, 1,
        13, -2, -2, 14, -2, -2, 4, 10, 0, -2, -2, 0, 6, -2, -2, 8, -2, -2, -2,
        -2, 4, -2, 9, -2, -2
      ],
      "threshold": [
        0.5588140487670898, 0.13485807180404663, 0.2140863761305809,
        0.4552362859249115, -2.0, 0.25361910462379456, -2.0, 0.4054054617881775,
        -2.0, 0.5166251063346863, -2.0, 0.05780146084725857,
        0.49228624999523163, -2.0, -2.0, -2.0, -2.0, 0.23392044752836227,
        0.12493885308504105, 0.06438647396862507, 0.508940577507019, -2.0, -2.0,
        0.5383154153823853, -2.0, -2.0, 0.5173294842243195, 0.4659280478954315,
        0.17963185161352158, -2.0, -2.0, 0.11651717126369476,
        0.17319267243146896, -2.0, -2.0, 0.07647695764899254, -2.0, -2.0, -2.0,
        -2.0, 0.5115031599998474, -2.0, 0.09669193625450134, -2.0, -2.0
      ],
      "value": [
        [0.4419475655430712, 0.5580524344569289],
        [0.5518867924528302, 0.4481132075471698],
        [0.8034188034188035, 0.19658119658119658],
        [0.94, 0.06],
        [0.0, 1.0],
        [0.9494949494949495, 0.050505050505050504],
        [0.0, 1.0],
        [0.9690721649484536, 0.030927835051546393],
        [0.0, 1.0],
        [0.9791666666666666, 0.020833333333333332],
        [1.0, 0.0],
        [0.7777777777777778, 0.2222222222222222],
        [0.5, 0.5],
        [1.0, 0.0],
        [0.0, 1.0],
        [1.0, 0.0],
        [0.0, 1.0],
        [0.24210526315789474, 0.7578947368421053],
        [0.3150684931506849, 0.684931506849315],
        [0.6842105263157895, 0.3157894736842105],
        [0.2, 0.8],
        [0.0, 1.0],
        [1.0, 0.0],
        [0.8571428571428571, 0.14285714285714285],
        [1.0, 0.0],
        [0.3333333333333333, 0.6666666666666666],
        [0.18518518518518517, 0.8148148148148148],
        [0.38461538461538464, 0.6153846153846154],
        [0.18181818181818182, 0.8181818181818182],
        [1.0, 0.0],
        [0.0, 1.0],
        [0.5333333333333333, 0.4666666666666667],
        [0.875, 0.125],
        [0.5, 0.5],
        [1.0, 0.0],
        [0.14285714285714285, 0.8571428571428571],
        [1.0, 0.0],
        [0.0, 1.0],
        [0.0, 1.0],
        [0.0, 1.0],
        [0.01818181818181818, 0.9818181818181818],
        [0.0, 1.0],
        [0.1, 0.9],
        [1.0, 0.0],
        [0.0, 1.0]
      ]
    },
    {
      "children_left": [
        1, 2, 3, 4, 5, 6, -1, -1, 9, 10, -1, -1, -1, -1, -1, 16, 17, 18, 19, 20,
        -1, -1, -1, 24, -1, -1, 27, -1, -1, 30, 31, -1, 33, 34, 35, 36, -1, -1,
        39, 40, -1, -1, -1, 44, -1, -1, -1, -1, -1
      ],
      "children_right": [
        48, 15, 14, 13, 8, 7, -1, -1, 12, 11, -1, -1, -1, -1, -1, 29, 26, 23,
        22, 21, -1, -1, -1, 25, -1, -1, 28, -1, -1, 47, 32, -1, 46, 43, 38, 37,
        -1, -1, 42, 41, -1, -1, -1, 45, -1, -1, -1, -1, -1
      ],
      "feature": [
        0, 3, 13, 12, 10, 12, -2, -2, 11, 8, -2, -2, -2, -2, -2, 7, 8, 13, 3, 5,
        -2, -2, -2, 9, -2, -2, 15, -2, -2, 8, 10, -2, 3, 9, 4, 11, -2, -2, 15,
        14, -2, -2, -2, 1, -2, -2, -2, -2, -2
      ],
      "threshold": [
        0.2280159592628479, 0.45487044751644135, 0.5297790169715881,
        0.5475773215293884, 0.403838574886322, 0.44704724848270416, -2.0, -2.0,
        0.48884305357933044, 0.08284606784582138, -2.0, -2.0, -2.0, -2.0, -2.0,
        0.1318826973438263, 0.12373519688844681, 0.5321214497089386,
        0.47335579991340637, 0.6129139959812164, -2.0, -2.0, -2.0,
        0.06343376077711582, -2.0, -2.0, 0.5242753624916077, -2.0, -2.0,
        0.14584027975797653, 0.4124329090118408, -2.0, 0.5430363118648529,
        0.08366459235548973, 0.45544253289699554, 0.3833354413509369, -2.0,
        -2.0, 0.45434579253196716, 0.56059730052948, -2.0, -2.0, -2.0,
        0.16035957634449005, -2.0, -2.0, -2.0, -2.0, -2.0
      ],
      "value": [
        [0.4419475655430712, 0.5580524344569289],
        [0.543778801843318, 0.45622119815668205],
        [0.1509433962264151, 0.8490566037735849],
        [0.2962962962962963, 0.7037037037037037],
        [0.4444444444444444, 0.5555555555555556],
        [0.8333333333333334, 0.16666666666666666],
        [0.0, 1.0],
        [1.0, 0.0],
        [0.25, 0.75],
        [0.6, 0.4],
        [0.3333333333333333, 0.6666666666666666],
        [1.0, 0.0],
        [0.0, 1.0],
        [0.0, 1.0],
        [0.0, 1.0],
        [0.6707317073170732, 0.32926829268292684],
        [0.9473684210526315, 0.05263157894736842],
        [0.9666666666666667, 0.03333333333333333],
        [0.9883720930232558, 0.011627906976744186],
        [0.8, 0.2],
        [1.0, 0.0],
        [0.0, 1.0],
        [1.0, 0.0],
        [0.5, 0.5],
        [0.0, 1.0],
        [1.0, 0.0],
        [0.6, 0.4],
        [1.0, 0.0],
        [0.0, 1.0],
        [0.2898550724637681, 0.7101449275362319],
        [0.46511627906976744, 0.5348837209302325],
        [0.0, 1.0],
        [0.5405405405405406, 0.4594594594594595],
        [0.5882352941176471, 0.4117647058823529],
        [0.76, 0.24],
        [0.2, 0.8],
        [1.0, 0.0],
        [0.0, 1.0],
        [0.9, 0.1],
        [0.6, 0.4],
        [1.0, 0.0],
        [0.0, 1.0],
        [1.0, 0.0],
        [0.1111111111111111, 0.8888888888888888],
        [0.0, 1.0],
        [0.5, 0.5],
        [0.0, 1.0],
        [0.0, 1.0],
        [0.0, 1.0]
      ]
    },
    {
      "children_left": [
        1, 2, 3, 4, 5, 6, -1, -1, 9, 10, -1, -1, -1, -1, 15, 16, -1, 18, -1, 20,
        -1, 22, -1, -1, 25, 26, 27, 28, 29, -1, -1, -1, -1, 34, 35, 36, -1, -1,
        -1, -1, -1, -1, -1
      ],
      "children_right": [
        42, 41, 14, 13, 8, 7, -1, -1, 12, 11, -1, -1, -1, -1, 24, 17, -1, 19,
        -1, 21, -1, 23, -1, -1, 40, 33, 32, 31, 30, -1, -1, -1, -1, 39, 38, 37,
        -1, -1, -1, -1, -1, -1, -1
      ],
      "feature": [
        9, 0, 3, 0, 8, 8, -2, -2, 1, 14, -2, -2, -2, -2, 7, 4, -2, 13, -2, 6,
        -2, 1, -2, -2, 7, 7, 7, 2, 1, -2, -2, -2, -2, 5, 0, 13, -2, -2, -2, -2,
        -2, -2, -2
      ],
      "threshold": [
        0.12170351296663284, 0.2280159592628479, 0.45448102056980133,
        0.1834338903427124, 0.06607653200626373, 0.04803096130490303, -2.0,
        -2.0, 0.1290290355682373, 0.5256991982460022, -2.0, -2.0, -2.0, -2.0,
        0.13485807180404663, 0.4890797287225723, -2.0, 0.4054054617881775, -2.0,
        0.141481913626194, -2.0, 0.1575029268860817, -2.0, -2.0,
        0.23536963760852814, 0.1584753394126892, 0.14616574347019196,
        0.5082734376192093, 0.18671638518571854, -2.0, -2.0, -2.0, -2.0,
        0.4913620948791504, 0.17963185161352158, 0.5071835517883301, -2.0, -2.0,
        -2.0, -2.0, -2.0, -2.0, -2.0
      ],
      "value": [
        [0.4419475655430712, 0.5580524344569289],
        [0.5514018691588785, 0.4485981308411215],
        [0.7065868263473054, 0.2934131736526946],
        [0.21052631578947367, 0.7894736842105263],
        [0.3076923076923077, 0.6923076923076923],
        [0.75, 0.25],
        [0.0, 1.0],
        [1.0, 0.0],
        [0.1111111111111111, 0.8888888888888888],
        [0.3333333333333333, 0.6666666666666666],
        [0.6666666666666666, 0.3333333333333333],
        [0.0, 1.0],
        [0.0, 1.0],
        [0.0, 1.0],
        [0.8527131782945736, 0.14728682170542637],
        [0.9583333333333334, 0.041666666666666664],
        [0.0, 1.0],
        [0.968421052631579, 0.031578947368421054],
        [0.0, 1.0],
        [0.9787234042553191, 0.02127659574468085],
        [1.0, 0.0],
        [0.5, 0.5],
        [0.0, 1.0],
        [1.0, 0.0],
        [0.5454545454545454, 0.45454545454545453],
        [0.6, 0.4],
        [0.2727272727272727, 0.7272727272727273],
        [0.42857142857142855, 0.5714285714285714],
        [0.6, 0.4],
        [1.0, 0.0],
        [0.0, 1.0],
        [0.0, 1.0],
        [0.0, 1.0],
        [0.7894736842105263, 0.21052631578947367],
        [0.42857142857142855, 0.5714285714285714],
        [0.6, 0.4],
        [1.0, 0.0],
        [0.3333333333333333, 0.6666666666666666],
        [0.0, 1.0],
        [1.0, 0.0],
        [0.0, 1.0],
        [0.0, 1.0],
        [0.0, 1.0]
      ]
    },
    {
      "children_left": [
        1, 2, 3, 4, -1, 6, -1, 8, 9, -1, 11, -1, -1, 14, 15, -1, -1, -1, 19, -1,
        21, 22, -1, -1, 25, 26, 27, -1, -1, 30, 31, -1, 33, -1, -1, 36, -1, -1,
        -1, 40, 41, 42, -1, -1, 45, 46, 47, 48, 49, -1, -1, -1, -1, -1, -1, -1,
        -1
      ],
      "children_right": [
        56, 39, 18, 5, -1, 7, -1, 13, 10, -1, 12, -1, -1, 17, 16, -1, -1, -1,
        20, -1, 24, 23, -1, -1, 38, 29, 28, -1, -1, 35, 32, -1, 34, -1, -1, 37,
        -1, -1, -1, 55, 44, 43, -1, -1, 54, 53, 52, 51, 50, -1, -1, -1, -1, -1,
        -1, -1, -1
      ],
      "feature": [
        1, 8, 6, 3, -2, 1, -2, 0, 12, -2, 13, -2, -2, 1, 2, -2, -2, -2, 3, -2,
        0, 12, -2, -2, 2, 6, 2, -2, -2, 2, 4, -2, 8, -2, -2, 15, -2, -2, -2, 7,
        10, 14, -2, -2, 6, 0, 2, 0, 14, -2, -2, -2, -2, -2, -2, -2, -2
      ],
      "threshold": [
        0.2071138173341751, 0.0989748053252697, 0.09716829285025597,
        0.39976733922958374, -2.0, 0.13197769224643707, -2.0,
        0.18874094635248184, 0.5188407897949219, -2.0, 0.43772147595882416,
        -2.0, -2.0, 0.16303417831659317, 0.5148965716362, -2.0, -2.0, -2.0,
        0.39418990910053253, -2.0, 0.11651717126369476, 0.46777571737766266,
        -2.0, -2.0, 0.5668677687644958, 0.11676168814301491, 0.5182380676269531,
        -2.0, -2.0, 0.5043007731437683, 0.41870442032814026, -2.0,
        0.05230398289859295, -2.0, -2.0, 0.47160854935646057, -2.0, -2.0, -2.0,
        0.18428827077150345, 0.4659280478954315, 0.5690578818321228, -2.0, -2.0,
        0.2121400386095047, 0.12398043647408485, 0.43753761053085327,
        0.10226599499583244, 0.5347271263599396, -2.0, -2.0, -2.0, -2.0, -2.0,
        -2.0, -2.0, -2.0
      ],
      "value": [
        [0.4419475655430712, 0.5580524344569289],
        [0.543778801843318, 0.45622119815668205],
        [0.75, 0.25],
        [0.8888888888888888, 0.1111111111111111],
        [0.0, 1.0],
        [0.9230769230769231, 0.07692307692307693],
        [1.0, 0.0],
        [0.8285714285714286, 0.17142857142857143],
        [0.9259259259259259, 0.07407407407407407],
        [1.0, 0.0],
        [0.6, 0.4],
        [0.0, 1.0],
        [1.0, 0.0],
        [0.5, 0.5],
        [0.8, 0.2],
        [0.0, 1.0],
        [1.0, 0.0],
        [0.0, 1.0],
        [0.559322033898305, 0.4406779661016949],
        [0.0, 1.0],
        [0.6470588235294118, 0.35294117647058826],
        [0.9444444444444444, 0.05555555555555555],
        [0.0, 1.0],
        [1.0, 0.0],
        [0.48484848484848486, 0.5151515151515151],
        [0.41379310344827586, 0.5862068965517241],
        [0.75, 0.25],
        [0.3333333333333333, 0.6666666666666666],
        [1.0, 0.0],
        [0.2857142857142857, 0.7142857142857143],
        [0.5555555555555556, 0.4444444444444444],
        [0.0, 1.0],
        [0.7142857142857143, 0.2857142857142857],
        [0.3333333333333333, 0.6666666666666666],
        [1.0, 0.0],
        [0.08333333333333333, 0.9166666666666666],
        [1.0, 0.0],
        [0.0, 1.0],
        [1.0, 0.0],
        [0.16883116883116883, 0.8311688311688312],
        [0.3939393939393939, 0.6060606060606061],
        [0.1111111111111111, 0.8888888888888888],
        [0.0, 1.0],
        [1.0, 0.0],
        [0.5, 0.5],
        [0.631578947368421, 0.3684210526315789],
        [0.8, 0.2],
        [0.5714285714285714, 0.42857142857142855],
        [0.25, 0.75],
        [1.0, 0.0],
        [0.0, 1.0],
        [1.0, 0.0],
        [1.0, 0.0],
        [0.0, 1.0],
        [0.0, 1.0],
        [0.0, 1.0],
        [0.0, 1.0]
      ]
    },
    {
      "children_left": [
        1, 2, 3, -1, 5, -1, 7, 8, -1, 10, -1, 12, -1, -1, 15, -1, -1, 18, 19,
        20, 21, 22, -1, -1, 25, -1, 27, 28, -1, 30, -1, -1, 33, -1, -1, -1, -1,
        -1, -1
      ],
      "children_right": [
        38, 17, 4, -1, 6, -1, 14, 9, -1, 11, -1, 13, -1, -1, 16, -1, -1, 37, 36,
        35, 24, 23, -1, -1, 26, -1, 32, 29, -1, 31, -1, -1, 34, -1, -1, -1, -1,
        -1, -1
      ],
      "feature": [
        1, 7, 4, -2, 9, -2, 13, 15, -2, 4, -2, 10, -2, -2, 2, -2, -2, 9, 0, 15,
        10, 15, -2, -2, 13, -2, 7, 2, -2, 5, -2, -2, 3, -2, -2, -2, -2, -2, -2
      ],
      "threshold": [
        0.2071138173341751, 0.13485807180404663, 0.4907618314027786, -2.0,
        0.05218290537595749, -2.0, 0.5321214497089386, 0.49839475750923157,
        -2.0, 0.5882837474346161, -2.0, 0.44841958582401276, -2.0, -2.0,
        0.48566897213459015, -2.0, -2.0, 0.10585378110408783,
        0.19446370750665665, 0.5289188623428345, 0.43501387536525726,
        0.4698532372713089, -2.0, -2.0, 0.4368153363466263, -2.0,
        0.1584753394126892, 0.4186585545539856, -2.0, 0.568424642086029, -2.0,
        -2.0, 0.4659081846475601, -2.0, -2.0, -2.0, -2.0, -2.0, -2.0
      ],
      "value": [
        [0.4419475655430712, 0.5580524344569289],
        [0.543778801843318, 0.45622119815668205],
        [0.8636363636363636, 0.13636363636363635],
        [0.0, 1.0],
        [0.9134615384615384, 0.08653846153846154],
        [1.0, 0.0],
        [0.64, 0.36],
        [0.8235294117647058, 0.17647058823529413],
        [1.0, 0.0],
        [0.6666666666666666, 0.3333333333333333],
        [1.0, 0.0],
        [0.25, 0.75],
        [0.5, 0.5],
        [0.0, 1.0],
        [0.25, 0.75],
        [0.0, 1.0],
        [1.0, 0.0],
        [0.21495327102803738, 0.7850467289719626],
        [0.41818181818181815, 0.5818181818181818],
        [0.5227272727272727, 0.4772727272727273],
        [0.6052631578947368, 0.39473684210526316],
        [0.9230769230769231, 0.07692307692307693],
        [0.0, 1.0],
        [1.0, 0.0],
        [0.44, 0.56],
        [0.0, 1.0],
        [0.6111111111111112, 0.3888888888888889],
        [0.25, 0.75],
        [1.0, 0.0],
        [0.14285714285714285, 0.8571428571428571],
        [0.0, 1.0],
        [1.0, 0.0],
        [0.9, 0.1],
        [0.5, 0.5],
        [1.0, 0.0],
        [0.0, 1.0],
        [0.0, 1.0],
        [0.0, 1.0],
        [0.0, 1.0]
      ]
    },
    {
      "children_left": [
        1, 2, 3, 4, -1, 6, 7, 8, 9, -1, -1, 12, -1, -1, -1, 16, 17, -1, -1, -1,
        21, -1, 23, 24, -1, -1, -1, 28, 29, -1, 31, 32, -1, 34, -1, -1, -1, -1,
        -1
      ],
      "children_right": [
        38, 27, 20, 5, -1, 15, 14, 11, 10, -1, -1, 13, -1, -1, -1, 19, 18, -1,
        -1, -1, 22, -1, 26, 25, -1, -1, -1, 37, 30, -1, 36, 33, -1, 35, -1, -1,
        -1, -1, -1
      ],
      "feature": [
        0, 9, 15, 13, -2, 14, 2, 13, 10, -2, -2, 13, -2, -2, -2, 7, 0, -2, -2,
        -2, 5, -2, 9, 11, -2, -2, -2, 9, 2, -2, 3, 14, -2, 12, -2, -2, -2, -2,
        -2
      ],
      "threshold": [
        0.2280159592628479, 0.08542657643556595, 0.5317172110080719,
        0.4054054617881775, -2.0, 0.5769542157649994, 0.480515256524086,
        0.5245198905467987, 0.41879352927207947, -2.0, -2.0, 0.5463850200176239,
        -2.0, -2.0, -2.0, 0.11882409080862999, 0.15000899136066437, -2.0, -2.0,
        -2.0, 0.5044132471084595, -2.0, 0.06150929443538189, 0.5450807213783264,
        -2.0, -2.0, -2.0, 0.1226365864276886, 0.4251115173101425, -2.0,
        0.488430455327034, 0.49264082312583923, -2.0, 0.5323935747146606, -2.0,
        -2.0, -2.0, -2.0, -2.0
      ],
      "value": [
        [0.4419475655430712, 0.5580524344569289],
        [0.543778801843318, 0.45622119815668205],
        [0.7724137931034483, 0.22758620689655173],
        [0.8503937007874016, 0.14960629921259844],
        [0.0, 1.0],
        [0.907563025210084, 0.09243697478991597],
        [0.9545454545454546, 0.045454545454545456],
        [0.8717948717948718, 0.1282051282051282],
        [0.9705882352941176, 0.029411764705882353],
        [0.0, 1.0],
        [1.0, 0.0],
        [0.2, 0.8],
        [0.0, 1.0],
        [1.0, 0.0],
        [1.0, 0.0],
        [0.3333333333333333, 0.6666666666666666],
        [0.75, 0.25],
        [1.0, 0.0],
        [0.0, 1.0],
        [0.0, 1.0],
        [0.2222222222222222, 0.7777777777777778],
        [0.0, 1.0],
        [0.5714285714285714, 0.42857142857142855],
        [0.25, 0.75],
        [0.0, 1.0],
        [1.0, 0.0],
        [1.0, 0.0],
        [0.08333333333333333, 0.9166666666666666],
        [0.2727272727272727, 0.7272727272727273],
        [0.0, 1.0],
        [0.42857142857142855, 0.5714285714285714],
        [0.2727272727272727, 0.7272727272727273],
        [1.0, 0.0],
        [0.1111111111111111, 0.8888888888888888],
        [0.0, 1.0],
        [1.0, 0.0],
        [1.0, 0.0],
        [0.0, 1.0],
        [0.0, 1.0]
      ]
    },
    {
      "children_left": [
        1, 2, 3, 4, 5, -1, 7, 8, -1, -1, -1, 12, -1, 14, 15, -1, -1, 18, -1, 20,
        -1, -1, 23, 24, -1, -1, 27, -1, 29, 30, -1, -1, 33, -1, 35, -1, -1, 38,
        39, 40, -1, 42, 43, 44, 45, -1, -1, -1, -1, 50, -1, -1, -1, -1, -1
      ],
      "children_right": [
        54, 37, 22, 11, 6, -1, 10, 9, -1, -1, -1, 13, -1, 17, 16, -1, -1, 19,
        -1, 21, -1, -1, 26, 25, -1, -1, 28, -1, 32, 31, -1, -1, 34, -1, 36, -1,
        -1, 53, 52, 41, -1, 49, 48, 47, 46, -1, -1, -1, -1, 51, -1, -1, -1, -1,
        -1
      ],
      "feature": [
        0, 8, 3, 5, 11, -2, 3, 11, -2, -2, -2, 3, -2, 11, 5, -2, -2, 10, -2, 5,
        -2, -2, 7, 13, -2, -2, 10, -2, 5, 14, -2, -2, 14, -2, 8, -2, -2, 9, 14,
        5, -2, 11, 14, 4, 0, -2, -2, -2, -2, 11, -2, -2, -2, -2, -2
      ],
      "threshold": [
        0.2280159592628479, 0.0989748053252697, 0.4739251583814621,
        0.4946487098932266, 0.5249312520027161, -2.0, 0.45870567858219147,
        0.5955626666545868, -2.0, -2.0, -2.0, 0.39976733922958374, -2.0,
        0.5453715026378632, 0.579974889755249, -2.0, -2.0, 0.4203528016805649,
        -2.0, 0.5394781231880188, -2.0, -2.0, 0.13604053109884262,
        0.5321214497089386, -2.0, -2.0, 0.4249579459428787, -2.0,
        0.5535786747932434, 0.5670053958892822, -2.0, -2.0, 0.5297431349754333,
        -2.0, 0.09724751487374306, -2.0, -2.0, 0.1344015821814537,
        0.5895741283893585, 0.5089619159698486, -2.0, 0.48069658875465393,
        0.5792514681816101, 0.6159542798995972, 0.14991460368037224, -2.0, -2.0,
        -2.0, -2.0, 0.5564045906066895, -2.0, -2.0, -2.0, -2.0, -2.0
      ],
      "value": [
        [0.4419475655430712, 0.5580524344569289],
        [0.543778801843318, 0.45622119815668205],
        [0.7446808510638298, 0.2553191489361702],
        [0.4, 0.6],
        [0.17647058823529413, 0.8235294117647058],
        [0.0, 1.0],
        [0.5, 0.5],
        [0.75, 0.25],
        [1.0, 0.0],
        [0.0, 1.0],
        [0.0, 1.0],
        [0.5652173913043478, 0.43478260869565216],
        [0.0, 1.0],
        [0.6842105263157895, 0.3157894736842105],
        [0.9166666666666666, 0.08333333333333333],
        [1.0, 0.0],
        [0.5, 0.5],
        [0.2857142857142857, 0.7142857142857143],
        [0.0, 1.0],
        [0.5, 0.5],
        [0.0, 1.0],
        [0.6666666666666666, 0.3333333333333333],
        [0.8811881188118812, 0.1188118811881188],
        [0.975609756097561, 0.024390243902439025],
        [1.0, 0.0],
        [0.3333333333333333, 0.6666666666666666],
        [0.47368421052631576, 0.5263157894736842],
        [0.0, 1.0],
        [0.6, 0.4],
        [0.875, 0.125],
        [1.0, 0.0],
        [0.0, 1.0],
        [0.2857142857142857, 0.7142857142857143],
        [1.0, 0.0],
        [0.16666666666666666, 0.8333333333333334],
        [0.0, 1.0],
        [1.0, 0.0],
        [0.17105263157894737, 0.8289473684210527],
        [0.38235294117647056, 0.6176470588235294],
        [0.4482758620689655, 0.5517241379310345],
        [0.0, 1.0],
        [0.6190476190476191, 0.38095238095238093],
        [0.75, 0.25],
        [0.8571428571428571, 0.14285714285714285],
        [0.9230769230769231, 0.07692307692307693],
        [1.0, 0.0],
        [0.0, 1.0],
        [0.0, 1.0],
        [0.0, 1.0],
        [0.2, 0.8],
        [0.0, 1.0],
        [1.0, 0.0],
        [0.0, 1.0],
        [0.0, 1.0],
        [0.0, 1.0]
      ]
    },
    {
      "children_left": [
        1, 2, 3, 4, 5, 6, 7, -1, -1, 10, -1, 12, 13, -1, 15, -1, -1, -1, 19, -1,
        21, -1, -1, 24, 25, -1, -1, -1, -1, 30, 31, 32, 33, -1, -1, -1, -1, -1,
        -1
      ],
      "children_right": [
        38, 29, 28, 23, 18, 9, 8, -1, -1, 11, -1, 17, 14, -1, 16, -1, -1, -1,
        20, -1, 22, -1, -1, 27, 26, -1, -1, -1, -1, 37, 36, 35, 34, -1, -1, -1,
        -1, -1, -1
      ],
      "feature": [
        0, 15, 9, 14, 13, 12, 5, -2, -2, 13, -2, 5, 15, -2, 12, -2, -2, -2, 4,
        -2, 7, -2, -2, 7, 8, -2, -2, -2, -2, 2, 1, 9, 4, -2, -2, -2, -2, -2, -2
      ],
      "threshold": [
        0.2280159592628479, 0.5317172110080719, 0.1226365864276886,
        0.5769542157649994, 0.5257396996021271, 0.5071364939212799,
        0.49454616010189056, -2.0, -2.0, 0.480516716837883, -2.0,
        0.5359196960926056, 0.46823810040950775, -2.0, 0.5085188448429108, -2.0,
        -2.0, -2.0, 0.4432700127363205, -2.0, 0.03224118705838919, -2.0, -2.0,
        0.11340580508112907, 0.05218512378633022, -2.0, -2.0, -2.0, -2.0,
        0.5665707588195801, 0.12877652049064636, 0.15052656829357147,
        0.5304112434387207, -2.0, -2.0, -2.0, -2.0, -2.0, -2.0
      ],
      "value": [
        [0.4419475655430712, 0.5580524344569289],
        [0.543778801843318, 0.45622119815668205],
        [0.6726190476190477, 0.3273809523809524],
        [0.8188405797101449, 0.18115942028985507],
        [0.9090909090909091, 0.09090909090909091],
        [0.9469026548672567, 0.05309734513274336],
        [0.987012987012987, 0.012987012987012988],
        [0.5, 0.5],
        [1.0, 0.0],
        [0.8611111111111112, 0.1388888888888889],
        [0.3333333333333333, 0.6666666666666666],
        [0.9090909090909091, 0.09090909090909091],
        [0.7692307692307693, 0.23076923076923078],
        [0.3333333333333333, 0.6666666666666666],
        [0.9, 0.1],
        [0.0, 1.0],
        [1.0, 0.0],
        [1.0, 0.0],
        [0.375, 0.625],
        [1.0, 0.0],
        [0.16666666666666666, 0.8333333333333334],
        [1.0, 0.0],
        [0.0, 1.0],
        [0.17647058823529413, 0.8235294117647058],
        [0.6, 0.4],
        [1.0, 0.0],
        [0.3333333333333333, 0.6666666666666666],
        [0.0, 1.0],
        [0.0, 1.0],
        [0.10204081632653061, 0.8979591836734694],
        [0.06382978723404255, 0.9361702127659575],
        [0.15789473684210525, 0.8421052631578947],
        [0.375, 0.625],
        [0.0, 1.0],
        [1.0, 0.0],
        [0.0, 1.0],
        [0.0, 1.0],
        [1.0, 0.0],
        [0.0, 1.0]
      ]
    },
    {
      "children_left": [
        1, 2, 3, 4, 5, 6, 7, 8, -1, -1, -1, 12, -1, -1, 15, 16, 17, -1, -1, 20,
        21, -1, -1, 24, -1, -1, 27, -1, -1, 30, 31, -1, -1, 34, 35, -1, -1, -1,
        -1, -1, 41, 42, -1, -1, -1
      ],
      "children_right": [
        40, 39, 38, 29, 14, 11, 10, 9, -1, -1, -1, 13, -1, -1, 26, 19, 18, -1,
        -1, 23, 22, -1, -1, 25, -1, -1, 28, -1, -1, 33, 32, -1, -1, 37, 36, -1,
        -1, -1, -1, -1, 44, 43, -1, -1, -1
      ],
      "feature": [
        12, 9, 1, 15, 9, 6, 12, 14, -2, -2, -2, 2, -2, -2, 5, 15, 13, -2, -2, 9,
        3, -2, -2, 11, -2, -2, 7, -2, -2, 8, 0, -2, -2, 7, 13, -2, -2, -2, -2,
        -2, 12, 6, -2, -2, -2
      ],
      "threshold": [
        0.5588140487670898, 0.12170351296663284, 0.2071138173341751,
        0.5317172110080719, 0.05072333849966526, 0.17590389400720596,
        0.45708067715168, 0.5585821568965912, -2.0, -2.0, -2.0,
        0.46864594519138336, -2.0, -2.0, 0.599294126033783, 0.4554296135902405,
        0.4786534011363983, -2.0, -2.0, 0.08611445873975754, 0.5213876068592072,
        -2.0, -2.0, 0.5046153664588928, -2.0, -2.0, 0.08230188116431236, -2.0,
        -2.0, 0.045406004413962364, 0.17366156727075577, -2.0, -2.0,
        0.13431013375520706, 0.6361802518367767, -2.0, -2.0, -2.0, -2.0, -2.0,
        0.5675029158592224, 0.048918246291577816, -2.0, -2.0, -2.0
      ],
      "value": [
        [0.4419475655430712, 0.5580524344569289],
        [0.5518867924528302, 0.4481132075471698],
        [0.6647727272727273, 0.3352272727272727],
        [0.7748344370860927, 0.2251655629139073],
        [0.8682170542635659, 0.13178294573643412],
        [0.9545454545454546, 0.045454545454545456],
        [0.9879518072289156, 0.012048192771084338],
        [0.9166666666666666, 0.08333333333333333],
        [1.0, 0.0],
        [0.0, 1.0],
        [1.0, 0.0],
        [0.4, 0.6],
        [0.0, 1.0],
        [0.6666666666666666, 0.3333333333333333],
        [0.6829268292682927, 0.3170731707317073],
        [0.7714285714285715, 0.22857142857142856],
        [0.25, 0.75],
        [1.0, 0.0],
        [0.0, 1.0],
        [0.8387096774193549, 0.16129032258064516],
        [0.9545454545454546, 0.045454545454545456],
        [1.0, 0.0],
        [0.5, 0.5],
        [0.5555555555555556, 0.4444444444444444],
        [1.0, 0.0],
        [0.0, 1.0],
        [0.16666666666666666, 0.8333333333333334],
        [1.0, 0.0],
        [0.0, 1.0],
        [0.22727272727272727, 0.7727272727272727],
        [0.75, 0.25],
        [1.0, 0.0],
        [0.0, 1.0],
        [0.1111111111111111, 0.8888888888888888],
        [0.4, 0.6],
        [0.6666666666666666, 0.3333333333333333],
        [0.0, 1.0],
        [0.0, 1.0],
        [0.0, 1.0],
        [0.0, 1.0],
        [0.01818181818181818, 0.9818181818181818],
        [0.125, 0.875],
        [1.0, 0.0],
        [0.0, 1.0],
        [0.0, 1.0]
      ]
    },
    {
      "children_left": [
        1, 2, 3, -1, 5, 6, 7, 8, -1, -1, -1, -1, -1, 14, 15, 16, 17, 18, -1, -1,
        -1, -1, -1, 24, 25, 26, 27, -1, -1, -1, -1, 32, 33, 34, -1, 36, 37, -1,
        -1, 40, -1, -1, 43, -1, 45, -1, -1, -1, -1
      ],
      "children_right": [
        48, 13, 4, -1, 12, 11, 10, 9, -1, -1, -1, -1, -1, 23, 22, 21, 20, 19,
        -1, -1, -1, -1, -1, 31, 30, 29, 28, -1, -1, -1, -1, 47, 42, 35, -1, 39,
        38, -1, -1, 41, -1, -1, 44, -1, 46, -1, -1, -1, -1
      ],
      "feature": [
        1, 3, 2, -2, 1, 6, 3, 13, -2, -2, -2, -2, -2, 0, 9, 14, 14, 3, -2, -2,
        -2, -2, -2, 7, 2, 0, 2, -2, -2, -2, -2, 6, 9, 8, -2, 7, 10, -2, -2, 10,
        -2, -2, 10, -2, 2, -2, -2, -2, -2
      ],
      "threshold": [
        0.2071138173341751, 0.45487044751644135, 0.4465430825948715, -2.0,
        0.1321604624390602, 0.23227696865797043, 0.44179728627204895,
        0.5815755724906921, -2.0, -2.0, -2.0, -2.0, -2.0, 0.11673479899764061,
        0.14698544517159462, 0.5808208286762238, 0.4928349107503891,
        0.522044450044632, -2.0, -2.0, -2.0, -2.0, -2.0, 0.13156400620937347,
        0.4755571335554123, 0.14382269233465195, 0.4681837111711502, -2.0, -2.0,
        -2.0, -2.0, 0.23551826179027557, 0.0703342854976654,
        0.028591569513082504, -2.0, 0.16603068262338638, 0.4309053272008896,
        -2.0, -2.0, 0.41879352927207947, -2.0, -2.0, 0.4855195879936218, -2.0,
        0.49803461134433746, -2.0, -2.0, -2.0, -2.0
      ],
      "value": [
        [0.4419475655430712, 0.5580524344569289],
        [0.543778801843318, 0.45622119815668205],
        [0.14814814814814814, 0.8518518518518519],
        [0.0, 1.0],
        [0.36363636363636365, 0.6363636363636364],
        [0.5714285714285714, 0.42857142857142855],
        [0.7272727272727273, 0.2727272727272727],
        [0.8888888888888888, 0.1111111111111111],
        [1.0, 0.0],
        [0.0, 1.0],
        [0.0, 1.0],
        [0.0, 1.0],
        [0.0, 1.0],
        [0.6748466257668712, 0.32515337423312884],
        [0.873015873015873, 0.12698412698412698],
        [0.9482758620689655, 0.05172413793103448],
        [0.9818181818181818, 0.01818181818181818],
        [0.75, 0.25],
        [1.0, 0.0],
        [0.0, 1.0],
        [1.0, 0.0],
        [0.3333333333333333, 0.6666666666666666],
        [0.0, 1.0],
        [0.55, 0.45],
        [0.9347826086956522, 0.06521739130434782],
        [0.6666666666666666, 0.3333333333333333],
        [0.8571428571428571, 0.14285714285714285],
        [1.0, 0.0],
        [0.5, 0.5],
        [0.0, 1.0],
        [1.0, 0.0],
        [0.2222222222222222, 0.7777777777777778],
        [0.34285714285714286, 0.6571428571428571],
        [0.6875, 0.3125],
        [1.0, 0.0],
        [0.5, 0.5],
        [0.2, 0.8],
        [1.0, 0.0],
        [0.0, 1.0],
        [0.8, 0.2],
        [0.0, 1.0],
        [1.0, 0.0],
        [0.05263157894736842, 0.9473684210526315],
        [0.0, 1.0],
        [0.25, 0.75],
        [0.0, 1.0],
        [1.0, 0.0],
        [0.0, 1.0],
        [0.0, 1.0]
      ]
    }
  ]
}
