{
  "params": {
    "bootstrap": false,
    "criterion": "entropy",
    "max_depth": 40,
    "min_samples_leaf": 1,
    "min_samples_split": 2,
    "n_estimators": 30
  },
  "features": {
    "points": [
      "LEFT_WRIST",
      "RIGHT_WRIST",
      "LEFT_ELBOW",
      "RIGHT_ELBOW",
      "LEFT_SHOULDER",
      "RIGHT_SHOULDER",
      "LEFT_HIP",
      "RIGHT_HIP",
      "LEFT_KNEE",
      "RIGHT_KNEE",
      "LEFT_ANKLE",
      "RIGHT_ANKLE"
    ],
    "angles": [
      ["LEFT_WRIST", "LEFT_ELBOW", "LEFT_SHOULDER"],
      ["RIGHT_WRIST", "RIGHT_ELBOW", "RIGHT_SHOULDER"],
      ["LEFT_WRIST", "LEFT_SHOULDER", "RIGHT_SHOULDER"],
      ["RIGHT_WRIST", "RIGHT_SHOULDER", "LEFT_SHOULDER"],
      ["LEFT_WRIST", "LEFT_SHOULDER", "LEFT_HIP"],
      ["RIGHT_WRIST", "RIGHT_SHOULDER", "RIGHT_HIP"],
      ["LEFT_SHOULDER", "LEFT_HIP", "LEFT_KNEE"],
      ["RIGHT_SHOULDER", "RIGHT_HIP", "RIGHT_KNEE"],
      ["LEFT_HIP", "LEFT_KNEE", "LEFT_ANKLE"],
      ["RIGHT_HIP", "RIGHT_KNEE", "RIGHT_ANKLE"],
      ["LEFT_ANKLE", "LEFT_HIP", "RIGHT_HIP"],
      ["RIGHT_ANKLE", "RIGHT_HIP", "LEFT_HIP"],
      ["LEFT_FOOT_INDEX", "LEFT_WRIST", "LEFT_SHOULDER"],
      ["RIGHT_FOOT_INDEX", "RIGHT_WRIST", "RIGHT_SHOULDER"],
      ["LEFT_FOOT_INDEX", "LEFT_WRIST", "RIGHT_WRIST"],
      ["RIGHT_FOOT_INDEX", "RIGHT_WRIST", "LEFT_WRIST"]
    ]
  },
  "classes": ["correct", "incorrect"],
  "forest": [
    {
      "children_left": [
        1, -1, 3, 4, 5, 6, 7, -1, 9, -1, -1, 12, 13, -1, -1, -1, -1, 18, 19, 20,
        -1, 22, 23, -1, -1, -1, -1, 28, -1, -1, 31, 32, -1, 34, -1, -1, -1
      ],
      "children_right": [
        2, -1, 30, 17, 16, 11, 8, -1, 10, -1, -1, 15, 14, -1, -1, -1, -1, 27,
        26, 21, -1, 25, 24, -1, -1, -1, -1, 29, -1, -1, 36, 33, -1, 35, -1, -1,
        -1
      ],
      "feature": [
        68, -2, 42, 45, 19, 63, 150, -2, 120, -2, -2, 64, 130, -2, -2, -2, -2,
        44, 149, 130, -2, 22, 27, -2, -2, -2, -2, 91, -2, -2, 191, 38, -2, 92,
        -2, -2, -2
      ],
      "threshold": [
        0.4114088714122772, -2.0, 0.4221000075340271, 0.4711431711912155,
        0.7211143672466278, 0.6221596002578735, 0.3298424780368805, -2.0,
        0.5998887717723846, -2.0, -2.0, 0.49063804745674133, 0.6015183329582214,
        -2.0, -2.0, -2.0, -2.0, 0.34441515803337097, 0.6796667873859406,
        0.41364356875419617, -2.0, 0.4878750145435333, 0.41869767010211945,
        -2.0, -2.0, -2.0, -2.0, 0.4466499388217926, -2.0, -2.0,
        0.20013166218996048, 0.6390630006790161, -2.0, 0.5225789397954941, -2.0,
        -2.0, -2.0
      ],
      "value": [
        [0.41198501872659177, 0.5880149812734082],
        [0.0, 1.0],
        [0.5339805825242718, 0.46601941747572817],
        [0.7046979865771812, 0.2953020134228188],
        [0.8737864077669902, 0.1262135922330097],
        [0.9574468085106383, 0.0425531914893617],
        [0.9887640449438202, 0.011235955056179775],
        [1.0, 0.0],
        [0.8, 0.2],
        [1.0, 0.0],
        [0.0, 1.0],
        [0.4, 0.6],
        [0.6666666666666666, 0.3333333333333333],
        [1.0, 0.0],
        [0.0, 1.0],
        [0.0, 1.0],
        [0.0, 1.0],
        [0.32608695652173914, 0.6739130434782609],
        [0.16129032258064516, 0.8387096774193549],
        [0.3333333333333333, 0.6666666666666666],
        [0.0, 1.0],
        [0.5555555555555556, 0.4444444444444444],
        [0.2, 0.8],
        [1.0, 0.0],
        [0.0, 1.0],
        [1.0, 0.0],
        [0.0, 1.0],
        [0.6666666666666666, 0.3333333333333333],
        [1.0, 0.0],
        [0.0, 1.0],
        [0.08771929824561403, 0.9122807017543859],
        [0.35714285714285715, 0.6428571428571429],
        [0.0, 1.0],
        [0.8333333333333334, 0.16666666666666666],
        [1.0, 0.0],
        [0.0, 1.0],
        [0.0, 1.0]
      ]
    },
    {
      "children_left": [
        1, -1, 3, 4, 5, 6, 7, 8, -1, -1, 11, -1, 13, 14, -1, -1, -1, 18, -1, -1,
        21, 22, -1, 24, -1, 26, -1, -1, -1, -1, -1
      ],
      "children_right": [
        2, -1, 30, 29, 20, 17, 10, 9, -1, -1, 12, -1, 16, 15, -1, -1, -1, 19,
        -1, -1, 28, 23, -1, 25, -1, 27, -1, -1, -1, -1, -1
      ],
      "feature": [
        67, -2, 214, 19, 41, 99, 71, 173, -2, -2, 191, -2, 9, 123, -2, -2, -2,
        203, -2, -2, 117, 119, -2, 180, -2, 177, -2, -2, -2, -2, -2
      ],
      "threshold": [
        0.28330928087234497, -2.0, 0.11841249465942383, 0.719376415014267,
        0.3933647871017456, 0.7115393280982971, 0.42938584089279175,
        0.06701119057834148, -2.0, -2.0, 0.13748864084482193, -2.0,
        0.5293812155723572, 0.22847998142242432, -2.0, -2.0, -2.0,
        0.5187001526355743, -2.0, -2.0, 0.6821303963661194, 0.6064303517341614,
        -2.0, 0.07601169496774673, -2.0, 0.27885834127664566, -2.0, -2.0, -2.0,
        -2.0, -2.0
      ],
      "value": [
        [0.41198501872659177, 0.5880149812734082],
        [0.0, 1.0],
        [0.5238095238095238, 0.47619047619047616],
        [0.6748466257668712, 0.32515337423312884],
        [0.8333333333333334, 0.16666666666666666],
        [0.9065420560747663, 0.09345794392523364],
        [0.95, 0.05],
        [0.25, 0.75],
        [1.0, 0.0],
        [0.0, 1.0],
        [0.9791666666666666, 0.020833333333333332],
        [1.0, 0.0],
        [0.8571428571428571, 0.14285714285714285],
        [0.9230769230769231, 0.07692307692307693],
        [0.0, 1.0],
        [1.0, 0.0],
        [0.0, 1.0],
        [0.2857142857142857, 0.7142857142857143],
        [1.0, 0.0],
        [0.0, 1.0],
        [0.52, 0.48],
        [0.65, 0.35],
        [0.0, 1.0],
        [0.8125, 0.1875],
        [1.0, 0.0],
        [0.4, 0.6],
        [1.0, 0.0],
        [0.0, 1.0],
        [0.0, 1.0],
        [0.0, 1.0],
        [0.0, 1.0]
      ]
    },
    {
      "children_left": [
        1, 2, -1, 4, 5, 6, -1, 8, -1, 10, 11, -1, 13, 14, -1, 16, -1, -1, 19,
        20, -1, 22, -1, -1, -1, 26, -1, -1, -1, -1, -1
      ],
      "children_right": [
        30, 3, -1, 29, 28, 7, -1, 9, -1, 25, 12, -1, 18, 15, -1, 17, -1, -1, 24,
        21, -1, 23, -1, -1, -1, 27, -1, -1, -1, -1, -1
      ],
      "feature": [
        208, 81, -2, 55, 146, 19, -2, 13, -2, 176, 85, -2, 72, 104, -2, 149, -2,
        -2, 64, 82, -2, 93, -2, -2, -2, 44, -2, -2, -2, -2, -2
      ],
      "threshold": [
        0.20529883354902267, 0.5224631428718567, -2.0, 0.8761473000049591,
        0.7275807559490204, 0.6302118599414825, -2.0, 0.25453653931617737, -2.0,
        0.2543291673064232, 0.5783751904964447, -2.0, 0.7181767523288727,
        0.5679521560668945, -2.0, 0.7386655807495117, -2.0, -2.0,
        0.3396335691213608, 0.5949306786060333, -2.0, 0.3443991094827652, -2.0,
        -2.0, -2.0, 0.3576487749814987, -2.0, -2.0, -2.0, -2.0, -2.0
      ],
      "value": [
        [0.41198501872659177, 0.5880149812734082],
        [0.514018691588785, 0.48598130841121495],
        [0.0, 1.0],
        [0.6432748538011696, 0.3567251461988304],
        [0.7432432432432432, 0.25675675675675674],
        [0.7857142857142857, 0.21428571428571427],
        [1.0, 0.0],
        [0.6938775510204082, 0.30612244897959184],
        [0.0, 1.0],
        [0.7640449438202247, 0.23595505617977527],
        [0.825, 0.175],
        [0.0, 1.0],
        [0.8918918918918919, 0.10810810810810811],
        [0.9642857142857143, 0.03571428571428571],
        [0.0, 1.0],
        [0.9818181818181818, 0.01818181818181818],
        [1.0, 0.0],
        [0.0, 1.0],
        [0.6666666666666666, 0.3333333333333333],
        [0.8571428571428571, 0.14285714285714285],
        [1.0, 0.0],
        [0.3333333333333333, 0.6666666666666666],
        [1.0, 0.0],
        [0.0, 1.0],
        [0.0, 1.0],
        [0.2222222222222222, 0.7777777777777778],
        [1.0, 0.0],
        [0.0, 1.0],
        [0.0, 1.0],
        [0.0, 1.0],
        [0.0, 1.0]
      ]
    },
    {
      "children_left": [
        1, 2, 3, 4, -1, -1, -1, 8, 9, 10, 11, -1, -1, 14, 15, 16, 17, 18, 19,
        -1, -1, -1, 23, -1, -1, -1, -1, 28, -1, -1, 31, -1, -1, -1, -1
      ],
      "children_right": [
        34, 7, 6, 5, -1, -1, -1, 33, 30, 13, 12, -1, -1, 27, 26, 25, 22, 21, 20,
        -1, -1, -1, 24, -1, -1, -1, -1, 29, -1, -1, 32, -1, -1, -1, -1
      ],
      "feature": [
        155, 78, 99, 83, -2, -2, -2, 19, 180, 87, 134, -2, -2, 105, 64, 95, 108,
        113, 69, -2, -2, -2, 37, -2, -2, -2, -2, 36, -2, -2, 79, -2, -2, -2, -2
      ],
      "threshold": [
        0.37122875452041626, 0.5731241405010223, 0.45468197762966156,
        0.4893401116132736, -2.0, -2.0, -2.0, 0.7211143672466278,
        0.137506403028965, 0.4536995589733124, 0.2025030553340912, -2.0, -2.0,
        0.5582228899002075, 0.4634307324886322, 0.21230152994394302,
        0.4034350514411926, 0.5984750390052795, 0.41086214780807495, -2.0, -2.0,
        -2.0, 0.6173956096172333, -2.0, -2.0, -2.0, -2.0, 0.6674206554889679,
        -2.0, -2.0, 0.46071428060531616, -2.0, -2.0, -2.0, -2.0
      ],
      "value": [
        [0.41198501872659177, 0.5880149812734082],
        [0.5045871559633027, 0.4954128440366973],
        [0.021739130434782608, 0.9782608695652174],
        [0.3333333333333333, 0.6666666666666666],
        [0.0, 1.0],
        [1.0, 0.0],
        [0.0, 1.0],
        [0.6337209302325582, 0.36627906976744184],
        [0.7730496453900709, 0.22695035460992907],
        [0.8307692307692308, 0.16923076923076924],
        [0.9838709677419355, 0.016129032258064516],
        [1.0, 0.0],
        [0.0, 1.0],
        [0.6911764705882353, 0.3088235294117647],
        [0.7758620689655172, 0.22413793103448276],
        [0.8333333333333334, 0.16666666666666666],
        [0.7, 0.3],
        [0.3, 0.7],
        [0.75, 0.25],
        [0.0, 1.0],
        [1.0, 0.0],
        [0.0, 1.0],
        [0.9, 0.1],
        [1.0, 0.0],
        [0.0, 1.0],
        [1.0, 0.0],
        [0.0, 1.0],
        [0.2, 0.8],
        [0.0, 1.0],
        [1.0, 0.0],
        [0.09090909090909091, 0.9090909090909091],
        [1.0, 0.0],
        [0.0, 1.0],
        [0.0, 1.0],
        [0.0, 1.0]
      ]
    },
    {
      "children_left": [
        1, 2, 3, -1, -1, 6, 7, -1, 9, -1, -1, 12, 13, 14, 15, -1, -1, 18, 19,
        20, -1, -1, 23, -1, -1, -1, -1, -1, -1
      ],
      "children_right": [
        28, 5, 4, -1, -1, 11, 8, -1, 10, -1, -1, 27, 26, 17, 16, -1, -1, 25, 22,
        21, -1, -1, 24, -1, -1, -1, -1, -1, -1
      ],
      "feature": [
        155, 71, 170, -2, -2, 151, 145, -2, 11, -2, -2, 61, 111, 51, 137, -2,
        -2, 214, 97, 136, -2, -2, 11, -2, -2, -2, -2, -2, -2
      ],
      "threshold": [
        0.37122875452041626, 0.4467005580663681, 0.38212524354457855, -2.0,
        -2.0, 0.4218703955411911, 0.6697492897510529, -2.0, 0.17357798665761948,
        -2.0, -2.0, 0.6565166115760803, 0.7100625038146973, 0.2243996560573578,
        0.6001145541667938, -2.0, -2.0, 0.10752026364207268,
        0.20083384215831757, 0.8208411633968353, -2.0, -2.0,
        0.23843029141426086, -2.0, -2.0, -2.0, -2.0, -2.0, -2.0
      ],
      "value": [
        [0.41198501872659177, 0.5880149812734082],
        [0.5045871559633027, 0.4954128440366973],
        [0.014925373134328358, 0.9850746268656716],
        [1.0, 0.0],
        [0.0, 1.0],
        [0.7218543046357616, 0.2781456953642384],
        [0.9714285714285714, 0.02857142857142857],
        [1.0, 0.0],
        [0.6666666666666666, 0.3333333333333333],
        [1.0, 0.0],
        [0.0, 1.0],
        [0.5061728395061729, 0.49382716049382713],
        [0.6119402985074627, 0.3880597014925373],
        [0.7068965517241379, 0.29310344827586204],
        [0.2857142857142857, 0.7142857142857143],
        [0.0, 1.0],
        [1.0, 0.0],
        [0.8409090909090909, 0.1590909090909091],
        [0.9024390243902439, 0.0975609756097561],
        [0.25, 0.75],
        [1.0, 0.0],
        [0.0, 1.0],
        [0.972972972972973, 0.02702702702702703],
        [1.0, 0.0],
        [0.0, 1.0],
        [0.0, 1.0],
        [0.0, 1.0],
        [0.0, 1.0],
        [0.0, 1.0]
      ]
    },
    {
      "children_left": [
        1, -1, 3, 4, 5, -1, 7, 8, -1, -1, 11, 12, -1, 14, 15, -1, -1, -1, -1,
        20, 21, -1, 23, 24, -1, -1, -1, -1, -1
      ],
      "children_right": [
        2, -1, 28, 19, 6, -1, 10, 9, -1, -1, 18, 13, -1, 17, 16, -1, -1, -1, -1,
        27, 22, -1, 26, 25, -1, -1, -1, -1, -1
      ],
      "feature": [
        92, -2, 154, 72, 68, -2, 123, 191, -2, -2, 153, 107, -2, 149, 103, -2,
        -2, -2, -2, 56, 118, -2, 175, 145, -2, -2, -2, -2, -2
      ],
      "threshold": [
        0.25264914333820343, -2.0, 0.3422333300113678, 0.7165920436382294,
        0.4231208562850952, -2.0, 0.25846099853515625, 0.14145881682634354,
        -2.0, -2.0, 0.3985607177019119, 0.4892369210720062, -2.0,
        0.7226713597774506, 0.5897453427314758, -2.0, -2.0, -2.0, -2.0,
        0.4779702126979828, 0.570766270160675, -2.0, 0.3459247499704361,
        0.5874027013778687, -2.0, -2.0, -2.0, -2.0, -2.0
      ],
      "value": [
        [0.41198501872659177, 0.5880149812734082],
        [0.0, 1.0],
        [0.502283105022831, 0.4977168949771689],
        [0.6358381502890174, 0.36416184971098264],
        [0.8205128205128205, 0.1794871794871795],
        [0.0, 1.0],
        [0.8727272727272727, 0.12727272727272726],
        [0.9861111111111112, 0.013888888888888888],
        [1.0, 0.0],
        [0.0, 1.0],
        [0.6578947368421053, 0.34210526315789475],
        [0.5, 0.5],
        [0.0, 1.0],
        [0.6842105263157895, 0.3157894736842105],
        [0.8666666666666667, 0.13333333333333333],
        [1.0, 0.0],
        [0.0, 1.0],
        [0.0, 1.0],
        [1.0, 0.0],
        [0.25, 0.75],
        [0.4666666666666667, 0.5333333333333333],
        [1.0, 0.0],
        [0.2, 0.8],
        [0.5, 0.5],
        [0.0, 1.0],
        [1.0, 0.0],
        [0.0, 1.0],
        [0.0, 1.0],
        [0.0, 1.0]
      ]
    },
    {
      "children_left": [
        1, 2, 3, -1, -1, -1, 7, 8, 9, 10, -1, 12, 13, -1, 15, 16, 17, -1, -1,
        -1, -1, -1, -1, -1, -1
      ],
      "children_right": [
        6, 5, 4, -1, -1, -1, 24, 23, 22, 11, -1, 21, 14, -1, 20, 19, 18, -1, -1,
        -1, -1, -1, -1, -1, -1
      ],
      "feature": [
        84, 210, 94, -2, -2, -2, 91, 147, 57, 46, -2, 208, 166, -2, 90, 97, 162,
        -2, -2, -2, -2, -2, -2, -2, -2
      ],
      "threshold": [
        0.565777987241745, 0.6156557202339172, 0.491276279091835, -2.0, -2.0,
        -2.0, 0.47395578026771545, 0.717909425497055, 0.7030311226844788,
        0.37194666266441345, -2.0, 0.19248992204666138, 0.5843793153762817,
        -2.0, 0.45378392934799194, 0.2033570185303688, 0.10429508984088898,
        -2.0, -2.0, -2.0, -2.0, -2.0, -2.0, -2.0, -2.0
      ],
      "value": [
        [0.41198501872659177, 0.5880149812734082],
        [0.014925373134328358, 0.9850746268656716],
        [0.25, 0.75],
        [1.0, 0.0],
        [0.0, 1.0],
        [0.0, 1.0],
        [0.545, 0.455],
        [0.6566265060240963, 0.3433734939759036],
        [0.7315436241610739, 0.2684563758389262],
        [0.8134328358208955, 0.1865671641791045],
        [1.0, 0.0],
        [0.6268656716417911, 0.373134328358209],
        [0.7636363636363637, 0.23636363636363636],
        [0.0, 1.0],
        [0.84, 0.16],
        [0.8936170212765957, 0.10638297872340426],
        [0.4444444444444444, 0.5555555555555556],
        [1.0, 0.0],
        [0.0, 1.0],
        [1.0, 0.0],
        [0.0, 1.0],
        [0.0, 1.0],
        [0.0, 1.0],
        [0.0, 1.0],
        [0.0, 1.0]
      ]
    },
    {
      "children_left": [
        1, 2, 3, -1, 5, 6, -1, 8, 9, -1, 11, -1, -1, -1, 15, -1, 17, -1, 19, 20,
        -1, -1, 23, -1, -1, -1, -1
      ],
      "children_right": [
        26, 25, 4, -1, 14, 7, -1, 13, 10, -1, 12, -1, -1, -1, 16, -1, 18, -1,
        22, 21, -1, -1, 24, -1, -1, -1, -1
      ],
      "feature": [
        19, 155, 15, -2, 91, 56, -2, 32, 145, -2, 61, -2, -2, -2, 99, -2, 97,
        -2, 216, 75, -2, -2, 66, -2, -2, -2, -2
      ],
      "threshold": [
        0.719376415014267, 0.3719792068004608, 0.38735783100128174, -2.0,
        0.39155614376068115, 0.3911045491695404, -2.0, 0.6222546398639679,
        0.5527757108211517, -2.0, 0.7212378978729248, -2.0, -2.0, -2.0,
        0.529026448726654, -2.0, 0.20394735038280487, -2.0, 0.6777777075767517,
        0.6158162951469421, -2.0, -2.0, 0.45429274439811707, -2.0, -2.0, -2.0,
        -2.0
      ],
      "value": [
        [0.41198501872659177, 0.5880149812734082],
        [0.55, 0.45],
        [0.6666666666666666, 0.3333333333333333],
        [0.0, 1.0],
        [0.7971014492753623, 0.2028985507246377],
        [0.9550561797752809, 0.0449438202247191],
        [1.0, 0.0],
        [0.7777777777777778, 0.2222222222222222],
        [0.875, 0.125],
        [0.0, 1.0],
        [0.9333333333333333, 0.06666666666666667],
        [1.0, 0.0],
        [0.0, 1.0],
        [0.0, 1.0],
        [0.5102040816326531, 0.4897959183673469],
        [0.0, 1.0],
        [0.6410256410256411, 0.358974358974359],
        [0.0, 1.0],
        [0.8928571428571429, 0.10714285714285714],
        [0.5, 0.5],
        [1.0, 0.0],
        [0.0, 1.0],
        [0.9583333333333334, 0.041666666666666664],
        [1.0, 0.0],
        [0.0, 1.0],
        [0.0, 1.0],
        [0.0, 1.0]
      ]
    },
    {
      "children_left": [
        1, 2, 3, -1, 5, -1, -1, 8, 9, 10, -1, 12, -1, 14, -1, -1, 17, 18, -1,
        20, -1, 22, 23, 24, -1, 26, -1, -1, -1, -1, -1, 32, 33, -1, -1, -1, -1
      ],
      "children_right": [
        36, 7, 4, -1, 6, -1, -1, 31, 16, 11, -1, 13, -1, 15, -1, -1, 30, 19, -1,
        21, -1, 29, 28, 25, -1, 27, -1, -1, -1, -1, -1, 35, 34, -1, -1, -1, -1
      ],
      "feature": [
        20, 35, 131, -2, 174, -2, -2, 42, 191, 171, -2, 49, -2, 159, -2, -2, 62,
        93, -2, 67, -2, 189, 196, 191, -2, 176, -2, -2, -2, -2, -2, 211, 77, -2,
        -2, -2, -2
      ],
      "threshold": [
        0.5037559270858765, 0.49162767827510834, 0.1819838136434555, -2.0,
        0.1577588990330696, -2.0, -2.0, 0.4224558621644974, 0.11290335655212402,
        0.09714885801076889, -2.0, 0.41527000069618225, -2.0,
        0.14621245861053467, -2.0, -2.0, 0.5644280016422272, 0.3285444676876068,
        -2.0, 0.28969883918762207, -2.0, 0.28876569867134094,
        0.3408079445362091, 0.1374083161354065, -2.0, 0.21371092647314072, -2.0,
        -2.0, -2.0, -2.0, -2.0, 0.15327412635087967, 0.6038854420185089, -2.0,
        -2.0, -2.0, -2.0
      ],
      "value": [
        [0.41198501872659177, 0.5880149812734082],
        [0.541871921182266, 0.458128078817734],
        [0.05714285714285714, 0.9428571428571428],
        [0.0, 1.0],
        [0.2222222222222222, 0.7777777777777778],
        [1.0, 0.0],
        [0.0, 1.0],
        [0.6428571428571429, 0.35714285714285715],
        [0.824, 0.176],
        [0.972972972972973, 0.02702702702702703],
        [1.0, 0.0],
        [0.8, 0.2],
        [1.0, 0.0],
        [0.5, 0.5],
        [1.0, 0.0],
        [0.0, 1.0],
        [0.6078431372549019, 0.39215686274509803],
        [0.7045454545454546, 0.29545454545454547],
        [0.0, 1.0],
        [0.8157894736842105, 0.18421052631578946],
        [0.0, 1.0],
        [0.8857142857142857, 0.11428571428571428],
        [0.6923076923076923, 0.3076923076923077],
        [0.9, 0.1],
        [1.0, 0.0],
        [0.5, 0.5],
        [1.0, 0.0],
        [0.0, 1.0],
        [0.0, 1.0],
        [1.0, 0.0],
        [0.0, 1.0],
        [0.11627906976744186, 0.8837209302325582],
        [0.4166666666666667, 0.5833333333333334],
        [0.0, 1.0],
        [1.0, 0.0],
        [0.0, 1.0],
        [0.0, 1.0]
      ]
    },
    {
      "children_left": [
        1, 2, -1, 4, 5, 6, 7, 8, -1, 10, -1, 12, -1, -1, 15, -1, 17, -1, -1, 20,
        21, 22, -1, -1, -1, -1, 27, -1, -1, -1, 31, 32, -1, -1, -1
      ],
      "children_right": [
        30, 3, -1, 29, 26, 19, 14, 9, -1, 11, -1, 13, -1, -1, 16, -1, 18, -1,
        -1, 25, 24, 23, -1, -1, -1, -1, 28, -1, -1, -1, 34, 33, -1, -1, -1
      ],
      "feature": [
        151, 26, -2, 20, 86, 127, 62, 150, -2, 82, -2, 138, -2, -2, 53, -2, 31,
        -2, -2, 159, 213, 64, -2, -2, -2, -2, 89, -2, -2, -2, 60, 123, -2, -2,
        -2
      ],
      "threshold": [
        0.4945554733276367, 0.4380267709493637, -2.0, 0.5037559270858765,
        0.4386202245950699, 0.3389929533004761, 0.504621833562851,
        0.2694358229637146, -2.0, 0.553060382604599, -2.0, 0.6813201010227203,
        -2.0, -2.0, 0.259770929813385, -2.0, 0.6201780736446381, -2.0, -2.0,
        0.18073099106550217, 0.1686973199248314, 0.3111162930727005, -2.0, -2.0,
        -2.0, -2.0, 0.4427631199359894, -2.0, -2.0, -2.0, 0.4723573476076126,
        0.33486804366111755, -2.0, -2.0, -2.0
      ],
      "value": [
        [0.41198501872659177, 0.5880149812734082],
        [0.5165876777251185, 0.4834123222748815],
        [0.0, 1.0],
        [0.6264367816091954, 0.3735632183908046],
        [0.7841726618705036, 0.2158273381294964],
        [0.8512396694214877, 0.1487603305785124],
        [0.9320388349514563, 0.06796116504854369],
        [0.76, 0.24],
        [1.0, 0.0],
        [0.5, 0.5],
        [0.0, 1.0],
        [0.6666666666666666, 0.3333333333333333],
        [1.0, 0.0],
        [0.0, 1.0],
        [0.9871794871794872, 0.01282051282051282],
        [1.0, 0.0],
        [0.5, 0.5],
        [0.0, 1.0],
        [1.0, 0.0],
        [0.3888888888888889, 0.6111111111111112],
        [0.15384615384615385, 0.8461538461538461],
        [0.6666666666666666, 0.3333333333333333],
        [0.0, 1.0],
        [1.0, 0.0],
        [0.0, 1.0],
        [1.0, 0.0],
        [0.3333333333333333, 0.6666666666666666],
        [0.0, 1.0],
        [1.0, 0.0],
        [0.0, 1.0],
        [0.017857142857142856, 0.9821428571428571],
        [0.25, 0.75],
        [1.0, 0.0],
        [0.0, 1.0],
        [0.0, 1.0]
      ]
    },
    {
      "children_left": [
        1, 2, 3, -1, -1, -1, 7, 8, 9, 10, -1, -1, 13, -1, -1, 16, 17, -1, 19,
        20, -1, 22, -1, -1, -1, -1, 27, 28, -1, 30, -1, -1, -1
      ],
      "children_right": [
        6, 5, 4, -1, -1, -1, 26, 15, 12, 11, -1, -1, 14, -1, -1, 25, 18, -1, 24,
        21, -1, 23, -1, -1, -1, -1, 32, 29, -1, 31, -1, -1, -1
      ],
      "feature": [
        71, 210, 75, -2, -2, -2, 58, 191, 42, 117, -2, -2, 164, -2, -2, 154,
        174, -2, 105, 175, -2, 47, -2, -2, -2, -2, 150, 9, -2, 195, -2, -2, -2
      ],
      "threshold": [
        0.4479081779718399, 0.6156557202339172, 0.5405448973178864, -2.0, -2.0,
        -2.0, 0.5385904014110565, 0.13748864084482193, 0.39608965814113617,
        0.7290816307067871, -2.0, -2.0, 0.6659084558486938, -2.0, -2.0,
        0.3534713387489319, 0.12406762689352036, -2.0, 0.5641461610794067,
        0.377082884311676, -2.0, 0.444235622882843, -2.0, -2.0, -2.0, -2.0,
        0.30689115822315216, 0.4457249641418457, -2.0, 0.03833297826349735,
        -2.0, -2.0, -2.0
      ],
      "value": [
        [0.41198501872659177, 0.5880149812734082],
        [0.01282051282051282, 0.9871794871794872],
        [0.25, 0.75],
        [0.0, 1.0],
        [1.0, 0.0],
        [0.0, 1.0],
        [0.5767195767195767, 0.42328042328042326],
        [0.6751592356687898, 0.3248407643312102],
        [0.9655172413793104, 0.034482758620689655],
        [0.9878048780487805, 0.012195121951219513],
        [1.0, 0.0],
        [0.0, 1.0],
        [0.6, 0.4],
        [0.0, 1.0],
        [1.0, 0.0],
        [0.3142857142857143, 0.6857142857142857],
        [0.5, 0.5],
        [0.0, 1.0],
        [0.7857142857142857, 0.21428571428571427],
        [0.9166666666666666, 0.08333333333333333],
        [1.0, 0.0],
        [0.6666666666666666, 0.3333333333333333],
        [0.0, 1.0],
        [1.0, 0.0],
        [0.0, 1.0],
        [0.0, 1.0],
        [0.09375, 0.90625],
        [0.23076923076923078, 0.7692307692307693],
        [1.0, 0.0],
        [0.09090909090909091, 0.9090909090909091],
        [1.0, 0.0],
        [0.0, 1.0],
        [0.0, 1.0]
      ]
    },
    {
      "children_left": [
        1, 2, 3, 4, -1, -1, 7, -1, -1, 10, 11, -1, 13, 14, 15, -1, -1, 18, -1,
        -1, 21, -1, -1, -1, 25, 26, -1, 28, 29, -1, -1, -1, -1
      ],
      "children_right": [
        24, 9, 6, 5, -1, -1, 8, -1, -1, 23, 12, -1, 20, 17, 16, -1, -1, 19, -1,
        -1, 22, -1, -1, -1, 32, 27, -1, 31, 30, -1, -1, -1, -1
      ],
      "feature": [
        56, 91, 65, 66, -2, -2, 77, -2, -2, 190, 112, -2, 104, 6, 174, -2, -2,
        191, -2, -2, 202, -2, -2, -2, 21, 17, -2, 12, 180, -2, -2, -2, -2
      ],
      "threshold": [
        0.4538390189409256, 0.39065250754356384, 0.190081886947155,
        0.3291743993759155, -2.0, -2.0, 0.6152994632720947, -2.0, -2.0,
        0.2490876540541649, 0.569743275642395, -2.0, 0.6321201026439667,
        0.5925894975662231, 0.1308312937617302, -2.0, -2.0, 0.18141907453536987,
        -2.0, -2.0, 0.6975277662277222, -2.0, -2.0, -2.0, 0.6206779778003693,
        0.40502403676509857, -2.0, 0.3107369840145111, 0.039241211488842964,
        -2.0, -2.0, -2.0, -2.0
      ],
      "value": [
        [0.41198501872659177, 0.5880149812734082],
        [0.5964912280701754, 0.40350877192982454],
        [0.851063829787234, 0.14893617021276595],
        [0.9753086419753086, 0.024691358024691357],
        [0.0, 1.0],
        [1.0, 0.0],
        [0.07692307692307693, 0.9230769230769231],
        [0.0, 1.0],
        [1.0, 0.0],
        [0.2857142857142857, 0.7142857142857143],
        [0.44, 0.56],
        [1.0, 0.0],
        [0.3170731707317073, 0.6829268292682927],
        [0.5217391304347826, 0.4782608695652174],
        [0.1, 0.9],
        [0.0, 1.0],
        [1.0, 0.0],
        [0.8461538461538461, 0.15384615384615385],
        [1.0, 0.0],
        [0.0, 1.0],
        [0.05555555555555555, 0.9444444444444444],
        [0.0, 1.0],
        [1.0, 0.0],
        [0.0, 1.0],
        [0.08333333333333333, 0.9166666666666666],
        [0.17777777777777778, 0.8222222222222222],
        [0.0, 1.0],
        [0.5333333333333333, 0.4666666666666667],
        [0.7272727272727273, 0.2727272727272727],
        [0.0, 1.0],
        [1.0, 0.0],
        [0.0, 1.0],
        [0.0, 1.0]
      ]
    },
    {
      "children_left": [
        1, 2, 3, 4, -1, 6, -1, -1, 9, 10, 11, 12, 13, -1, 15, -1, -1, -1, 19,
        20, -1, -1, -1, 24, -1, -1, -1, -1, -1
      ],
      "children_right": [
        28, 27, 8, 5, -1, 7, -1, -1, 26, 23, 18, 17, 14, -1, 16, -1, -1, -1, 22,
        21, -1, -1, -1, 25, -1, -1, -1, -1, -1
      ],
      "feature": [
        57, 183, 58, 131, -2, 63, -2, -2, 205, 127, 73, 139, 13, -2, 115, -2,
        -2, -2, 104, 180, -2, -2, -2, 208, -2, -2, -2, -2, -2
      ],
      "threshold": [
        0.6983176171779633, 0.15021240711212158, 0.4472591429948807,
        0.17842300236225128, -2.0, 0.5556699633598328, -2.0, -2.0,
        0.14933787286281586, 0.3574752062559128, 0.5696755647659302,
        0.619245707988739, 0.25453653931617737, -2.0, 0.6897771954536438, -2.0,
        -2.0, -2.0, 0.5695318579673767, 0.0861394964158535, -2.0, -2.0, -2.0,
        0.16848419606685638, -2.0, -2.0, -2.0, -2.0, -2.0
      ],
      "value": [
        [0.41198501872659177, 0.5880149812734082],
        [0.5759162303664922, 0.42408376963350786],
        [0.6666666666666666, 0.3333333333333333],
        [0.04, 0.96],
        [0.0, 1.0],
        [0.5, 0.5],
        [1.0, 0.0],
        [0.0, 1.0],
        [0.7785714285714286, 0.22142857142857142],
        [0.8449612403100775, 0.15503875968992248],
        [0.9203539823008849, 0.07964601769911504],
        [0.75, 0.25],
        [0.8275862068965517, 0.1724137931034483],
        [0.0, 1.0],
        [0.9230769230769231, 0.07692307692307693],
        [1.0, 0.0],
        [0.0, 1.0],
        [0.0, 1.0],
        [0.9876543209876543, 0.012345679012345678],
        [0.5, 0.5],
        [0.0, 1.0],
        [1.0, 0.0],
        [1.0, 0.0],
        [0.3125, 0.6875],
        [1.0, 0.0],
        [0.0, 1.0],
        [0.0, 1.0],
        [0.0, 1.0],
        [0.0, 1.0]
      ]
    },
    {
      "children_left": [
        1, 2, -1, 4, 5, 6, 7, 8, -1, 10, -1, -1, 13, 14, 15, -1, 17, -1, -1, -1,
        21, -1, -1, -1, -1, 26, -1, 28, -1, -1, -1
      ],
      "children_right": [
        30, 3, -1, 25, 24, 23, 12, 9, -1, 11, -1, -1, 20, 19, 16, -1, 18, -1,
        -1, -1, 22, -1, -1, -1, -1, 27, -1, 29, -1, -1, -1
      ],
      "feature": [
        208, 81, -2, 59, 104, 46, 154, 124, -2, 208, -2, -2, 32, 138, 12, -2,
        95, -2, -2, -2, 145, -2, -2, -2, -2, 70, -2, 108, -2, -2, -2
      ],
      "threshold": [
        0.20529883354902267, 0.5224631428718567, -2.0, 0.6515609920024872,
        0.666252613067627, 0.4463876485824585, 0.25584186613559723,
        0.25347141921520233, -2.0, 0.10749079659581184, -2.0, -2.0,
        0.5865514278411865, 0.6506832540035248, 0.32506465911865234, -2.0,
        0.2509836405515671, -2.0, -2.0, -2.0, 0.665942519903183, -2.0, -2.0,
        -2.0, -2.0, 0.5607710182666779, -2.0, 0.4152193069458008, -2.0, -2.0,
        -2.0
      ],
      "value": [
        [0.41198501872659177, 0.5880149812734082],
        [0.514018691588785, 0.48598130841121495],
        [0.0, 1.0],
        [0.6432748538011696, 0.3567251461988304],
        [0.7785714285714286, 0.22142857142857142],
        [0.8257575757575758, 0.17424242424242425],
        [0.872, 0.128],
        [0.9759036144578314, 0.024096385542168676],
        [1.0, 0.0],
        [0.7777777777777778, 0.2222222222222222],
        [0.0, 1.0],
        [1.0, 0.0],
        [0.6666666666666666, 0.3333333333333333],
        [0.4583333333333333, 0.5416666666666666],
        [0.7857142857142857, 0.21428571428571427],
        [1.0, 0.0],
        [0.625, 0.375],
        [0.0, 1.0],
        [1.0, 0.0],
        [0.0, 1.0],
        [0.9444444444444444, 0.05555555555555555],
        [1.0, 0.0],
        [0.0, 1.0],
        [0.0, 1.0],
        [0.0, 1.0],
        [0.03225806451612903, 0.967741935483871],
        [0.0, 1.0],
        [0.25, 0.75],
        [0.0, 1.0],
        [1.0, 0.0],
        [0.0, 1.0]
      ]
    },
    {
      "children_left": [
        1, 2, 3, -1, 5, 6, 7, 8, -1, -1, -1, 12, -1, -1, 15, -1, -1, 18, 19, 20,
        -1, 22, -1, -1, -1, -1, -1
      ],
      "children_right": [
        26, 17, 4, -1, 14, 11, 10, 9, -1, -1, -1, 13, -1, -1, 16, -1, -1, 25,
        24, 21, -1, 23, -1, -1, -1, -1, -1
      ],
      "feature": [
        57, 171, 70, -2, 209, 154, 30, 7, -2, -2, -2, 125, -2, -2, 39, -2, -2,
        190, 117, 89, -2, 214, -2, -2, -2, -2, -2
      ],
      "threshold": [
        0.6983176171779633, 0.14398003369569778, 0.428141713142395, -2.0,
        0.5845896601676941, 0.2994309514760971, 0.5298705995082855,
        0.5522356331348419, -2.0, -2.0, -2.0, 0.2402634471654892, -2.0, -2.0,
        0.5922541618347168, -2.0, -2.0, 0.2490876540541649, 0.6703158617019653,
        0.4249797463417053, -2.0, 0.08885467797517776, -2.0, -2.0, -2.0, -2.0,
        -2.0
      ],
      "value": [
        [0.41198501872659177, 0.5880149812734082],
        [0.5759162303664922, 0.42408376963350786],
        [0.7886178861788617, 0.21138211382113822],
        [0.0, 1.0],
        [0.9065420560747663, 0.09345794392523364],
        [0.9680851063829787, 0.031914893617021274],
        [0.9886363636363636, 0.011363636363636364],
        [0.6666666666666666, 0.3333333333333333],
        [1.0, 0.0],
        [0.0, 1.0],
        [1.0, 0.0],
        [0.6666666666666666, 0.3333333333333333],
        [0.0, 1.0],
        [1.0, 0.0],
        [0.46153846153846156, 0.5384615384615384],
        [1.0, 0.0],
        [0.0, 1.0],
        [0.19117647058823528, 0.8088235294117647],
        [0.3611111111111111, 0.6388888888888888],
        [0.5652173913043478, 0.43478260869565216],
        [0.0, 1.0],
        [0.7222222222222222, 0.2777777777777778],
        [1.0, 0.0],
        [0.0, 1.0],
        [0.0, 1.0],
        [0.0, 1.0],
        [0.0, 1.0]
      ]
    },
    {
      "children_left": [
        1, 2, 3, -1, 5, 6, 7, -1, 9, 10, -1, -1, -1, 14, -1, 16, 17, -1, 19, -1,
        -1, -1, -1, 24, -1, -1, -1
      ],
      "children_right": [
        26, 23, 4, -1, 22, 13, 8, -1, 12, 11, -1, -1, -1, 15, -1, 21, 18, -1,
        20, -1, -1, -1, -1, 25, -1, -1, -1
      ],
      "feature": [
        19, 151, 75, -2, 212, 91, 124, -2, 92, 137, -2, -2, -2, 51, -2, 208, 22,
        -2, 64, -2, -2, -2, -2, 86, -2, -2, -2
      ],
      "threshold": [
        0.719376415014267, 0.4945554733276367, 0.5293859839439392, -2.0,
        0.49308764934539795, 0.3912605196237564, 0.25347141921520233, -2.0,
        0.3237040638923645, 0.5641520619392395, -2.0, -2.0, -2.0,
        0.2054392620921135, -2.0, 0.18458718061447144, 0.42888836562633514,
        -2.0, 0.4634307324886322, -2.0, -2.0, -2.0, -2.0, 0.3374973237514496,
        -2.0, -2.0, -2.0
      ],
      "value": [
        [0.41198501872659177, 0.5880149812734082],
        [0.55, 0.45],
        [0.6606060606060606, 0.3393939393939394],
        [0.0, 1.0],
        [0.7841726618705036, 0.2158273381294964],
        [0.8320610687022901, 0.16793893129770993],
        [0.9550561797752809, 0.0449438202247191],
        [1.0, 0.0],
        [0.7647058823529411, 0.23529411764705882],
        [0.42857142857142855, 0.5714285714285714],
        [1.0, 0.0],
        [0.0, 1.0],
        [1.0, 0.0],
        [0.5714285714285714, 0.42857142857142855],
        [0.0, 1.0],
        [0.7058823529411765, 0.29411764705882354],
        [0.8888888888888888, 0.1111111111111111],
        [0.0, 1.0],
        [0.96, 0.04],
        [1.0, 0.0],
        [0.0, 1.0],
        [0.0, 1.0],
        [0.0, 1.0],
        [0.02857142857142857, 0.9714285714285714],
        [1.0, 0.0],
        [0.0, 1.0],
        [0.0, 1.0]
      ]
    },
    {
      "children_left": [
        1, 2, 3, 4, 5, 6, -1, -1, -1, -1, -1, -1, 13, 14, 15, 16, -1, 18, -1,
        -1, 21, -1, 23, -1, -1, 26, 27, 28, 29, -1, -1, -1, -1, -1, 35, 36, 37,
        -1, -1, 40, -1, 42, -1, -1, -1
      ],
      "children_right": [
        12, 11, 10, 9, 8, 7, -1, -1, -1, -1, -1, -1, 34, 25, 20, 17, -1, 19, -1,
        -1, 22, -1, 24, -1, -1, 33, 32, 31, 30, -1, -1, -1, -1, -1, 44, 39, 38,
        -1, -1, 41, -1, 43, -1, -1, -1
      ],
      "feature": [
        97, 159, 64, 30, 43, 183, -2, -2, -2, -2, -2, -2, 177, 205, 112, 65, -2,
        68, -2, -2, 93, -2, 88, -2, -2, 11, 156, 30, 185, -2, -2, -2, -2, -2,
        205, 204, 127, -2, -2, 165, -2, 106, -2, -2, -2
      ],
      "threshold": [
        0.20695621520280838, 0.1401965320110321, 0.4039038419723511,
        0.615158349275589, 0.31276239454746246, 0.12456010654568672, -2.0, -2.0,
        -2.0, -2.0, -2.0, -2.0, 0.31993041932582855, 0.09630412980914116,
        0.5500562787055969, 0.0883716382086277, -2.0, 0.43018992245197296, -2.0,
        -2.0, 0.4130213111639023, -2.0, 0.41333749890327454, -2.0, -2.0,
        0.1189219318330288, 0.26124075055122375, 0.5453822314739227,
        0.6210804581642151, -2.0, -2.0, -2.0, -2.0, -2.0, 0.08940588682889938,
        0.5512048900127411, 0.4317232072353363, -2.0, -2.0, 0.5601155757904053,
        -2.0, 0.6575079560279846, -2.0, -2.0, -2.0
      ],
      "value": [
        [0.41198501872659177, 0.5880149812734082],
        [0.09375, 0.90625],
        [0.23076923076923078, 0.7692307692307693],
        [0.42857142857142855, 0.5714285714285714],
        [0.29411764705882354, 0.7058823529411765],
        [0.5, 0.5],
        [1.0, 0.0],
        [0.0, 1.0],
        [0.0, 1.0],
        [1.0, 0.0],
        [0.0, 1.0],
        [0.0, 1.0],
        [0.5906432748538012, 0.4093567251461988],
        [0.7424242424242424, 0.25757575757575757],
        [0.9166666666666666, 0.08333333333333333],
        [0.5, 0.5],
        [1.0, 0.0],
        [0.25, 0.75],
        [0.0, 1.0],
        [1.0, 0.0],
        [0.9761904761904762, 0.023809523809523808],
        [1.0, 0.0],
        [0.7142857142857143, 0.2857142857142857],
        [0.0, 1.0],
        [1.0, 0.0],
        [0.2777777777777778, 0.7222222222222222],
        [0.5882352941176471, 0.4117647058823529],
        [0.8333333333333334, 0.16666666666666666],
        [0.3333333333333333, 0.6666666666666666],
        [1.0, 0.0],
        [0.0, 1.0],
        [1.0, 0.0],
        [0.0, 1.0],
        [0.0, 1.0],
        [0.07692307692307693, 0.9230769230769231],
        [0.21428571428571427, 0.7857142857142857],
        [0.6666666666666666, 0.3333333333333333],
        [1.0, 0.0],
        [0.0, 1.0],
        [0.09090909090909091, 0.9090909090909091],
        [0.0, 1.0],
        [0.5, 0.5],
        [1.0, 0.0],
        [0.0, 1.0],
        [0.0, 1.0]
      ]
    },
    {
      "children_left": [
        1, 2, 3, -1, 5, -1, 7, -1, -1, 10, 11, 12, 13, -1, -1, -1, 17, 18, -1,
        20, -1, 22, -1, 24, -1, -1, 27, 28, -1, -1, -1, 32, -1, 34, -1, -1, -1
      ],
      "children_right": [
        36, 9, 4, -1, 6, -1, 8, -1, -1, 31, 16, 15, 14, -1, -1, -1, 26, 19, -1,
        21, -1, 23, -1, 25, -1, -1, 30, 29, -1, -1, -1, 33, -1, 35, -1, -1, -1
      ],
      "feature": [
        214, 80, 16, -2, 185, -2, 161, -2, -2, 22, 97, 18, 138, -2, -2, -2, 205,
        13, -2, 85, -2, 176, -2, 197, -2, -2, 169, 154, -2, -2, -2, 25, -2, 147,
        -2, -2, -2
      ],
      "threshold": [
        0.11841249465942383, 0.4934922307729721, 0.42150792479515076, -2.0,
        0.6781424283981323, -2.0, 0.19139079004526138, -2.0, -2.0,
        0.5249730348587036, 0.1973864808678627, 0.5019304901361465,
        0.7386102676391602, -2.0, -2.0, -2.0, 0.11618936061859131,
        0.25749920308589935, -2.0, 0.5601283609867096, -2.0, 0.2378145009279251,
        -2.0, 0.18886859714984894, -2.0, -2.0, 0.4812510311603546,
        0.2698342502117157, -2.0, -2.0, -2.0, 0.6087902188301086, -2.0,
        0.5986518561840057, -2.0, -2.0, -2.0
      ],
      "value": [
        [0.41198501872659177, 0.5880149812734082],
        [0.5263157894736842, 0.47368421052631576],
        [0.057692307692307696, 0.9423076923076923],
        [0.0, 1.0],
        [0.2, 0.8],
        [0.0, 1.0],
        [0.42857142857142855, 0.5714285714285714],
        [0.0, 1.0],
        [1.0, 0.0],
        [0.6815286624203821, 0.3184713375796178],
        [0.8267716535433071, 0.1732283464566929],
        [0.375, 0.625],
        [0.75, 0.25],
        [1.0, 0.0],
        [0.0, 1.0],
        [0.0, 1.0],
        [0.8918918918918919, 0.10810810810810811],
        [0.9595959595959596, 0.04040404040404041],
        [0.0, 1.0],
        [0.979381443298969, 0.020618556701030927],
        [0.0, 1.0],
        [0.9895833333333334, 0.010416666666666666],
        [1.0, 0.0],
        [0.75, 0.25],
        [1.0, 0.0],
        [0.0, 1.0],
        [0.3333333333333333, 0.6666666666666666],
        [0.1111111111111111, 0.8888888888888888],
        [1.0, 0.0],
        [0.0, 1.0],
        [1.0, 0.0],
        [0.06666666666666667, 0.9333333333333333],
        [0.0, 1.0],
        [0.5, 0.5],
        [0.0, 1.0],
        [1.0, 0.0],
        [0.0, 1.0]
      ]
    },
    {
      "children_left": [
        1, 2, 3, -1, 5, 6, -1, -1, -1, 10, 11, 12, 13, -1, -1, -1, 17, -1, 19,
        -1, 21, 22, -1, 24, -1, 26, -1, -1, -1, 30, 31, -1, -1, -1, -1
      ],
      "children_right": [
        34, 9, 4, -1, 8, 7, -1, -1, -1, 29, 16, 15, 14, -1, -1, -1, 18, -1, 20,
        -1, 28, 23, -1, 25, -1, 27, -1, -1, -1, 33, 32, -1, -1, -1, -1
      ],
      "feature": [
        214, 82, 45, -2, 113, 96, -2, -2, -2, 149, 190, 21, 56, -2, -2, -2, 67,
        -2, 81, -2, 96, 187, -2, 125, -2, 202, -2, -2, -2, 23, 142, -2, -2, -2,
        -2
      ],
      "threshold": [
        0.11841249465942383, 0.5581069588661194, 0.4200719743967056, -2.0,
        0.5817820429801941, 0.3498661369085312, -2.0, -2.0, -2.0,
        0.7369456589221954, 0.14432045072317123, 0.5506277680397034,
        0.41948701441287994, -2.0, -2.0, -2.0, 0.28225643932819366, -2.0,
        0.563848465681076, -2.0, 0.4257752150297165, 0.3335474878549576, -2.0,
        0.2630058079957962, -2.0, 0.6236083805561066, -2.0, -2.0, -2.0,
        0.5444606244564056, 0.6665020883083344, -2.0, -2.0, -2.0, -2.0
      ],
      "value": [
        [0.41198501872659177, 0.5880149812734082],
        [0.5263157894736842, 0.47368421052631576],
        [0.0392156862745098, 0.9607843137254902],
        [0.0, 1.0],
        [0.13333333333333333, 0.8666666666666667],
        [0.5, 0.5],
        [1.0, 0.0],
        [0.0, 1.0],
        [0.0, 1.0],
        [0.6835443037974683, 0.31645569620253167],
        [0.7985074626865671, 0.20149253731343283],
        [0.963855421686747, 0.03614457831325301],
        [0.4, 0.6],
        [1.0, 0.0],
        [0.0, 1.0],
        [1.0, 0.0],
        [0.5294117647058824, 0.47058823529411764],
        [0.0, 1.0],
        [0.6, 0.4],
        [1.0, 0.0],
        [0.4857142857142857, 0.5142857142857142],
        [0.6071428571428571, 0.39285714285714285],
        [1.0, 0.0],
        [0.42105263157894735, 0.5789473684210527],
        [0.0, 1.0],
        [0.8, 0.2],
        [1.0, 0.0],
        [0.0, 1.0],
        [0.0, 1.0],
        [0.041666666666666664, 0.9583333333333334],
        [0.3333333333333333, 0.6666666666666666],
        [1.0, 0.0],
        [0.0, 1.0],
        [0.0, 1.0],
        [0.0, 1.0]
      ]
    },
    {
      "children_left": [
        1, 2, 3, 4, 5, -1, -1, -1, -1, -1, 11, 12, 13, 14, 15, 16, -1, -1, 19,
        20, -1, -1, 23, -1, -1, -1, 27, -1, -1, 30, 31, -1, -1, -1, -1
      ],
      "children_right": [
        10, 9, 8, 7, 6, -1, -1, -1, -1, -1, 34, 29, 26, 25, 18, 17, -1, -1, 22,
        21, -1, -1, 24, -1, -1, -1, 28, -1, -1, 33, 32, -1, -1, -1, -1
      ],
      "feature": [
        97, 190, 65, 59, 215, -2, -2, -2, -2, -2, 20, 151, 29, 139, 71, 29, -2,
        -2, 57, 74, -2, -2, 121, -2, -2, -2, 111, -2, -2, 126, 117, -2, -2, -2,
        -2
      ],
      "threshold": [
        0.20695621520280838, 0.15002524852752686, 0.1682249829173088,
        0.6503599882125854, 0.6940319538116455, -2.0, -2.0, -2.0, -2.0, -2.0,
        0.5118453502655029, 0.4973554313182831, 0.5421244204044342,
        0.62330561876297, 0.4404783546924591, 0.5067164897918701, -2.0, -2.0,
        0.6951294839382172, 0.5713786482810974, -2.0, -2.0, 0.44920749962329865,
        -2.0, -2.0, -2.0, 0.7275837659835815, -2.0, -2.0, 0.4483027011156082,
        0.6855659484863281, -2.0, -2.0, -2.0, -2.0
      ],
      "value": [
        [0.41198501872659177, 0.5880149812734082],
        [0.09375, 0.90625],
        [0.16071428571428573, 0.8392857142857143],
        [0.5, 0.5],
        [0.8181818181818182, 0.18181818181818182],
        [1.0, 0.0],
        [0.0, 1.0],
        [0.0, 1.0],
        [0.0, 1.0],
        [0.0, 1.0],
        [0.5906432748538012, 0.4093567251461988],
        [0.7062937062937062, 0.2937062937062937],
        [0.8, 0.2],
        [0.5740740740740741, 0.42592592592592593],
        [0.6888888888888889, 0.3111111111111111],
        [0.08333333333333333, 0.9166666666666666],
        [0.0, 1.0],
        [1.0, 0.0],
        [0.9090909090909091, 0.09090909090909091],
        [0.9666666666666667, 0.03333333333333333],
        [0.0, 1.0],
        [1.0, 0.0],
        [0.3333333333333333, 0.6666666666666666],
        [0.0, 1.0],
        [1.0, 0.0],
        [0.0, 1.0],
        [0.971830985915493, 0.028169014084507043],
        [1.0, 0.0],
        [0.0, 1.0],
        [0.05555555555555555, 0.9444444444444444],
        [0.5, 0.5],
        [1.0, 0.0],
        [0.0, 1.0],
        [0.0, 1.0],
        [0.0, 1.0]
      ]
    },
    {
      "children_left": [
        1, -1, 3, 4, 5, -1, 7, -1, 9, 10, -1, 12, -1, -1, 15, -1, -1, -1, 19,
        20, 21, 22, -1, -1, 25, -1, -1, 28, -1, 30, -1, -1, -1
      ],
      "children_right": [
        2, -1, 18, 17, 6, -1, 8, -1, 14, 11, -1, 13, -1, -1, 16, -1, -1, -1, 32,
        27, 24, 23, -1, -1, 26, -1, -1, 29, -1, 31, -1, -1, -1
      ],
      "feature": [
        90, -2, 171, 57, 11, -2, 47, -2, 208, 59, -2, 50, -2, -2, 46, -2, -2,
        -2, 211, 102, 210, 138, -2, -2, 30, -2, -2, 3, -2, 161, -2, -2, -2
      ],
      "threshold": [
        0.2920088768005371, -2.0, 0.14317896962165833, 0.6982345581054688,
        0.14772073179483414, -2.0, 0.35020022094249725, -2.0,
        0.18507838994264603, 0.5545673370361328, -2.0, 0.15766682475805283,
        -2.0, -2.0, 0.39820240437984467, -2.0, -2.0, -2.0, 0.19034967571496964,
        0.6744676828384399, 0.6872923076152802, 0.6192867755889893, -2.0, -2.0,
        0.5761080086231232, -2.0, -2.0, 0.6215408444404602, -2.0,
        0.2582464888691902, -2.0, -2.0, -2.0
      ],
      "value": [
        [0.41198501872659177, 0.5880149812734082],
        [0.0, 1.0],
        [0.5116279069767442, 0.4883720930232558],
        [0.7886178861788617, 0.21138211382113822],
        [0.8981481481481481, 0.10185185185185185],
        [1.0, 0.0],
        [0.7659574468085106, 0.23404255319148937],
        [0.0, 1.0],
        [0.8372093023255814, 0.16279069767441862],
        [0.9393939393939394, 0.06060606060606061],
        [0.0, 1.0],
        [0.96875, 0.03125],
        [0.0, 1.0],
        [1.0, 0.0],
        [0.5, 0.5],
        [1.0, 0.0],
        [0.0, 1.0],
        [0.0, 1.0],
        [0.14130434782608695, 0.8586956521739131],
        [0.30952380952380953, 0.6904761904761905],
        [0.631578947368421, 0.3684210526315789],
        [0.9166666666666666, 0.08333333333333333],
        [0.0, 1.0],
        [1.0, 0.0],
        [0.14285714285714285, 0.8571428571428571],
        [0.0, 1.0],
        [1.0, 0.0],
        [0.043478260869565216, 0.9565217391304348],
        [0.0, 1.0],
        [0.16666666666666666, 0.8333333333333334],
        [1.0, 0.0],
        [0.0, 1.0],
        [0.0, 1.0]
      ]
    },
    {
      "children_left": [
        1, 2, 3, 4, -1, -1, 7, -1, 9, 10, 11, -1, 13, 14, 15, 16, 17, -1, -1,
        -1, 21, -1, 23, -1, -1, -1, -1, 28, -1, -1, -1, -1, -1
      ],
      "children_right": [
        32, 31, 6, 5, -1, -1, 8, -1, 30, 27, 12, -1, 26, 25, 20, 19, 18, -1, -1,
        -1, 22, -1, 24, -1, -1, -1, -1, 29, -1, -1, -1, -1, -1
      ],
      "feature": [
        20, 90, 84, 49, -2, -2, 172, -2, 111, 217, 149, -2, 46, 214, 144, 97,
        172, -2, -2, -2, 171, -2, 95, -2, -2, -2, -2, 137, -2, -2, -2, -2, -2
      ],
      "threshold": [
        0.5037559270858765, 0.45378392934799194, 0.5644875764846802,
        0.38220280408859253, -2.0, -2.0, 0.13048935681581497, -2.0,
        0.6795375049114227, 0.5827979743480682, 0.6474123299121857, -2.0,
        0.44908665120601654, 0.11841249465942383, 0.6206221580505371,
        0.2012597769498825, 0.14809813350439072, -2.0, -2.0, -2.0,
        0.10004611685872078, -2.0, 0.1359398141503334, -2.0, -2.0, -2.0, -2.0,
        0.6210476458072662, -2.0, -2.0, -2.0, -2.0, -2.0
      ],
      "value": [
        [0.41198501872659177, 0.5880149812734082],
        [0.541871921182266, 0.458128078817734],
        [0.6432748538011696, 0.3567251461988304],
        [0.03125, 0.96875],
        [1.0, 0.0],
        [0.0, 1.0],
        [0.7841726618705036, 0.2158273381294964],
        [1.0, 0.0],
        [0.6341463414634146, 0.36585365853658536],
        [0.6933333333333334, 0.30666666666666664],
        [0.7611940298507462, 0.23880597014925373],
        [0.0, 1.0],
        [0.8095238095238095, 0.19047619047619047],
        [0.8793103448275862, 0.1206896551724138],
        [0.9272727272727272, 0.07272727272727272],
        [0.9782608695652174, 0.021739130434782608],
        [0.6666666666666666, 0.3333333333333333],
        [0.0, 1.0],
        [1.0, 0.0],
        [1.0, 0.0],
        [0.6666666666666666, 0.3333333333333333],
        [1.0, 0.0],
        [0.25, 0.75],
        [1.0, 0.0],
        [0.0, 1.0],
        [0.0, 1.0],
        [0.0, 1.0],
        [0.125, 0.875],
        [0.0, 1.0],
        [1.0, 0.0],
        [0.0, 1.0],
        [0.0, 1.0],
        [0.0, 1.0]
      ]
    },
    {
      "children_left": [
        1, 2, 3, -1, 5, 6, -1, -1, -1, 10, 11, 12, -1, 14, -1, -1, -1, 18, 19,
        -1, 21, -1, -1, 24, -1, 26, -1, 28, -1, -1, -1
      ],
      "children_right": [
        30, 9, 4, -1, 8, 7, -1, -1, -1, 17, 16, 13, -1, 15, -1, -1, -1, 23, 20,
        -1, 22, -1, -1, 25, -1, 27, -1, 29, -1, -1, -1
      ],
      "feature": [
        211, 69, 81, -2, 0, 141, -2, -2, -2, 97, 125, 123, -2, 90, -2, -2, -2,
        171, 98, -2, 112, -2, -2, 84, -2, 7, -2, 45, -2, -2, -2
      ],
      "threshold": [
        0.20346830785274506, 0.4259192794561386, 0.5583866834640503, -2.0,
        0.8361788094043732, 0.609203964471817, -2.0, -2.0, -2.0,
        0.20373189449310303, 0.2467239573597908, 0.15632513165473938, -2.0,
        0.3831414431333542, -2.0, -2.0, -2.0, 0.12888703495264053,
        0.2597528547048569, -2.0, 0.644361823797226, -2.0, -2.0,
        0.5920466184616089, -2.0, 0.4519956409931183, -2.0, 0.4509822279214859,
        -2.0, -2.0, -2.0
      ],
      "value": [
        [0.41198501872659177, 0.5880149812734082],
        [0.5238095238095238, 0.47619047619047616],
        [0.03076923076923077, 0.9692307692307692],
        [0.0, 1.0],
        [0.14285714285714285, 0.8571428571428571],
        [0.6666666666666666, 0.3333333333333333],
        [1.0, 0.0],
        [0.0, 1.0],
        [0.0, 1.0],
        [0.7448275862068966, 0.25517241379310346],
        [0.1891891891891892, 0.8108108108108109],
        [0.4666666666666667, 0.5333333333333333],
        [0.0, 1.0],
        [0.875, 0.125],
        [1.0, 0.0],
        [0.0, 1.0],
        [0.0, 1.0],
        [0.9351851851851852, 0.06481481481481481],
        [0.9885057471264368, 0.011494252873563218],
        [1.0, 0.0],
        [0.5, 0.5],
        [0.0, 1.0],
        [1.0, 0.0],
        [0.7142857142857143, 0.2857142857142857],
        [1.0, 0.0],
        [0.5384615384615384, 0.46153846153846156],
        [1.0, 0.0],
        [0.14285714285714285, 0.8571428571428571],
        [1.0, 0.0],
        [0.0, 1.0],
        [0.0, 1.0]
      ]
    },
    {
      "children_left": [
        1, 2, -1, 4, 5, 6, 7, 8, 9, -1, -1, 12, 13, -1, -1, -1, -1, 18, -1, -1,
        21, -1, 23, 24, -1, -1, -1, -1, -1
      ],
      "children_right": [
        28, 3, -1, 27, 20, 17, 16, 11, 10, -1, -1, 15, 14, -1, -1, -1, -1, 19,
        -1, -1, 22, -1, 26, 25, -1, -1, -1, -1, -1
      ],
      "feature": [
        211, 15, -2, 57, 123, 98, 116, 50, 127, -2, -2, 144, 127, -2, -2, -2,
        -2, 65, -2, -2, 170, -2, 0, 2, -2, -2, -2, -2, -2
      ],
      "threshold": [
        0.20346830785274506, 0.38735783100128174, -2.0, 0.699414849281311,
        0.30867519974708557, 0.2569936066865921, 0.594187468290329,
        0.16391748189926147, 0.2811666578054428, -2.0, -2.0, 0.5117461979389191,
        0.3213750272989273, -2.0, -2.0, -2.0, -2.0, 0.10857784003019333, -2.0,
        -2.0, 0.4476025551557541, -2.0, 0.8835935294628143, 0.6463145315647125,
        -2.0, -2.0, -2.0, -2.0, -2.0
      ],
      "value": [
        [0.41198501872659177, 0.5880149812734082],
        [0.5238095238095238, 0.47619047619047616],
        [0.0, 1.0],
        [0.6790123456790124, 0.32098765432098764],
        [0.8396946564885496, 0.16030534351145037],
        [0.944954128440367, 0.05504587155963303],
        [0.9619047619047619, 0.0380952380952381],
        [0.9069767441860465, 0.09302325581395349],
        [0.625, 0.375],
        [1.0, 0.0],
        [0.0, 1.0],
        [0.9714285714285714, 0.02857142857142857],
        [0.6666666666666666, 0.3333333333333333],
        [0.0, 1.0],
        [1.0, 0.0],
        [1.0, 0.0],
        [1.0, 0.0],
        [0.5, 0.5],
        [1.0, 0.0],
        [0.0, 1.0],
        [0.3181818181818182, 0.6818181818181818],
        [1.0, 0.0],
        [0.11764705882352941, 0.8823529411764706],
        [0.0625, 0.9375],
        [1.0, 0.0],
        [0.0, 1.0],
        [1.0, 0.0],
        [0.0, 1.0],
        [0.0, 1.0]
      ]
    },
    {
      "children_left": [
        1, 2, -1, 4, -1, -1, 7, 8, -1, 10, -1, -1, 13, 14, 15, 16, -1, 18, -1,
        20, 21, 22, 23, -1, -1, -1, -1, -1, -1, -1, -1
      ],
      "children_right": [
        6, 3, -1, 5, -1, -1, 12, 9, -1, 11, -1, -1, 30, 29, 28, 17, -1, 19, -1,
        27, 26, 25, 24, -1, -1, -1, -1, -1, -1, -1, -1
      ],
      "feature": [
        69, 167, -2, 166, -2, -2, 151, 141, -2, 175, -2, -2, 46, 145, 208, 121,
        -2, 72, -2, 85, 57, 98, 208, -2, -2, -2, -2, -2, -2, -2, -2
      ],
      "threshold": [
        0.42661920189857483, 0.5592592060565948, -2.0, 0.6304321587085724, -2.0,
        -2.0, 0.4218703955411911, 0.6340839564800262, -2.0, 0.30256369709968567,
        -2.0, -2.0, 0.4463876485824585, 0.6916034519672394, 0.19341295957565308,
        0.38233453035354614, -2.0, 0.7057043313980103, -2.0, 0.6884057819843292,
        0.7030311226844788, 0.1939859464764595, 0.1746913492679596, -2.0, -2.0,
        -2.0, -2.0, -2.0, -2.0, -2.0, -2.0
      ],
      "value": [
        [0.41198501872659177, 0.5880149812734082],
        [0.02564102564102564, 0.9743589743589743],
        [0.0, 1.0],
        [0.15384615384615385, 0.8461538461538461],
        [1.0, 0.0],
        [0.0, 1.0],
        [0.5714285714285714, 0.42857142857142855],
        [0.9710144927536232, 0.028985507246376812],
        [1.0, 0.0],
        [0.6, 0.4],
        [0.0, 1.0],
        [1.0, 0.0],
        [0.3416666666666667, 0.6583333333333333],
        [0.5189873417721519, 0.4810126582278481],
        [0.6307692307692307, 0.36923076923076925],
        [0.7321428571428571, 0.26785714285714285],
        [0.0, 1.0],
        [0.8367346938775511, 0.16326530612244897],
        [1.0, 0.0],
        [0.6666666666666666, 0.3333333333333333],
        [0.8888888888888888, 0.1111111111111111],
        [0.9411764705882353, 0.058823529411764705],
        [0.5, 0.5],
        [0.0, 1.0],
        [1.0, 0.0],
        [1.0, 0.0],
        [0.0, 1.0],
        [0.0, 1.0],
        [0.0, 1.0],
        [0.0, 1.0],
        [0.0, 1.0]
      ]
    },
    {
      "children_left": [
        1, 2, -1, -1, 5, 6, 7, -1, -1, 10, 11, -1, -1, 14, -1, -1, 17, 18, 19,
        20, 21, 22, 23, 24, -1, -1, -1, -1, -1, -1, -1, -1, -1
      ],
      "children_right": [
        4, 3, -1, -1, 16, 9, 8, -1, -1, 13, 12, -1, -1, 15, -1, -1, 32, 31, 30,
        29, 28, 27, 26, 25, -1, -1, -1, -1, -1, -1, -1, -1, -1
      ],
      "feature": [
        71, 208, -2, -2, 191, 151, 56, -2, -2, 76, 35, -2, -2, 180, -2, -2, 211,
        55, 217, 44, 105, 105, 155, 202, -2, -2, -2, -2, -2, -2, -2, -2, -2
      ],
      "threshold": [
        0.4479081779718399, 0.09499716758728027, -2.0, -2.0,
        0.13612085580825806, 0.4287847876548767, 0.5061174631118774, -2.0, -2.0,
        0.6700530052185059, 0.6098614633083344, -2.0, -2.0, 0.0489679928869009,
        -2.0, -2.0, 0.19034967571496964, 0.8808655738830566, 0.5698861181735992,
        0.4166041612625122, 0.5582228899002075, 0.5277131795883179,
        0.3368992954492569, 0.5664162933826447, -2.0, -2.0, -2.0, -2.0, -2.0,
        -2.0, -2.0, -2.0, -2.0
      ],
      "value": [
        [0.41198501872659177, 0.5880149812734082],
        [0.01282051282051282, 0.9871794871794872],
        [1.0, 0.0],
        [0.0, 1.0],
        [0.5767195767195767, 0.42328042328042326],
        [0.8613861386138614, 0.13861386138613863],
        [0.9859154929577465, 0.014084507042253521],
        [1.0, 0.0],
        [0.0, 1.0],
        [0.5666666666666667, 0.43333333333333335],
        [0.9375, 0.0625],
        [1.0, 0.0],
        [0.0, 1.0],
        [0.14285714285714285, 0.8571428571428571],
        [1.0, 0.0],
        [0.0, 1.0],
        [0.25, 0.75],
        [0.43137254901960786, 0.5686274509803921],
        [0.5238095238095238, 0.47619047619047616],
        [0.6875, 0.3125],
        [0.7586206896551724, 0.2413793103448276],
        [0.8461538461538461, 0.15384615384615385],
        [0.6666666666666666, 0.3333333333333333],
        [0.8888888888888888, 0.1111111111111111],
        [0.0, 1.0],
        [1.0, 0.0],
        [0.0, 1.0],
        [1.0, 0.0],
        [0.0, 1.0],
        [0.0, 1.0],
        [0.0, 1.0],
        [0.0, 1.0],
        [0.0, 1.0]
      ]
    },
    {
      "children_left": [
        1, 2, 3, -1, 5, 6, -1, 8, -1, 10, -1, -1, 13, 14, 15, -1, -1, 18, -1,
        20, -1, -1, -1, 24, -1, 26, -1, -1, -1
      ],
      "children_right": [
        28, 23, 4, -1, 12, 7, -1, 9, -1, 11, -1, -1, 22, 17, 16, -1, -1, 19, -1,
        21, -1, -1, -1, 25, -1, 27, -1, -1, -1
      ],
      "feature": [
        57, 175, 17, -2, 155, 68, -2, 188, -2, 174, -2, -2, 0, 109, 56, -2, -2,
        162, -2, 69, -2, -2, -2, 58, -2, 214, -2, -2, -2
      ],
      "threshold": [
        0.6983176171779633, 0.3758266419172287, 0.3983312398195267, -2.0,
        0.3033219128847122, 0.40814559161663055, -2.0, 0.19429070502519608,
        -2.0, 0.10824672877788544, -2.0, -2.0, 0.8635855913162231,
        0.5264585316181183, 0.3987113982439041, -2.0, -2.0, 0.1373063437640667,
        -2.0, 0.4595114141702652, -2.0, -2.0, -2.0, 0.5030301809310913, -2.0,
        0.06379688903689384, -2.0, -2.0, -2.0
      ],
      "value": [
        [0.41198501872659177, 0.5880149812734082],
        [0.5759162303664922, 0.42408376963350786],
        [0.7310344827586207, 0.2689655172413793],
        [0.0, 1.0],
        [0.8412698412698413, 0.15873015873015872],
        [0.967032967032967, 0.03296703296703297],
        [0.0, 1.0],
        [0.9777777777777777, 0.022222222222222223],
        [1.0, 0.0],
        [0.6, 0.4],
        [1.0, 0.0],
        [0.0, 1.0],
        [0.5142857142857142, 0.4857142857142857],
        [0.2916666666666667, 0.7083333333333334],
        [0.75, 0.25],
        [0.0, 1.0],
        [1.0, 0.0],
        [0.0625, 0.9375],
        [0.0, 1.0],
        [0.3333333333333333, 0.6666666666666666],
        [1.0, 0.0],
        [0.0, 1.0],
        [1.0, 0.0],
        [0.08695652173913043, 0.9130434782608695],
        [0.0, 1.0],
        [0.3076923076923077, 0.6923076923076923],
        [1.0, 0.0],
        [0.0, 1.0],
        [0.0, 1.0]
      ]
    },
    {
      "children_left": [
        1, 2, 3, -1, -1, -1, 7, 8, 9, -1, -1, 12, 13, 14, -1, 16, -1, 18, -1,
        -1, 21, -1, -1, 24, -1, -1, 27, 28, 29, 30, -1, -1, -1, -1, -1
      ],
      "children_right": [
        6, 5, 4, -1, -1, -1, 26, 11, 10, -1, -1, 23, 20, 15, -1, 17, -1, 19, -1,
        -1, 22, -1, -1, 25, -1, -1, 34, 33, 32, 31, -1, -1, -1, -1, -1
      ],
      "feature": [
        71, 210, 120, -2, -2, -2, 171, 42, 215, -2, -2, 127, 62, 125, -2, 45,
        -2, 59, -2, -2, 165, -2, -2, 57, -2, -2, 24, 90, 97, 152, -2, -2, -2,
        -2, -2
      ],
      "threshold": [
        0.4479081779718399, 0.6156557202339172, 0.5310297012329102, -2.0, -2.0,
        -2.0, 0.12939708679914474, 0.2836515009403229, 0.6423114836215973, -2.0,
        -2.0, 0.3574752062559128, 0.5737882256507874, 0.0812621470540762, -2.0,
        0.47346433997154236, -2.0, 0.5941617786884308, -2.0, -2.0,
        0.5466551780700684, -2.0, -2.0, 0.6356628835201263, -2.0, -2.0,
        0.5184856355190277, 0.45378392934799194, 0.2626735419034958,
        0.32677726447582245, -2.0, -2.0, -2.0, -2.0, -2.0
      ],
      "value": [
        [0.41198501872659177, 0.5880149812734082],
        [0.01282051282051282, 0.9871794871794872],
        [0.25, 0.75],
        [1.0, 0.0],
        [0.0, 1.0],
        [0.0, 1.0],
        [0.5767195767195767, 0.42328042328042326],
        [0.831858407079646, 0.168141592920354],
        [0.1, 0.9],
        [0.0, 1.0],
        [1.0, 0.0],
        [0.9029126213592233, 0.0970873786407767],
        [0.9583333333333334, 0.041666666666666664],
        [0.978021978021978, 0.02197802197802198],
        [0.0, 1.0],
        [0.9888888888888889, 0.011111111111111112],
        [1.0, 0.0],
        [0.6666666666666666, 0.3333333333333333],
        [0.0, 1.0],
        [1.0, 0.0],
        [0.6, 0.4],
        [1.0, 0.0],
        [0.0, 1.0],
        [0.14285714285714285, 0.8571428571428571],
        [1.0, 0.0],
        [0.0, 1.0],
        [0.19736842105263158, 0.8026315789473685],
        [0.4166666666666667, 0.5833333333333334],
        [0.625, 0.375],
        [0.25, 0.75],
        [0.0, 1.0],
        [1.0, 0.0],
        [1.0, 0.0],
        [0.0, 1.0],
        [0.0, 1.0]
      ]
    },
    {
      "children_left": [
        1, -1, 3, 4, 5, 6, 7, 8, -1, -1, -1, 12, 13, -1, 15, -1, -1, -1, -1, 20,
        21, -1, -1, 24, 25, -1, -1, -1, -1
      ],
      "children_right": [
        2, -1, 28, 19, 18, 11, 10, 9, -1, -1, -1, 17, 14, -1, 16, -1, -1, -1,
        -1, 23, 22, -1, -1, 27, 26, -1, -1, -1, -1
      ],
      "feature": [
        15, -2, 57, 42, 211, 90, 140, 75, -2, -2, -2, 119, 143, -2, 208, -2, -2,
        -2, -2, 213, 104, -2, -2, 151, 120, -2, -2, -2, -2
      ],
      "threshold": [
        0.38735783100128174, -2.0, 0.699414849281311, 0.4221000075340271,
        0.204755961894989, 0.3968312293291092, 0.7254430055618286,
        0.5218524038791656, -2.0, -2.0, -2.0, 0.638056606054306,
        0.5076837539672852, -2.0, 0.12617047503590584, -2.0, -2.0, -2.0, -2.0,
        0.16498307883739471, 0.6212190687656403, -2.0, -2.0, 0.472973570227623,
        0.5847133994102478, -2.0, -2.0, -2.0, -2.0
      ],
      "value": [
        [0.41198501872659177, 0.5880149812734082],
        [0.0, 1.0],
        [0.5213270142180095, 0.4786729857819905],
        [0.6748466257668712, 0.32515337423312884],
        [0.8823529411764706, 0.11764705882352941],
        [0.9459459459459459, 0.05405405405405406],
        [0.9795918367346939, 0.02040816326530612],
        [0.9896907216494846, 0.010309278350515464],
        [0.0, 1.0],
        [1.0, 0.0],
        [0.0, 1.0],
        [0.6923076923076923, 0.3076923076923077],
        [0.42857142857142855, 0.5714285714285714],
        [1.0, 0.0],
        [0.2, 0.8],
        [1.0, 0.0],
        [0.0, 1.0],
        [1.0, 0.0],
        [0.0, 1.0],
        [0.11363636363636363, 0.8863636363636364],
        [0.6666666666666666, 0.3333333333333333],
        [1.0, 0.0],
        [0.0, 1.0],
        [0.02631578947368421, 0.9736842105263158],
        [0.2, 0.8],
        [1.0, 0.0],
        [0.0, 1.0],
        [0.0, 1.0],
        [0.0, 1.0]
      ]
    },
    {
      "children_left": [
        1, 2, 3, -1, 5, 6, -1, 8, 9, -1, -1, 12, -1, -1, 15, 16, 17, -1, -1, -1,
        21, -1, -1, -1, 25, 26, -1, 28, -1, -1, -1
      ],
      "children_right": [
        24, 23, 4, -1, 14, 7, -1, 11, 10, -1, -1, 13, -1, -1, 20, 19, 18, -1,
        -1, -1, 22, -1, -1, -1, 30, 27, -1, 29, -1, -1, -1
      ],
      "feature": [
        56, 155, 61, -2, 191, 56, -2, 31, 78, -2, -2, 200, -2, -2, 3, 34, 44,
        -2, -2, -2, 35, -2, -2, -2, 57, 74, -2, 69, -2, -2, -2
      ],
      "threshold": [
        0.4538390189409256, 0.3719792068004608, 0.5043664872646332, -2.0,
        0.13612085580825806, 0.3740304857492447, -2.0, 0.6144164800643921,
        0.5710106790065765, -2.0, -2.0, 0.6893861889839172, -2.0, -2.0,
        0.5779708623886108, 0.6052300035953522, 0.40416380763053894, -2.0, -2.0,
        -2.0, 0.6487518846988678, -2.0, -2.0, -2.0, 0.6981695294380188,
        0.5835174024105072, -2.0, 0.5285123586654663, -2.0, -2.0, -2.0
      ],
      "value": [
        [0.41198501872659177, 0.5880149812734082],
        [0.5964912280701754, 0.40350877192982454],
        [0.723404255319149, 0.2765957446808511],
        [0.0, 1.0],
        [0.7906976744186046, 0.20930232558139536],
        [0.9340659340659341, 0.06593406593406594],
        [1.0, 0.0],
        [0.7931034482758621, 0.20689655172413793],
        [0.9166666666666666, 0.08333333333333333],
        [0.0, 1.0],
        [1.0, 0.0],
        [0.2, 0.8],
        [0.0, 1.0],
        [1.0, 0.0],
        [0.4473684210526316, 0.5526315789473685],
        [0.2, 0.8],
        [0.8333333333333334, 0.16666666666666666],
        [1.0, 0.0],
        [0.0, 1.0],
        [0.0, 1.0],
        [0.9230769230769231, 0.07692307692307693],
        [1.0, 0.0],
        [0.0, 1.0],
        [0.0, 1.0],
        [0.08333333333333333, 0.9166666666666666],
        [0.34782608695652173, 0.6521739130434783],
        [0.0, 1.0],
        [0.8888888888888888, 0.1111111111111111],
        [1.0, 0.0],
        [0.0, 1.0],
        [0.0, 1.0]
      ]
    }
  ]
}
