{
  "params": {
    "bootstrap": false,
    "criterion": "gini",
    "max_depth": 200,
    "min_samples_leaf": 1,
    "min_samples_split": 2,
    "n_estimators": 30,
    "train_test_split_seed": 151
  },
  "classes": ["correct", "incorrect"],
  "features": {
    "points": [
      "LEFT_WRIST",
      "RIGHT_WRIST",
      "LEFT_ELBOW",
      "RIGHT_ELBOW",
      "LEFT_SHOULDER",
      "RIGHT_SHOULDER",
      "LEFT_HIP",
      "RIGHT_HIP",
      "LEFT_KNEE",
      "RIGHT_KNEE",
      "LEFT_ANKLE",
      "RIGHT_ANKLE"
    ],
    "angles": [
      ["LEFT_WRIST", "LEFT_ELBOW", "LEFT_SHOULDER"],
      ["RIGHT_WRIST", "RIGHT_ELBOW", "RIGHT_SHOULDER"],
      ["LEFT_WRIST", "LEFT_SHOULDER", "RIGHT_SHOULDER"],
      ["RIGHT_WRIST", "RIGHT_SHOULDER", "LEFT_SHOULDER"],
      ["LEFT_WRIST", "LEFT_SHOULDER", "LEFT_HIP"],
      ["RIGHT_WRIST", "RIGHT_SHOULDER", "RIGHT_HIP"],
      ["LEFT_SHOULDER", "LEFT_HIP", "LEFT_KNEE"],
      ["RIGHT_SHOULDER", "RIGHT_HIP", "RIGHT_KNEE"],
      ["LEFT_HIP", "LEFT_KNEE", "LEFT_ANKLE"],
      ["RIGHT_HIP", "RIGHT_KNEE", "RIGHT_ANKLE"],
      ["LEFT_ANKLE", "LEFT_HIP", "RIGHT_HIP"],
      ["RIGHT_ANKLE", "RIGHT_HIP", "LEFT_HIP"],
      ["LEFT_FOOT_INDEX", "LEFT_WRIST", "LEFT_SHOULDER"],
      ["RIGHT_FOOT_INDEX", "RIGHT_WRIST", "RIGHT_SHOULDER"],
      ["LEFT_FOOT_INDEX", "LEFT_WRIST", "RIGHT_WRIST"],
      ["RIGHT_FOOT_INDEX", "RIGHT_WRIST", "LEFT_WRIST"]
    ]
  },
  "model_data": [
    {
      "children_left": [
        1, 2, 3, 4, 5, -1, 7, 8, 9, -1, 11, -1, 13, -1, 15, -1, -1, -1, 19, -1,
        -1, -1, 23, 24, -1, -1, 27, 28, -1, -1, -1, 32, 33, -1, -1, 36, -1, -1,
        39, 40, -1, -1, -1
      ],
      "children_right": [
        38, 31, 22, 21, 6, -1, 18, 17, 10, -1, 12, -1, 14, -1, 16, -1, -1, -1,
        20, -1, -1, -1, 26, 25, -1, -1, 30, 29, -1, -1, -1, 35, 34, -1, -1, 37,
        -1, -1, 42, 41, -1, -1, -1
      ],
      "feature": [
        13, 14, 9, 2, 13, -2, 1, 6, 5, -2, 6, -2, 10, -2, 14, -2, -2, -2, 13,
        -2, -2, -2, 0, 4, -2, -2, 3, 2, -2, -2, -2, 10, 1, -2, -2, 7, -2, -2,
        11, 3, -2, -2, -2
      ],
      "threshold": [
        0.5297839045524597, 0.5697082877159119, 0.08450805023312569,
        0.5901519358158112, 0.4076586216688156, -2.0, 0.20635014027357101,
        0.4721858873963356, 0.46529021859169006, -2.0, 0.14622515439987183,
        -2.0, 0.5111427009105682, -2.0, 0.5104846209287643, -2.0, -2.0, -2.0,
        0.4400227814912796, -2.0, -2.0, -2.0, 0.1192418523132801,
        0.5597163140773773, -2.0, -2.0, 0.4443436414003372, 0.5073749423027039,
        -2.0, -2.0, -2.0, 0.5809976756572723, 0.11773756146430969, -2.0, -2.0,
        0.09929457493126392, -2.0, -2.0, 0.3930723965167999,
        0.46713410317897797, -2.0, -2.0, -2.0
      ],
      "value": [
        [0.41947565543071164, 0.5805243445692884],
        [0.5670103092783505, 0.4329896907216495],
        [0.6585365853658537, 0.34146341463414637],
        [0.8360655737704918, 0.16393442622950818],
        [0.864406779661017, 0.13559322033898305],
        [0.0, 1.0],
        [0.9357798165137615, 0.06422018348623854],
        [0.9619047619047619, 0.0380952380952381],
        [0.9711538461538461, 0.028846153846153848],
        [0.0, 1.0],
        [0.9805825242718447, 0.019417475728155338],
        [1.0, 0.0],
        [0.875, 0.125],
        [1.0, 0.0],
        [0.6666666666666666, 0.3333333333333333],
        [0.0, 1.0],
        [1.0, 0.0],
        [0.0, 1.0],
        [0.25, 0.75],
        [1.0, 0.0],
        [0.0, 1.0],
        [0.0, 1.0],
        [0.14285714285714285, 0.8571428571428571],
        [0.6, 0.4],
        [0.0, 1.0],
        [1.0, 0.0],
        [0.08108108108108109, 0.918918918918919],
        [0.6, 0.4],
        [1.0, 0.0],
        [0.0, 1.0],
        [0.0, 1.0],
        [0.06666666666666667, 0.9333333333333333],
        [0.03571428571428571, 0.9642857142857143],
        [1.0, 0.0],
        [0.0, 1.0],
        [0.5, 0.5],
        [1.0, 0.0],
        [0.0, 1.0],
        [0.0273972602739726, 0.9726027397260274],
        [0.3333333333333333, 0.6666666666666666],
        [0.0, 1.0],
        [1.0, 0.0],
        [0.0, 1.0]
      ]
    },
    {
      "children_left": [
        1, 2, -1, 4, 5, -1, -1, 8, 9, -1, 11, -1, -1, -1, 15, 16, 17, 18, 19,
        20, 21, -1, -1, 24, 25, -1, -1, -1, 29, -1, -1, -1, -1, -1, 35, 36, -1,
        38, 39, -1, -1, -1, 43, 44, -1, 46, 47, 48, -1, -1, -1, 52, 53, 54, -1,
        -1, -1, -1, -1
      ],
      "children_right": [
        14, 3, -1, 7, 6, -1, -1, 13, 10, -1, 12, -1, -1, -1, 34, 33, 32, 31, 28,
        23, 22, -1, -1, 27, 26, -1, -1, -1, 30, -1, -1, -1, -1, -1, 42, 37, -1,
        41, 40, -1, -1, -1, 58, 45, -1, 51, 50, 49, -1, -1, -1, 57, 56, 55, -1,
        -1, -1, -1, -1
      ],
      "feature": [
        5, 10, -2, 8, 6, -2, -2, 13, 11, -2, 1, -2, -2, -2, 7, 0, 12, 1, 6, 7,
        13, -2, -2, 13, 6, -2, -2, -2, 6, -2, -2, -2, -2, -2, 5, 8, -2, 11, 12,
        -2, -2, -2, 15, 1, -2, 5, 14, 14, -2, -2, -2, 14, 7, 4, -2, -2, -2, -2,
        -2
      ],
      "threshold": [
        0.49787797033786774, 0.3733464777469635, -2.0, 0.01640499383211136,
        0.17061597853899002, -2.0, -2.0, 0.5504262745380402,
        0.41003504395484924, -2.0, 0.10857784003019333, -2.0, -2.0, -2.0,
        0.13684828579425812, 0.2575683295726776, 0.5603405833244324,
        0.1906445398926735, 0.14622515439987183, 0.13483089953660965,
        0.4054054617881775, -2.0, -2.0, 0.47644655406475067,
        0.10879950597882271, -2.0, -2.0, -2.0, 0.15894684195518494, -2.0, -2.0,
        -2.0, -2.0, -2.0, 0.5234786868095398, 0.08578230068087578, -2.0,
        0.4333959370851517, 0.5511354207992554, -2.0, -2.0, -2.0,
        0.49721477925777435, 0.10992056503891945, -2.0, 0.5463484227657318,
        0.5537363290786743, 0.4865460991859436, -2.0, -2.0, -2.0,
        0.5431516766548157, 0.14881115406751633, 0.5250037908554077, -2.0, -2.0,
        -2.0, -2.0, -2.0
      ],
      "value": [
        [0.41947565543071164, 0.5805243445692884],
        [0.07462686567164178, 0.9253731343283582],
        [1.0, 0.0],
        [0.046153846153846156, 0.9538461538461539],
        [0.3333333333333333, 0.6666666666666666],
        [0.0, 1.0],
        [1.0, 0.0],
        [0.03225806451612903, 0.967741935483871],
        [0.125, 0.875],
        [1.0, 0.0],
        [0.06666666666666667, 0.9333333333333333],
        [1.0, 0.0],
        [0.0, 1.0],
        [0.0, 1.0],
        [0.535, 0.465],
        [0.7692307692307693, 0.23076923076923078],
        [0.8737864077669902, 0.1262135922330097],
        [0.9278350515463918, 0.07216494845360824],
        [0.9473684210526315, 0.05263157894736842],
        [0.9666666666666667, 0.03333333333333333],
        [0.9880952380952381, 0.011904761904761904],
        [0.0, 1.0],
        [1.0, 0.0],
        [0.6666666666666666, 0.3333333333333333],
        [0.3333333333333333, 0.6666666666666666],
        [0.0, 1.0],
        [1.0, 0.0],
        [1.0, 0.0],
        [0.6, 0.4],
        [0.0, 1.0],
        [1.0, 0.0],
        [0.0, 1.0],
        [0.0, 1.0],
        [0.0, 1.0],
        [0.20481927710843373, 0.7951807228915663],
        [0.6923076923076923, 0.3076923076923077],
        [1.0, 0.0],
        [0.2, 0.8],
        [0.5, 0.5],
        [1.0, 0.0],
        [0.0, 1.0],
        [0.0, 1.0],
        [0.11428571428571428, 0.8857142857142857],
        [0.21052631578947367, 0.7894736842105263],
        [1.0, 0.0],
        [0.16666666666666666, 0.8333333333333334],
        [0.5714285714285714, 0.42857142857142855],
        [0.8, 0.2],
        [0.0, 1.0],
        [1.0, 0.0],
        [0.0, 1.0],
        [0.06896551724137931, 0.9310344827586207],
        [0.25, 0.75],
        [0.6666666666666666, 0.3333333333333333],
        [1.0, 0.0],
        [0.0, 1.0],
        [0.0, 1.0],
        [0.0, 1.0],
        [0.0, 1.0]
      ]
    },
    {
      "children_left": [
        1, 2, 3, -1, 5, 6, -1, -1, 9, -1, 11, -1, 13, -1, -1, 16, 17, 18, -1,
        20, 21, -1, -1, -1, 25, 26, 27, -1, -1, 30, 31, 32, 33, -1, -1, -1, -1,
        38, -1, -1, -1, -1, 43, 44, 45, -1, -1, -1, -1
      ],
      "children_right": [
        42, 15, 4, -1, 8, 7, -1, -1, 10, -1, 12, -1, 14, -1, -1, 41, 24, 19, -1,
        23, 22, -1, -1, -1, 40, 29, 28, -1, -1, 37, 36, 35, 34, -1, -1, -1, -1,
        39, -1, -1, -1, -1, 48, 47, 46, -1, -1, -1, -1
      ],
      "feature": [
        8, 4, 10, -2, 12, 2, -2, -2, 1, -2, 10, -2, 6, -2, -2, 0, 0, 13, -2, 11,
        15, -2, -2, -2, 13, 7, 10, -2, -2, 10, 8, 0, 15, -2, -2, -2, -2, 0, -2,
        -2, -2, -2, 0, 8, 14, -2, -2, -2, -2
      ],
      "threshold": [
        0.1147669069468975, 0.4784419983625412, 0.3733464777469635, -2.0,
        0.5269059240818024, 0.5220925658941269, -2.0, -2.0, 0.1075342409312725,
        -2.0, 0.542330801486969, -2.0, 0.1854258067905903, -2.0, -2.0,
        0.20809735357761383, 0.14336003363132477, 0.4044905751943588, -2.0,
        0.43866075575351715, 0.5148115158081055, -2.0, -2.0, -2.0,
        0.5179666578769684, 0.12677258253097534, 0.5098285973072052, -2.0, -2.0,
        0.4435800760984421, 0.07032746449112892, 0.16033703833818436,
        0.5062869340181351, -2.0, -2.0, -2.0, -2.0, 0.19351238012313843, -2.0,
        -2.0, -2.0, -2.0, 0.11832072213292122, 0.16327589750289917,
        0.5345391631126404, -2.0, -2.0, -2.0, -2.0
      ],
      "value": [
        [0.41947565543071164, 0.5805243445692884],
        [0.5578947368421052, 0.4421052631578947],
        [0.13043478260869565, 0.8695652173913043],
        [1.0, 0.0],
        [0.09090909090909091, 0.9090909090909091],
        [0.6666666666666666, 0.3333333333333333],
        [1.0, 0.0],
        [0.0, 1.0],
        [0.04878048780487805, 0.9512195121951219],
        [1.0, 0.0],
        [0.025, 0.975],
        [0.0, 1.0],
        [0.3333333333333333, 0.6666666666666666],
        [0.0, 1.0],
        [1.0, 0.0],
        [0.6944444444444444, 0.3055555555555556],
        [0.8, 0.2],
        [0.9552238805970149, 0.04477611940298507],
        [0.0, 1.0],
        [0.9846153846153847, 0.015384615384615385],
        [0.9166666666666666, 0.08333333333333333],
        [1.0, 0.0],
        [0.0, 1.0],
        [1.0, 0.0],
        [0.6206896551724138, 0.3793103448275862],
        [0.72, 0.28],
        [0.9565217391304348, 0.043478260869565216],
        [1.0, 0.0],
        [0.0, 1.0],
        [0.5185185185185185, 0.48148148148148145],
        [0.7222222222222222, 0.2777777777777778],
        [0.8666666666666667, 0.13333333333333333],
        [0.5, 0.5],
        [1.0, 0.0],
        [0.0, 1.0],
        [1.0, 0.0],
        [0.0, 1.0],
        [0.1111111111111111, 0.8888888888888888],
        [0.0, 1.0],
        [1.0, 0.0],
        [0.0, 1.0],
        [0.0, 1.0],
        [0.07792207792207792, 0.922077922077922],
        [0.23076923076923078, 0.7692307692307693],
        [0.6, 0.4],
        [1.0, 0.0],
        [0.0, 1.0],
        [0.0, 1.0],
        [0.0, 1.0]
      ]
    },
    {
      "children_left": [
        1, 2, 3, 4, -1, 6, -1, 8, -1, 10, -1, 12, -1, 14, -1, -1, -1, 18, 19,
        20, 21, 22, -1, 24, 25, 26, -1, -1, -1, -1, -1, 32, -1, -1, 35, -1, 37,
        38, -1, -1, -1, -1, 43, -1, 45, -1, -1
      ],
      "children_right": [
        42, 17, 16, 5, -1, 7, -1, 9, -1, 11, -1, 13, -1, 15, -1, -1, -1, 41, 34,
        31, 30, 23, -1, 29, 28, 27, -1, -1, -1, -1, -1, 33, -1, -1, 36, -1, 40,
        39, -1, -1, -1, -1, 44, -1, 46, -1, -1
      ],
      "feature": [
        13, 6, 0, 4, -2, 5, -2, 13, -2, 2, -2, 7, -2, 13, -2, -2, -2, 14, 15, 6,
        1, 11, -2, 15, 6, 8, -2, -2, -2, -2, -2, 3, -2, -2, 0, -2, 9, 1, -2, -2,
        -2, -2, 10, -2, 12, -2, -2
      ],
      "threshold": [
        0.5297839045524597, 0.11925291642546654, 0.22205989062786102,
        0.4770699292421341, -2.0, 0.48516473174095154, -2.0, 0.4054054617881775,
        -2.0, 0.5159532427787781, -2.0, 0.13300035148859024, -2.0,
        0.4687917083501816, -2.0, -2.0, -2.0, 0.564363569021225,
        0.5049998462200165, 0.23551826179027557, 0.2583245038986206,
        0.4564301073551178, -2.0, 0.49101315438747406, 0.14398003369569778,
        0.027735719457268715, -2.0, -2.0, -2.0, -2.0, -2.0, 0.49773527681827545,
        -2.0, -2.0, 0.10856347903609276, -2.0, 0.04966401122510433,
        0.14918562769889832, -2.0, -2.0, -2.0, -2.0, 0.5437788367271423, -2.0,
        0.564675360918045, -2.0, -2.0
      ],
      "value": [
        [0.41947565543071164, 0.5805243445692884],
        [0.5670103092783505, 0.4329896907216495],
        [0.7818181818181819, 0.21818181818181817],
        [0.8865979381443299, 0.1134020618556701],
        [0.0, 1.0],
        [0.9148936170212766, 0.0851063829787234],
        [0.0, 1.0],
        [0.9247311827956989, 0.07526881720430108],
        [0.0, 1.0],
        [0.945054945054945, 0.054945054945054944],
        [1.0, 0.0],
        [0.8837209302325582, 0.11627906976744186],
        [1.0, 0.0],
        [0.375, 0.625],
        [1.0, 0.0],
        [0.0, 1.0],
        [0.0, 1.0],
        [0.2857142857142857, 0.7142857142857143],
        [0.38095238095238093, 0.6190476190476191],
        [0.5945945945945946, 0.40540540540540543],
        [0.7241379310344828, 0.27586206896551724],
        [0.8076923076923077, 0.19230769230769232],
        [1.0, 0.0],
        [0.5454545454545454, 0.45454545454545453],
        [0.2857142857142857, 0.7142857142857143],
        [0.6666666666666666, 0.3333333333333333],
        [0.0, 1.0],
        [1.0, 0.0],
        [0.0, 1.0],
        [1.0, 0.0],
        [0.0, 1.0],
        [0.125, 0.875],
        [1.0, 0.0],
        [0.0, 1.0],
        [0.07692307692307693, 0.9230769230769231],
        [1.0, 0.0],
        [0.04, 0.96],
        [0.2, 0.8],
        [1.0, 0.0],
        [0.0, 1.0],
        [0.0, 1.0],
        [0.0, 1.0],
        [0.0273972602739726, 0.9726027397260274],
        [0.0, 1.0],
        [0.2222222222222222, 0.7777777777777778],
        [1.0, 0.0],
        [0.0, 1.0]
      ]
    },
    {
      "children_left": [
        1, 2, 3, 4, 5, 6, -1, -1, 9, 10, -1, -1, -1, 14, 15, 16, -1, -1, -1, 20,
        -1, 22, -1, -1, -1, 26, 27, 28, 29, 30, 31, -1, -1, -1, 35, -1, -1, -1,
        39, 40, -1, -1, -1, -1, 45, 46, -1, -1, -1
      ],
      "children_right": [
        44, 25, 24, 13, 8, 7, -1, -1, 12, 11, -1, -1, -1, 19, 18, 17, -1, -1,
        -1, 21, -1, 23, -1, -1, -1, 43, 38, 37, 34, 33, 32, -1, -1, -1, 36, -1,
        -1, -1, 42, 41, -1, -1, -1, -1, 48, 47, -1, -1, -1
      ],
      "feature": [
        13, 6, 0, 3, 15, 1, -2, -2, 12, 3, -2, -2, -2, 0, 15, 6, -2, -2, -2, 14,
        -2, 12, -2, -2, -2, 14, 9, 15, 8, 4, 13, -2, -2, -2, 0, -2, -2, -2, 0,
        9, -2, -2, -2, -2, 11, 3, -2, -2, -2
      ],
      "threshold": [
        0.5297839045524597, 0.11925291642546654, 0.22205989062786102,
        0.47658467292785645, 0.49565289914608, 0.15661504864692688, -2.0, -2.0,
        0.5009435564279556, 0.47567275166511536, -2.0, -2.0, -2.0,
        0.18763075023889542, 0.45416373014450073, 0.06376108154654503, -2.0,
        -2.0, -2.0, 0.5347554385662079, -2.0, 0.4508465975522995, -2.0, -2.0,
        -2.0, 0.564363569021225, 0.08334340900182724, 0.5289188623428345,
        0.11122288927435875, 0.45918188989162445, 0.5200529396533966, -2.0,
        -2.0, -2.0, 0.1766338311135769, -2.0, -2.0, -2.0, 0.1192418523132801,
        0.1436300240457058, -2.0, -2.0, -2.0, -2.0, 0.3930723965167999,
        0.46713410317897797, -2.0, -2.0, -2.0
      ],
      "value": [
        [0.41947565543071164, 0.5805243445692884],
        [0.5670103092783505, 0.4329896907216495],
        [0.7818181818181819, 0.21818181818181817],
        [0.8865979381443299, 0.1134020618556701],
        [0.5555555555555556, 0.4444444444444444],
        [0.875, 0.125],
        [1.0, 0.0],
        [0.0, 1.0],
        [0.3, 0.7],
        [0.75, 0.25],
        [1.0, 0.0],
        [0.0, 1.0],
        [0.0, 1.0],
        [0.9620253164556962, 0.0379746835443038],
        [0.9852941176470589, 0.014705882352941176],
        [0.75, 0.25],
        [1.0, 0.0],
        [0.0, 1.0],
        [1.0, 0.0],
        [0.8181818181818182, 0.18181818181818182],
        [1.0, 0.0],
        [0.3333333333333333, 0.6666666666666666],
        [1.0, 0.0],
        [0.0, 1.0],
        [0.0, 1.0],
        [0.2857142857142857, 0.7142857142857143],
        [0.38095238095238093, 0.6190476190476191],
        [0.6666666666666666, 0.3333333333333333],
        [0.8148148148148148, 0.18518518518518517],
        [0.9473684210526315, 0.05263157894736842],
        [0.5, 0.5],
        [0.0, 1.0],
        [1.0, 0.0],
        [1.0, 0.0],
        [0.5, 0.5],
        [1.0, 0.0],
        [0.0, 1.0],
        [0.0, 1.0],
        [0.06666666666666667, 0.9333333333333333],
        [0.5, 0.5],
        [1.0, 0.0],
        [0.0, 1.0],
        [0.0, 1.0],
        [0.0, 1.0],
        [0.0273972602739726, 0.9726027397260274],
        [0.3333333333333333, 0.6666666666666666],
        [0.0, 1.0],
        [1.0, 0.0],
        [0.0, 1.0]
      ]
    },
    {
      "children_left": [
        1, 2, 3, 4, -1, 6, -1, 8, 9, -1, -1, -1, 13, 14, -1, 16, 17, -1, 19, -1,
        21, -1, -1, -1, 25, 26, -1, -1, -1, -1, 31, 32, 33, 34, -1, -1, -1, -1,
        -1
      ],
      "children_right": [
        30, 29, 12, 5, -1, 7, -1, 11, 10, -1, -1, -1, 24, 15, -1, 23, 18, -1,
        20, -1, 22, -1, -1, -1, 28, 27, -1, -1, -1, -1, 38, 37, 36, 35, -1, -1,
        -1, -1, -1
      ],
      "feature": [
        15, 12, 7, 13, -2, 13, -2, 15, 1, -2, -2, -2, 8, 0, -2, 7, 13, -2, 9,
        -2, 3, -2, -2, -2, 2, 2, -2, -2, -2, -2, 6, 0, 3, 9, -2, -2, -2, -2, -2
      ],
      "threshold": [
        0.5316719710826874, 0.5588140487670898, 0.13483089953660965,
        0.4054054617881775, -2.0, 0.5298882126808167, -2.0, 0.5133959650993347,
        0.2669067680835724, -2.0, -2.0, -2.0, 0.10893351212143898,
        0.12772733718156815, -2.0, 0.22418241947889328, 0.4220111221075058,
        -2.0, 0.08403129130601883, -2.0, 0.4470483511686325, -2.0, -2.0, -2.0,
        0.4065834730863571, 0.3825692981481552, -2.0, -2.0, -2.0, -2.0,
        0.11836113035678864, 0.17554032802581787, 0.46856944262981415,
        0.11276218295097351, -2.0, -2.0, -2.0, -2.0, -2.0
      ],
      "value": [
        [0.41947565543071164, 0.5805243445692884],
        [0.5353535353535354, 0.46464646464646464],
        [0.6583850931677019, 0.3416149068322981],
        [0.8888888888888888, 0.1111111111111111],
        [0.0, 1.0],
        [0.9523809523809523, 0.047619047619047616],
        [1.0, 0.0],
        [0.2, 0.8],
        [0.5, 0.5],
        [1.0, 0.0],
        [0.0, 1.0],
        [0.0, 1.0],
        [0.36619718309859156, 0.6338028169014085],
        [0.5714285714285714, 0.42857142857142855],
        [1.0, 0.0],
        [0.45454545454545453, 0.5454545454545454],
        [0.5769230769230769, 0.4230769230769231],
        [0.0, 1.0],
        [0.6521739130434783, 0.34782608695652173],
        [1.0, 0.0],
        [0.2727272727272727, 0.7272727272727273],
        [1.0, 0.0],
        [0.0, 1.0],
        [0.0, 1.0],
        [0.06896551724137931, 0.9310344827586207],
        [0.2857142857142857, 0.7142857142857143],
        [0.0, 1.0],
        [1.0, 0.0],
        [0.0, 1.0],
        [0.0, 1.0],
        [0.08695652173913043, 0.9130434782608695],
        [0.20689655172413793, 0.7931034482758621],
        [0.5, 0.5],
        [0.14285714285714285, 0.8571428571428571],
        [0.0, 1.0],
        [1.0, 0.0],
        [1.0, 0.0],
        [0.0, 1.0],
        [0.0, 1.0]
      ]
    },
    {
      "children_left": [
        1, 2, 3, 4, -1, 6, -1, 8, 9, -1, 11, -1, 13, -1, -1, -1, 17, -1, -1, 20,
        21, -1, -1, -1, 25, 26, 27, -1, -1, 30, -1, 32, 33, -1, 35, -1, -1, -1,
        -1
      ],
      "children_right": [
        24, 19, 16, 5, -1, 7, -1, 15, 10, -1, 12, -1, 14, -1, -1, -1, 18, -1,
        -1, 23, 22, -1, -1, -1, 38, 29, 28, -1, -1, 31, -1, 37, 34, -1, 36, -1,
        -1, -1, -1
      ],
      "feature": [
        9, 1, 13, 13, -2, 6, -2, 8, 12, -2, 5, -2, 14, -2, -2, -2, 10, -2, -2,
        0, 6, -2, -2, -2, 6, 10, 9, -2, -2, 11, -2, 14, 15, -2, 8, -2, -2, -2,
        -2
      ],
      "threshold": [
        0.08542657643556595, 0.193628691136837, 0.5297839045524597,
        0.4054054617881775, -2.0, 0.1304137334227562, -2.0, 0.13151603192090988,
        0.4423675388097763, -2.0, 0.46529021859169006, -2.0, 0.5763076543807983,
        -2.0, -2.0, -2.0, 0.5352588891983032, -2.0, -2.0, 0.13452335447072983,
        0.16781629249453545, -2.0, -2.0, -2.0, 0.12984459102153778,
        0.40339188277721405, 0.0894007682800293, -2.0, -2.0,
        0.46189744770526886, -2.0, 0.4914228618144989, 0.5910073816776276, -2.0,
        0.12033660337328911, -2.0, -2.0, -2.0, -2.0
      ],
      "value": [
        [0.41947565543071164, 0.5805243445692884],
        [0.572972972972973, 0.42702702702702705],
        [0.7803030303030303, 0.2196969696969697],
        [0.8632478632478633, 0.13675213675213677],
        [0.0, 1.0],
        [0.926605504587156, 0.07339449541284404],
        [1.0, 0.0],
        [0.6363636363636364, 0.36363636363636365],
        [0.7368421052631579, 0.2631578947368421],
        [0.0, 1.0],
        [0.8235294117647058, 0.17647058823529413],
        [0.0, 1.0],
        [0.875, 0.125],
        [1.0, 0.0],
        [0.0, 1.0],
        [0.0, 1.0],
        [0.13333333333333333, 0.8666666666666667],
        [0.0, 1.0],
        [1.0, 0.0],
        [0.05660377358490566, 0.9433962264150944],
        [0.75, 0.25],
        [0.0, 1.0],
        [1.0, 0.0],
        [0.0, 1.0],
        [0.07317073170731707, 0.926829268292683],
        [0.20689655172413793, 0.7931034482758621],
        [0.75, 0.25],
        [0.0, 1.0],
        [1.0, 0.0],
        [0.12, 0.88],
        [1.0, 0.0],
        [0.043478260869565216, 0.9565217391304348],
        [0.25, 0.75],
        [0.0, 1.0],
        [0.5, 0.5],
        [0.0, 1.0],
        [1.0, 0.0],
        [0.0, 1.0],
        [0.0, 1.0]
      ]
    },
    {
      "children_left": [
        1, 2, 3, 4, 5, 6, -1, -1, 9, 10, -1, -1, -1, 14, 15, 16, 17, -1, -1, -1,
        21, -1, 23, -1, 25, 26, -1, 28, -1, 30, -1, -1, 33, 34, -1, -1, -1, 38,
        -1, 40, -1, -1, 43, 44, 45, -1, -1, -1, -1, -1, -1
      ],
      "children_right": [
        50, 49, 42, 13, 8, 7, -1, -1, 12, 11, -1, -1, -1, 37, 20, 19, 18, -1,
        -1, -1, 22, -1, 24, -1, 32, 27, -1, 29, -1, 31, -1, -1, 36, 35, -1, -1,
        -1, 39, -1, 41, -1, -1, 48, 47, 46, -1, -1, -1, -1, -1, -1
      ],
      "feature": [
        12, 0, 8, 5, 2, 4, -2, -2, 15, 7, -2, -2, -2, 15, 6, 7, 13, -2, -2, -2,
        13, -2, 6, -2, 0, 12, -2, 8, -2, 4, -2, -2, 13, 9, -2, -2, -2, 14, -2,
        6, -2, -2, 9, 6, 11, -2, -2, -2, -2, -2, -2
      ],
      "threshold": [
        0.5588140487670898, 0.20809735357761383, 0.1305585578083992,
        0.4998823255300522, 0.48262549936771393, 0.43576250970363617, -2.0,
        -2.0, 0.5272306501865387, 0.23355194926261902, -2.0, -2.0, -2.0,
        0.5360506474971771, 0.10301926359534264, 0.22649506479501724,
        0.4054054617881775, -2.0, -2.0, -2.0, 0.40363940596580505, -2.0,
        0.10879950597882271, -2.0, 0.15009941160678864, 0.4575232118368149,
        -2.0, 0.11739803850650787, -2.0, 0.48959963023662567, -2.0, -2.0,
        0.47711317241191864, 0.09398176148533821, -2.0, -2.0, -2.0,
        0.47852516174316406, -2.0, 0.0901675745844841, -2.0, -2.0,
        0.13473529741168022, 0.14798640459775925, 0.5188619792461395, -2.0,
        -2.0, -2.0, -2.0, -2.0, -2.0
      ],
      "value": [
        [0.41947565543071164, 0.5805243445692884],
        [0.5436893203883495, 0.4563106796116505],
        [0.632768361581921, 0.3672316384180791],
        [0.7622377622377622, 0.23776223776223776],
        [0.2857142857142857, 0.7142857142857143],
        [0.1, 0.9],
        [1.0, 0.0],
        [0.0, 1.0],
        [0.45454545454545453, 0.5454545454545454],
        [0.625, 0.375],
        [1.0, 0.0],
        [0.0, 1.0],
        [0.0, 1.0],
        [0.8442622950819673, 0.1557377049180328],
        [0.8761061946902655, 0.12389380530973451],
        [0.9594594594594594, 0.04054054054054054],
        [0.9726027397260274, 0.0273972602739726],
        [0.0, 1.0],
        [1.0, 0.0],
        [0.0, 1.0],
        [0.717948717948718, 0.28205128205128205],
        [0.0, 1.0],
        [0.7777777777777778, 0.2222222222222222],
        [0.0, 1.0],
        [0.8235294117647058, 0.17647058823529413],
        [0.92, 0.08],
        [0.0, 1.0],
        [0.9583333333333334, 0.041666666666666664],
        [1.0, 0.0],
        [0.6666666666666666, 0.3333333333333333],
        [1.0, 0.0],
        [0.0, 1.0],
        [0.5555555555555556, 0.4444444444444444],
        [0.7142857142857143, 0.2857142857142857],
        [1.0, 0.0],
        [0.0, 1.0],
        [0.0, 1.0],
        [0.4444444444444444, 0.5555555555555556],
        [1.0, 0.0],
        [0.2857142857142857, 0.7142857142857143],
        [1.0, 0.0],
        [0.0, 1.0],
        [0.08823529411764706, 0.9117647058823529],
        [0.3, 0.7],
        [0.75, 0.25],
        [1.0, 0.0],
        [0.0, 1.0],
        [0.0, 1.0],
        [0.0, 1.0],
        [0.0, 1.0],
        [0.0, 1.0]
      ]
    },
    {
      "children_left": [
        1, 2, 3, 4, -1, 6, 7, -1, -1, 10, -1, 12, -1, 14, -1, -1, -1, 18, 19,
        -1, 21, 22, 23, 24, -1, 26, 27, 28, -1, -1, -1, -1, -1, -1, -1, 36, -1,
        38, -1, 40, 41, -1, -1, -1, 45, 46, -1, -1, -1
      ],
      "children_right": [
        44, 17, 16, 5, -1, 9, 8, -1, -1, 11, -1, 13, -1, 15, -1, -1, -1, 35, 20,
        -1, 34, 33, 32, 25, -1, 31, 30, 29, -1, -1, -1, -1, -1, -1, -1, 37, -1,
        39, -1, 43, 42, -1, -1, -1, 48, 47, -1, -1, -1
      ],
      "feature": [
        13, 7, 1, 4, -2, 12, 8, -2, -2, 13, -2, 11, -2, 9, -2, -2, -2, 8, 0, -2,
        0, 1, 8, 5, -2, 13, 12, 9, -2, -2, -2, -2, -2, -2, -2, 7, -2, 1, -2, 5,
        14, -2, -2, -2, 11, 3, -2, -2, -2
      ],
      "threshold": [
        0.5297839045524597, 0.13612085580825806, 0.19070392102003098,
        0.42289943993091583, -2.0, 0.42306025326251984, 0.0839860737323761,
        -2.0, -2.0, 0.4054054617881775, -2.0, 0.5483940541744232, -2.0,
        0.08565739169716835, -2.0, -2.0, -2.0, 0.09155646339058876,
        0.12772733718156815, -2.0, 0.19723361730575562, 0.13949695974588394,
        0.0702681913971901, 0.46529021859169006, -2.0, 0.501031905412674,
        0.5008873641490936, 0.08040904998779297, -2.0, -2.0, -2.0, -2.0, -2.0,
        -2.0, -2.0, 0.1392092928290367, -2.0, 0.18296229094266891, -2.0,
        0.5254657864570618, 0.524886280298233, -2.0, -2.0, -2.0,
        0.3930723965167999, 0.46713410317897797, -2.0, -2.0, -2.0
      ],
      "value": [
        [0.41947565543071164, 0.5805243445692884],
        [0.5670103092783505, 0.4329896907216495],
        [0.822429906542056, 0.17757009345794392],
        [0.946236559139785, 0.053763440860215055],
        [0.0, 1.0],
        [0.967032967032967, 0.03296703296703297],
        [0.6666666666666666, 0.3333333333333333],
        [1.0, 0.0],
        [0.0, 1.0],
        [0.9772727272727273, 0.022727272727272728],
        [0.0, 1.0],
        [0.9885057471264368, 0.011494252873563218],
        [1.0, 0.0],
        [0.9583333333333334, 0.041666666666666664],
        [1.0, 0.0],
        [0.0, 1.0],
        [0.0, 1.0],
        [0.25287356321839083, 0.7471264367816092],
        [0.5, 0.5],
        [1.0, 0.0],
        [0.40625, 0.59375],
        [0.5, 0.5],
        [0.65, 0.35],
        [0.7222222222222222, 0.2777777777777778],
        [0.0, 1.0],
        [0.7647058823529411, 0.23529411764705882],
        [0.6, 0.4],
        [0.8571428571428571, 0.14285714285714285],
        [1.0, 0.0],
        [0.0, 1.0],
        [0.0, 1.0],
        [1.0, 0.0],
        [0.0, 1.0],
        [0.0, 1.0],
        [0.0, 1.0],
        [0.061224489795918366, 0.9387755102040817],
        [1.0, 0.0],
        [0.041666666666666664, 0.9583333333333334],
        [0.0, 1.0],
        [0.125, 0.875],
        [0.5, 0.5],
        [1.0, 0.0],
        [0.0, 1.0],
        [0.0, 1.0],
        [0.0273972602739726, 0.9726027397260274],
        [0.3333333333333333, 0.6666666666666666],
        [0.0, 1.0],
        [1.0, 0.0],
        [0.0, 1.0]
      ]
    },
    {
      "children_left": [
        1, 2, 3, 4, 5, 6, -1, -1, -1, 10, 11, -1, 13, -1, 15, -1, 17, -1, -1,
        20, -1, -1, 23, -1, -1, 26, 27, -1, 29, 30, -1, -1, 33, 34, -1, -1, -1,
        -1, 39, 40, -1, -1, -1
      ],
      "children_right": [
        38, 25, 22, 9, 8, 7, -1, -1, -1, 19, 12, -1, 14, -1, 16, -1, 18, -1, -1,
        21, -1, -1, 24, -1, -1, 37, 28, -1, 32, 31, -1, -1, 36, 35, -1, -1, -1,
        -1, 42, 41, -1, -1, -1
      ],
      "feature": [
        13, 9, 1, 3, 12, 14, -2, -2, -2, 14, 5, -2, 13, -2, 15, -2, 6, -2, -2,
        9, -2, -2, 6, -2, -2, 6, 10, -2, 11, 7, -2, -2, 8, 6, -2, -2, -2, -2,
        11, 6, -2, -2, -2
      ],
      "threshold": [
        0.5297839045524597, 0.08364270254969597, 0.20601963251829147,
        0.4489106237888336, 0.5475773215293884, 0.472805380821228, -2.0, -2.0,
        -2.0, 0.5802607834339142, 0.46529021859169006, -2.0, 0.4054054617881775,
        -2.0, 0.5362534821033478, -2.0, 0.11885352805256844, -2.0, -2.0,
        0.044443367049098015, -2.0, -2.0, 0.20682568848133087, -2.0, -2.0,
        0.13502051681280136, 0.38892555236816406, -2.0, 0.480602502822876,
        0.17469941079616547, -2.0, -2.0, 0.047583580017089844,
        0.09765815734863281, -2.0, -2.0, -2.0, -2.0, 0.3930723965167999,
        0.25943373888731003, -2.0, -2.0, -2.0
      ],
      "value": [
        [0.41947565543071164, 0.5805243445692884],
        [0.5670103092783505, 0.4329896907216495],
        [0.7428571428571429, 0.2571428571428571],
        [0.865546218487395, 0.13445378151260504],
        [0.3076923076923077, 0.6923076923076923],
        [0.8, 0.2],
        [0.0, 1.0],
        [1.0, 0.0],
        [0.0, 1.0],
        [0.9339622641509434, 0.0660377358490566],
        [0.9607843137254902, 0.0392156862745098],
        [0.0, 1.0],
        [0.9702970297029703, 0.0297029702970297],
        [0.0, 1.0],
        [0.98, 0.02],
        [1.0, 0.0],
        [0.6666666666666666, 0.3333333333333333],
        [1.0, 0.0],
        [0.0, 1.0],
        [0.25, 0.75],
        [1.0, 0.0],
        [0.0, 1.0],
        [0.047619047619047616, 0.9523809523809523],
        [0.0, 1.0],
        [1.0, 0.0],
        [0.1111111111111111, 0.8888888888888888],
        [0.2857142857142857, 0.7142857142857143],
        [1.0, 0.0],
        [0.21052631578947367, 0.7894736842105263],
        [0.75, 0.25],
        [1.0, 0.0],
        [0.0, 1.0],
        [0.06666666666666667, 0.9333333333333333],
        [0.25, 0.75],
        [1.0, 0.0],
        [0.0, 1.0],
        [0.0, 1.0],
        [0.0, 1.0],
        [0.0273972602739726, 0.9726027397260274],
        [0.3333333333333333, 0.6666666666666666],
        [1.0, 0.0],
        [0.0, 1.0],
        [0.0, 1.0]
      ]
    },
    {
      "children_left": [
        1, 2, 3, 4, 5, -1, 7, 8, 9, 10, -1, -1, -1, 14, 15, 16, -1, -1, -1, -1,
        -1, 22, -1, 24, -1, 26, -1, 28, -1, -1, 31, 32, -1, -1, -1, 36, -1, 38,
        39, -1, -1, 42, 43, -1, -1, -1, 47, 48, -1, 50, -1, -1, 53, 54, 55, 56,
        -1, -1, -1, -1, -1
      ],
      "children_right": [
        46, 35, 30, 21, 6, -1, 20, 13, 12, 11, -1, -1, -1, 19, 18, 17, -1, -1,
        -1, -1, -1, 23, -1, 25, -1, 27, -1, 29, -1, -1, 34, 33, -1, -1, -1, 37,
        -1, 41, 40, -1, -1, 45, 44, -1, -1, -1, 52, 49, -1, 51, -1, -1, 60, 59,
        58, 57, -1, -1, -1, -1, -1
      ],
      "feature": [
        9, 15, 1, 4, 13, -2, 12, 14, 14, 4, -2, -2, -2, 4, 5, 0, -2, -2, -2, -2,
        -2, 11, -2, 9, -2, 9, -2, 13, -2, -2, 1, 1, -2, -2, -2, 9, -2, 0, 15,
        -2, -2, 1, 1, -2, -2, -2, 10, 13, -2, 0, -2, -2, 12, 11, 5, 3, -2, -2,
        -2, -2, -2
      ],
      "threshold": [
        0.08542657643556595, 0.5316719710826874, 0.20601963251829147,
        0.5152031779289246, 0.4187037944793701, -2.0, 0.5617684125900269,
        0.49836862087249756, 0.4911779463291168, 0.47236402332782745, -2.0,
        -2.0, -2.0, 0.5124147534370422, 0.46529021859169006, 0.1371220089495182,
        -2.0, -2.0, -2.0, -2.0, -2.0, 0.4220433831214905, -2.0,
        0.056155696511268616, -2.0, 0.057483403012156487, -2.0,
        0.4054054617881775, -2.0, -2.0, 0.24079975485801697,
        0.23372651636600494, -2.0, -2.0, -2.0, 0.009713293053209782, -2.0,
        0.11880956590175629, 0.6510444283485413, -2.0, -2.0,
        0.13342300802469254, 0.13312041014432907, -2.0, -2.0, -2.0,
        0.3943312466144562, 0.5021436214447021, -2.0, 0.18742064386606216, -2.0,
        -2.0, 0.500458151102066, 0.48678165674209595, 0.6107754707336426,
        0.503777414560318, -2.0, -2.0, -2.0, -2.0, -2.0
      ],
      "value": [
        [0.41947565543071164, 0.5805243445692884],
        [0.572972972972973, 0.42702702702702705],
        [0.6733333333333333, 0.32666666666666666],
        [0.8264462809917356, 0.17355371900826447],
        [0.5151515151515151, 0.48484848484848486],
        [0.0, 1.0],
        [0.6296296296296297, 0.37037037037037035],
        [0.7727272727272727, 0.22727272727272727],
        [0.4, 0.6],
        [0.6666666666666666, 0.3333333333333333],
        [0.0, 1.0],
        [1.0, 0.0],
        [0.0, 1.0],
        [0.8823529411764706, 0.11764705882352941],
        [0.9375, 0.0625],
        [0.5, 0.5],
        [1.0, 0.0],
        [0.0, 1.0],
        [1.0, 0.0],
        [0.0, 1.0],
        [0.0, 1.0],
        [0.9431818181818182, 0.056818181818181816],
        [0.0, 1.0],
        [0.9651162790697675, 0.03488372093023256],
        [1.0, 0.0],
        [0.8235294117647058, 0.17647058823529413],
        [0.0, 1.0],
        [0.9333333333333333, 0.06666666666666667],
        [0.0, 1.0],
        [1.0, 0.0],
        [0.034482758620689655, 0.9655172413793104],
        [0.25, 0.75],
        [0.0, 1.0],
        [1.0, 0.0],
        [0.0, 1.0],
        [0.14285714285714285, 0.8571428571428571],
        [1.0, 0.0],
        [0.09090909090909091, 0.9090909090909091],
        [0.6666666666666666, 0.3333333333333333],
        [1.0, 0.0],
        [0.0, 1.0],
        [0.03333333333333333, 0.9666666666666667],
        [0.25, 0.75],
        [0.0, 1.0],
        [1.0, 0.0],
        [0.0, 1.0],
        [0.07317073170731707, 0.926829268292683],
        [0.375, 0.625],
        [0.0, 1.0],
        [0.75, 0.25],
        [1.0, 0.0],
        [0.0, 1.0],
        [0.04054054054054054, 0.9594594594594594],
        [0.13043478260869565, 0.8695652173913043],
        [0.42857142857142855, 0.5714285714285714],
        [0.75, 0.25],
        [1.0, 0.0],
        [0.0, 1.0],
        [0.0, 1.0],
        [0.0, 1.0],
        [0.0, 1.0]
      ]
    },
    {
      "children_left": [
        1, 2, 3, 4, -1, 6, -1, 8, -1, -1, 11, 12, 13, -1, 15, -1, 17, 18, 19,
        20, -1, -1, -1, -1, -1, -1, 27, -1, -1, 30, 31, 32, -1, 34, -1, 36, -1,
        -1, 39, -1, 41, -1, -1, -1, -1
      ],
      "children_right": [
        44, 29, 10, 5, -1, 7, -1, 9, -1, -1, 26, 25, 14, -1, 16, -1, 24, 23, 22,
        21, -1, -1, -1, -1, -1, -1, 28, -1, -1, 43, 38, 33, -1, 35, -1, 37, -1,
        -1, 40, -1, 42, -1, -1, -1, -1
      ],
      "feature": [
        0, 9, 2, 3, -2, 3, -2, 2, -2, -2, 13, 6, 13, -2, 5, -2, 14, 14, 13, 15,
        -2, -2, -2, -2, -2, -2, 7, -2, -2, 8, 15, 3, -2, 5, -2, 5, -2, -2, 4,
        -2, 12, -2, -2, -2, -2
      ],
      "threshold": [
        0.20809735357761383, 0.08542657643556595, 0.4365791082382202,
        0.4747184067964554, -2.0, 0.5185922086238861, -2.0, 0.4297887533903122,
        -2.0, -2.0, 0.5321214497089386, 0.4029752388596535, 0.4054054617881775,
        -2.0, 0.46529021859169006, -2.0, 0.49782611429691315,
        0.49729056656360626, 0.4573650062084198, 0.5429306030273438, -2.0, -2.0,
        -2.0, -2.0, -2.0, -2.0, 0.03224118705838919, -2.0, -2.0,
        0.1485380381345749, 0.4989074170589447, 0.45435525476932526, -2.0,
        0.5740074515342712, -2.0, 0.5979880690574646, -2.0, -2.0,
        0.5615929663181305, -2.0, 0.4903133362531662, -2.0, -2.0, -2.0, -2.0
      ],
      "value": [
        [0.41947565543071164, 0.5805243445692884],
        [0.5358851674641149, 0.46411483253588515],
        [0.7851851851851852, 0.21481481481481482],
        [0.3333333333333333, 0.6666666666666666],
        [0.0, 1.0],
        [0.6666666666666666, 0.3333333333333333],
        [1.0, 0.0],
        [0.2, 0.8],
        [0.0, 1.0],
        [1.0, 0.0],
        [0.8828828828828829, 0.11711711711711711],
        [0.9326923076923077, 0.0673076923076923],
        [0.9509803921568627, 0.049019607843137254],
        [0.0, 1.0],
        [0.97, 0.03],
        [0.0, 1.0],
        [0.9797979797979798, 0.020202020202020204],
        [0.875, 0.125],
        [0.9333333333333333, 0.06666666666666667],
        [0.75, 0.25],
        [1.0, 0.0],
        [0.0, 1.0],
        [1.0, 0.0],
        [0.0, 1.0],
        [1.0, 0.0],
        [0.0, 1.0],
        [0.14285714285714285, 0.8571428571428571],
        [1.0, 0.0],
        [0.0, 1.0],
        [0.08108108108108109, 0.918918918918919],
        [0.1875, 0.8125],
        [0.4166666666666667, 0.5833333333333334],
        [1.0, 0.0],
        [0.2222222222222222, 0.7777777777777778],
        [0.0, 1.0],
        [0.6666666666666666, 0.3333333333333333],
        [1.0, 0.0],
        [0.0, 1.0],
        [0.05, 0.95],
        [0.0, 1.0],
        [0.3333333333333333, 0.6666666666666666],
        [0.0, 1.0],
        [1.0, 0.0],
        [0.0, 1.0],
        [0.0, 1.0]
      ]
    },
    {
      "children_left": [
        1, 2, 3, 4, -1, 6, 7, 8, -1, 10, -1, 12, -1, -1, -1, 16, -1, 18, -1, -1,
        -1, 22, 23, -1, 25, -1, -1, 28, 29, 30, -1, -1, -1, -1, 35, -1, 37, -1,
        39, -1, -1
      ],
      "children_right": [
        34, 21, 20, 5, -1, 15, 14, 9, -1, 11, -1, 13, -1, -1, -1, 17, -1, 19,
        -1, -1, -1, 27, 24, -1, 26, -1, -1, 33, 32, 31, -1, -1, -1, -1, 36, -1,
        38, -1, 40, -1, -1
      ],
      "feature": [
        13, 9, 0, 2, -2, 14, 6, 5, -2, 15, -2, 10, -2, -2, -2, 6, -2, 13, -2,
        -2, -2, 3, 11, -2, 12, -2, -2, 0, 8, 13, -2, -2, -2, -2, 3, -2, 2, -2,
        10, -2, -2
      ],
      "threshold": [
        0.5297839045524597, 0.08364270254969597, 0.20809735357761383,
        0.35230767726898193, -2.0, 0.5629011392593384, 0.4721858873963356,
        0.46529021859169006, -2.0, 0.5362534821033478, -2.0,
        0.48373107612133026, -2.0, -2.0, -2.0, 0.06376108154654503, -2.0,
        0.506391167640686, -2.0, -2.0, -2.0, 0.4443436414003372,
        0.4572429955005646, -2.0, 0.6418839693069458, -2.0, -2.0,
        0.11832072213292122, 0.16327589750289917, 0.4867698848247528, -2.0,
        -2.0, -2.0, -2.0, 0.4747184067964554, -2.0, 0.4099700003862381, -2.0,
        0.5701577067375183, -2.0, -2.0
      ],
      "value": [
        [0.41947565543071164, 0.5805243445692884],
        [0.5670103092783505, 0.4329896907216495],
        [0.7428571428571429, 0.2571428571428571],
        [0.859504132231405, 0.14049586776859505],
        [0.0, 1.0],
        [0.9043478260869565, 0.09565217391304348],
        [0.9615384615384616, 0.038461538461538464],
        [0.970873786407767, 0.02912621359223301],
        [0.0, 1.0],
        [0.9803921568627451, 0.0196078431372549],
        [1.0, 0.0],
        [0.6666666666666666, 0.3333333333333333],
        [1.0, 0.0],
        [0.0, 1.0],
        [0.0, 1.0],
        [0.36363636363636365, 0.6363636363636364],
        [1.0, 0.0],
        [0.125, 0.875],
        [0.0, 1.0],
        [1.0, 0.0],
        [0.0, 1.0],
        [0.1111111111111111, 0.8888888888888888],
        [0.4444444444444444, 0.5555555555555556],
        [0.0, 1.0],
        [0.6666666666666666, 0.3333333333333333],
        [1.0, 0.0],
        [0.0, 1.0],
        [0.044444444444444446, 0.9555555555555556],
        [0.3333333333333333, 0.6666666666666666],
        [0.6666666666666666, 0.3333333333333333],
        [1.0, 0.0],
        [0.0, 1.0],
        [0.0, 1.0],
        [0.0, 1.0],
        [0.0273972602739726, 0.9726027397260274],
        [0.0, 1.0],
        [0.06451612903225806, 0.9354838709677419],
        [1.0, 0.0],
        [0.03333333333333333, 0.9666666666666667],
        [0.0, 1.0],
        [1.0, 0.0]
      ]
    },
    {
      "children_left": [
        1, 2, 3, -1, 5, 6, 7, 8, 9, 10, -1, 12, -1, -1, -1, 16, -1, 18, -1, -1,
        -1, -1, -1, 24, 25, -1, 27, -1, 29, -1, -1, 32, 33, 34, 35, 36, -1, -1,
        -1, -1, 41, -1, -1, -1, 45, 46, -1, 48, -1, -1, -1
      ],
      "children_right": [
        44, 23, 4, -1, 22, 21, 20, 15, 14, 11, -1, 13, -1, -1, -1, 17, -1, 19,
        -1, -1, -1, -1, -1, 31, 26, -1, 28, -1, 30, -1, -1, 43, 40, 39, 38, 37,
        -1, -1, -1, -1, 42, -1, -1, -1, 50, 47, -1, 49, -1, -1, -1
      ],
      "feature": [
        13, 7, 12, -2, 12, 0, 1, 7, 14, 8, -2, 2, -2, -2, -2, 11, -2, 5, -2, -2,
        -2, -2, -2, 1, 2, -2, 7, -2, 10, -2, -2, 4, 14, 7, 10, 7, -2, -2, -2,
        -2, 12, -2, -2, -2, 0, 7, -2, 11, -2, -2, -2
      ],
      "threshold": [
        0.5297839045524597, 0.13612085580825806, 0.3940333127975464, -2.0,
        0.6473293602466583, 0.34994223713874817, 0.19070392102003098,
        0.12677258253097534, 0.4979129731655121, 0.11112098768353462, -2.0,
        0.4577449709177017, -2.0, -2.0, -2.0, 0.5477422475814819, -2.0,
        0.559810221195221, -2.0, -2.0, -2.0, -2.0, -2.0, 0.11019748076796532,
        0.5075350701808929, -2.0, 0.17279032617807388, -2.0, 0.42518250644207,
        -2.0, -2.0, 0.5250037908554077, 0.5433050692081451, 0.23355194926261902,
        0.46266698837280273, 0.20273450016975403, -2.0, -2.0, -2.0, -2.0,
        0.501953974366188, -2.0, -2.0, -2.0, 0.11704831942915916,
        0.04686564486473799, -2.0, 0.39737214148044586, -2.0, -2.0, -2.0
      ],
      "value": [
        [0.41947565543071164, 0.5805243445692884],
        [0.5670103092783505, 0.4329896907216495],
        [0.822429906542056, 0.17757009345794392],
        [0.0, 1.0],
        [0.8979591836734694, 0.10204081632653061],
        [0.9166666666666666, 0.08333333333333333],
        [0.9565217391304348, 0.043478260869565216],
        [0.967032967032967, 0.03296703296703297],
        [0.987012987012987, 0.012987012987012988],
        [0.9166666666666666, 0.08333333333333333],
        [1.0, 0.0],
        [0.5, 0.5],
        [1.0, 0.0],
        [0.0, 1.0],
        [1.0, 0.0],
        [0.8571428571428571, 0.14285714285714285],
        [1.0, 0.0],
        [0.6666666666666666, 0.3333333333333333],
        [1.0, 0.0],
        [0.0, 1.0],
        [0.0, 1.0],
        [0.0, 1.0],
        [0.0, 1.0],
        [0.25287356321839083, 0.7471264367816092],
        [0.6666666666666666, 0.3333333333333333],
        [1.0, 0.0],
        [0.375, 0.625],
        [0.0, 1.0],
        [0.75, 0.25],
        [0.0, 1.0],
        [1.0, 0.0],
        [0.16666666666666666, 0.8333333333333334],
        [0.32432432432432434, 0.6756756756756757],
        [0.6111111111111112, 0.3888888888888889],
        [0.7857142857142857, 0.21428571428571427],
        [0.5, 0.5],
        [0.0, 1.0],
        [1.0, 0.0],
        [1.0, 0.0],
        [0.0, 1.0],
        [0.05263157894736842, 0.9473684210526315],
        [1.0, 0.0],
        [0.0, 1.0],
        [0.0, 1.0],
        [0.0273972602739726, 0.9726027397260274],
        [0.1111111111111111, 0.8888888888888888],
        [1.0, 0.0],
        [0.058823529411764705, 0.9411764705882353],
        [1.0, 0.0],
        [0.0, 1.0],
        [0.0, 1.0]
      ]
    },
    {
      "children_left": [
        1, 2, 3, -1, -1, 6, 7, -1, -1, 10, 11, -1, -1, -1, 15, 16, -1, 18, 19,
        20, -1, -1, 23, 24, -1, 26, 27, -1, -1, -1, -1, 32, 33, 34, -1, -1, -1,
        38, -1, -1, 41, 42, 43, 44, 45, -1, -1, -1, -1, 50, -1, -1, 53, 54, 55,
        -1, 57, -1, -1, 60, -1, -1, -1
      ],
      "children_right": [
        14, 5, 4, -1, -1, 9, 8, -1, -1, 13, 12, -1, -1, -1, 40, 17, -1, 31, 22,
        21, -1, -1, 30, 25, -1, 29, 28, -1, -1, -1, -1, 37, 36, 35, -1, -1, -1,
        39, -1, -1, 52, 49, 48, 47, 46, -1, -1, -1, -1, 51, -1, -1, 62, 59, 56,
        -1, 58, -1, -1, 61, -1, -1, -1
      ],
      "feature": [
        5, 1, 15, -2, -2, 8, 15, -2, -2, 0, 12, -2, -2, -2, 6, 12, -2, 7, 2, 6,
        -2, -2, 0, 13, -2, 2, 0, -2, -2, -2, -2, 10, 3, 11, -2, -2, -2, 9, -2,
        -2, 0, 14, 9, 1, 8, -2, -2, -2, -2, 9, -2, -2, 4, 10, 2, -2, 7, -2, -2,
        10, -2, -2, -2
      ],
      "threshold": [
        0.49787797033786774, 0.1075342409312725, 0.5167032182216644, -2.0, -2.0,
        0.01640499383211136, 0.5241946578025818, -2.0, -2.0,
        0.10884514078497887, 0.5816049575805664, -2.0, -2.0, -2.0,
        0.11925291642546654, 0.3936230540275574, -2.0, 0.1346101462841034,
        0.4227031022310257, 0.10510590299963951, -2.0, -2.0, 0.3887207955121994,
        0.4054054617881775, -2.0, 0.4744114279747009, 0.1432310938835144, -2.0,
        -2.0, -2.0, -2.0, 0.43501387536525726, 0.5932368636131287,
        0.5851408243179321, -2.0, -2.0, -2.0, 0.050446970388293266, -2.0, -2.0,
        0.11849529296159744, 0.5365278124809265, 0.1436300240457058,
        0.1262955665588379, 0.06863969191908836, -2.0, -2.0, -2.0, -2.0,
        0.03186872787773609, -2.0, -2.0, 0.5417316257953644, 0.5214965343475342,
        0.5345830321311951, -2.0, 0.17442743480205536, -2.0, -2.0,
        0.5414333343505859, -2.0, -2.0, -2.0
      ],
      "value": [
        [0.41947565543071164, 0.5805243445692884],
        [0.07462686567164178, 0.9253731343283582],
        [0.42857142857142855, 0.5714285714285714],
        [1.0, 0.0],
        [0.0, 1.0],
        [0.03333333333333333, 0.9666666666666667],
        [0.3333333333333333, 0.6666666666666666],
        [0.0, 1.0],
        [1.0, 0.0],
        [0.017543859649122806, 0.9824561403508771],
        [0.25, 0.75],
        [1.0, 0.0],
        [0.0, 1.0],
        [0.0, 1.0],
        [0.535, 0.465],
        [0.7699115044247787, 0.23008849557522124],
        [0.0, 1.0],
        [0.8285714285714286, 0.17142857142857143],
        [0.9069767441860465, 0.09302325581395349],
        [0.2857142857142857, 0.7142857142857143],
        [0.0, 1.0],
        [1.0, 0.0],
        [0.9620253164556962, 0.0379746835443038],
        [0.9743589743589743, 0.02564102564102564],
        [0.0, 1.0],
        [0.987012987012987, 0.012987012987012988],
        [0.9375, 0.0625],
        [1.0, 0.0],
        [0.0, 1.0],
        [1.0, 0.0],
        [0.0, 1.0],
        [0.47368421052631576, 0.5263157894736842],
        [0.8, 0.2],
        [0.8888888888888888, 0.1111111111111111],
        [1.0, 0.0],
        [0.0, 1.0],
        [0.0, 1.0],
        [0.1111111111111111, 0.8888888888888888],
        [1.0, 0.0],
        [0.0, 1.0],
        [0.22988505747126436, 0.7701149425287356],
        [0.47058823529411764, 0.5294117647058824],
        [0.8333333333333334, 0.16666666666666666],
        [0.9375, 0.0625],
        [0.5, 0.5],
        [1.0, 0.0],
        [0.0, 1.0],
        [1.0, 0.0],
        [0.0, 1.0],
        [0.0625, 0.9375],
        [1.0, 0.0],
        [0.0, 1.0],
        [0.07547169811320754, 0.9245283018867925],
        [0.17391304347826086, 0.8260869565217391],
        [0.1, 0.9],
        [0.0, 1.0],
        [0.6666666666666666, 0.3333333333333333],
        [0.0, 1.0],
        [1.0, 0.0],
        [0.6666666666666666, 0.3333333333333333],
        [1.0, 0.0],
        [0.0, 1.0],
        [0.0, 1.0]
      ]
    },
    {
      "children_left": [
        1, 2, 3, 4, -1, -1, 7, 8, 9, 10, 11, -1, 13, -1, -1, 16, -1, -1, 19, -1,
        -1, -1, 23, -1, -1, 26, 27, 28, 29, 30, 31, 32, -1, -1, 35, -1, 37, -1,
        39, -1, -1, -1, -1, -1, -1, -1, -1
      ],
      "children_right": [
        46, 25, 6, 5, -1, -1, 22, 21, 18, 15, 12, -1, 14, -1, -1, 17, -1, -1,
        20, -1, -1, -1, 24, -1, -1, 45, 44, 43, 42, 41, 34, 33, -1, -1, 36, -1,
        38, -1, 40, -1, -1, -1, -1, -1, -1, -1, -1
      ],
      "feature": [
        0, 7, 3, 4, -2, -2, 13, 1, 14, 9, 6, -2, 4, -2, -2, 6, -2, -2, 11, -2,
        -2, -2, 13, -2, -2, 7, 9, 15, 5, 14, 5, 10, -2, -2, 9, -2, 14, -2, 0,
        -2, -2, -2, -2, -2, -2, -2, -2
      ],
      "threshold": [
        0.20809735357761383, 0.13612085580825806, 0.4176705479621887,
        0.5520437955856323, -2.0, -2.0, 0.5305691957473755, 0.19070392102003098,
        0.5629011392593384, 0.08604799956083298, 0.13757629692554474, -2.0,
        0.5834032893180847, -2.0, -2.0, 0.11666310578584671, -2.0, -2.0,
        0.5468545258045197, -2.0, -2.0, -2.0, 0.5749466121196747, -2.0, -2.0,
        0.2336812987923622, 0.1139398030936718, 0.5289188623428345,
        0.5783566534519196, 0.5611735582351685, 0.4704175144433975,
        0.48312923312187195, -2.0, -2.0, 0.08403129130601883, -2.0,
        0.5134553015232086, -2.0, 0.16015005111694336, -2.0, -2.0, -2.0, -2.0,
        -2.0, -2.0, -2.0, -2.0
      ],
      "value": [
        [0.41947565543071164, 0.5805243445692884],
        [0.5358851674641149, 0.46411483253588515],
        [0.839622641509434, 0.16037735849056603],
        [0.1111111111111111, 0.8888888888888888],
        [0.0, 1.0],
        [1.0, 0.0],
        [0.9072164948453608, 0.09278350515463918],
        [0.9560439560439561, 0.04395604395604396],
        [0.9666666666666667, 0.03333333333333333],
        [0.9764705882352941, 0.023529411764705882],
        [0.9878048780487805, 0.012195121951219513],
        [1.0, 0.0],
        [0.75, 0.25],
        [1.0, 0.0],
        [0.0, 1.0],
        [0.6666666666666666, 0.3333333333333333],
        [0.0, 1.0],
        [1.0, 0.0],
        [0.8, 0.2],
        [1.0, 0.0],
        [0.0, 1.0],
        [0.0, 1.0],
        [0.16666666666666666, 0.8333333333333334],
        [0.0, 1.0],
        [1.0, 0.0],
        [0.22330097087378642, 0.7766990291262136],
        [0.359375, 0.640625],
        [0.4791666666666667, 0.5208333333333334],
        [0.5609756097560976, 0.43902439024390244],
        [0.7419354838709677, 0.25806451612903225],
        [0.8518518518518519, 0.14814814814814814],
        [0.3333333333333333, 0.6666666666666666],
        [0.0, 1.0],
        [1.0, 0.0],
        [0.9166666666666666, 0.08333333333333333],
        [1.0, 0.0],
        [0.6, 0.4],
        [1.0, 0.0],
        [0.3333333333333333, 0.6666666666666666],
        [1.0, 0.0],
        [0.0, 1.0],
        [0.0, 1.0],
        [0.0, 1.0],
        [0.0, 1.0],
        [0.0, 1.0],
        [0.0, 1.0],
        [0.0, 1.0]
      ]
    },
    {
      "children_left": [
        1, 2, 3, 4, 5, 6, -1, 8, 9, 10, -1, -1, -1, -1, 15, 16, 17, -1, -1, 20,
        21, -1, -1, -1, -1, -1, 27, -1, -1, -1, 31, 32, 33, -1, -1, -1, 37, 38,
        39, -1, -1, -1, -1
      ],
      "children_right": [
        30, 29, 26, 25, 14, 7, -1, 13, 12, 11, -1, -1, -1, -1, 24, 19, 18, -1,
        -1, 23, 22, -1, -1, -1, -1, -1, 28, -1, -1, -1, 36, 35, 34, -1, -1, -1,
        42, 41, 40, -1, -1, -1, -1
      ],
      "feature": [
        9, 12, 14, 0, 5, 7, -2, 2, 15, 3, -2, -2, -2, -2, 8, 12, 13, -2, -2, 15,
        13, -2, -2, -2, -2, -2, 0, -2, -2, -2, 10, 9, 0, -2, -2, -2, 6, 6, 10,
        -2, -2, -2, -2
      ],
      "threshold": [
        0.08542657643556595, 0.5592401027679443, 0.5792514681816101,
        0.20809735357761383, 0.5048324912786484, 0.1577143669128418, -2.0,
        0.48262549936771393, 0.5464962124824524, 0.48474764823913574, -2.0,
        -2.0, -2.0, -2.0, 0.4192133918404579, 0.4429759383201599,
        0.49377962946891785, -2.0, -2.0, 0.5495257377624512, 0.4143911153078079,
        -2.0, -2.0, -2.0, -2.0, -2.0, 0.0904080756008625, -2.0, -2.0, -2.0,
        0.3943312466144562, 0.10650421306490898, 0.2061343714594841, -2.0, -2.0,
        -2.0, 0.12984459102153778, 0.12443321943283081, 0.5446218252182007,
        -2.0, -2.0, -2.0, -2.0
      ],
      "value": [
        [0.41947565543071164, 0.5805243445692884],
        [0.572972972972973, 0.42702702702702705],
        [0.6973684210526315, 0.3026315789473684],
        [0.7553956834532374, 0.2446043165467626],
        [0.8823529411764706, 0.11764705882352941],
        [0.4, 0.6],
        [0.0, 1.0],
        [0.6666666666666666, 0.3333333333333333],
        [0.25, 0.75],
        [0.5, 0.5],
        [1.0, 0.0],
        [0.0, 1.0],
        [0.0, 1.0],
        [1.0, 0.0],
        [0.9519230769230769, 0.04807692307692308],
        [0.9611650485436893, 0.038834951456310676],
        [0.8333333333333334, 0.16666666666666666],
        [1.0, 0.0],
        [0.0, 1.0],
        [0.978021978021978, 0.02197802197802198],
        [0.9888888888888889, 0.011111111111111112],
        [0.0, 1.0],
        [1.0, 0.0],
        [0.0, 1.0],
        [0.0, 1.0],
        [0.0, 1.0],
        [0.07692307692307693, 0.9230769230769231],
        [1.0, 0.0],
        [0.0, 1.0],
        [0.0, 1.0],
        [0.07317073170731707, 0.926829268292683],
        [0.375, 0.625],
        [0.75, 0.25],
        [1.0, 0.0],
        [0.0, 1.0],
        [0.0, 1.0],
        [0.04054054054054054, 0.9594594594594594],
        [0.12, 0.88],
        [0.043478260869565216, 0.9565217391304348],
        [0.0, 1.0],
        [1.0, 0.0],
        [1.0, 0.0],
        [0.0, 1.0]
      ]
    },
    {
      "children_left": [
        1, 2, 3, 4, -1, 6, -1, 8, -1, -1, 11, 12, 13, -1, -1, -1, 17, -1, -1,
        20, -1, 22, -1, -1, 25, 26, 27, 28, 29, 30, -1, 32, -1, -1, 35, -1, 37,
        -1, -1, -1, -1, 42, 43, 44, -1, -1, -1, -1, 49, 50, -1, -1, -1
      ],
      "children_right": [
        24, 19, 10, 5, -1, 7, -1, 9, -1, -1, 16, 15, 14, -1, -1, -1, 18, -1, -1,
        21, -1, 23, -1, -1, 48, 41, 40, 39, 34, 31, -1, 33, -1, -1, 36, -1, 38,
        -1, -1, -1, -1, 47, 46, 45, -1, -1, -1, -1, 52, 51, -1, -1, -1
      ],
      "feature": [
        3, 15, 10, 2, -2, 8, -2, 12, -2, -2, 10, 1, 7, -2, -2, -2, 0, -2, -2,
        10, -2, 7, -2, -2, 1, 6, 7, 9, 7, 0, -2, 12, -2, -2, 15, -2, 9, -2, -2,
        -2, -2, 9, 0, 1, -2, -2, -2, -2, 0, 3, -2, -2, -2
      ],
      "threshold": [
        0.47469131648540497, 0.5274912416934967, 0.43240825831890106,
        0.46102623641490936, -2.0, 0.0702681913971901, -2.0, 0.4686974138021469,
        -2.0, -2.0, 0.5491297841072083, 0.14482834190130234,
        0.06772164814174175, -2.0, -2.0, -2.0, 0.11426204070448875, -2.0, -2.0,
        0.5494471490383148, -2.0, 0.27528130635619164, -2.0, -2.0,
        0.19243743270635605, 0.14156407862901688, 0.21851136535406113,
        0.12029922381043434, 0.13483089953660965, 0.18376057595014572, -2.0,
        0.5031509250402451, -2.0, -2.0, 0.4588096886873245, -2.0,
        0.08452190458774567, -2.0, -2.0, -2.0, -2.0, 0.07596317306160927,
        0.1278751641511917, 0.1483803689479828, -2.0, -2.0, -2.0, -2.0,
        0.12826356291770935, 0.4988401085138321, -2.0, -2.0, -2.0
      ],
      "value": [
        [0.41947565543071164, 0.5805243445692884],
        [0.16129032258064516, 0.8387096774193549],
        [0.2978723404255319, 0.7021276595744681],
        [0.625, 0.375],
        [0.0, 1.0],
        [0.7692307692307693, 0.23076923076923078],
        [1.0, 0.0],
        [0.25, 0.75],
        [1.0, 0.0],
        [0.0, 1.0],
        [0.12903225806451613, 0.8709677419354839],
        [0.07407407407407407, 0.9259259259259259],
        [0.3333333333333333, 0.6666666666666666],
        [1.0, 0.0],
        [0.0, 1.0],
        [0.0, 1.0],
        [0.5, 0.5],
        [1.0, 0.0],
        [0.0, 1.0],
        [0.021739130434782608, 0.9782608695652174],
        [0.0, 1.0],
        [0.3333333333333333, 0.6666666666666666],
        [1.0, 0.0],
        [0.0, 1.0],
        [0.5574712643678161, 0.4425287356321839],
        [0.7175572519083969, 0.2824427480916031],
        [0.9340659340659341, 0.06593406593406594],
        [0.9550561797752809, 0.0449438202247191],
        [0.9659090909090909, 0.03409090909090909],
        [0.9871794871794872, 0.01282051282051282],
        [1.0, 0.0],
        [0.8888888888888888, 0.1111111111111111],
        [1.0, 0.0],
        [0.0, 1.0],
        [0.8, 0.2],
        [0.0, 1.0],
        [0.8888888888888888, 0.1111111111111111],
        [1.0, 0.0],
        [0.0, 1.0],
        [0.0, 1.0],
        [0.0, 1.0],
        [0.225, 0.775],
        [0.6428571428571429, 0.35714285714285715],
        [0.8181818181818182, 0.18181818181818182],
        [0.0, 1.0],
        [1.0, 0.0],
        [0.0, 1.0],
        [0.0, 1.0],
        [0.06976744186046512, 0.9302325581395349],
        [0.6, 0.4],
        [1.0, 0.0],
        [0.0, 1.0],
        [0.0, 1.0]
      ]
    },
    {
      "children_left": [
        1, 2, 3, 4, 5, -1, 7, -1, 9, -1, -1, 12, -1, 14, 15, -1, -1, -1, -1, -1,
        21, 22, 23, 24, -1, 26, -1, -1, -1, 30, 31, 32, 33, -1, -1, -1, -1, -1,
        -1
      ],
      "children_right": [
        20, 19, 18, 11, 6, -1, 8, -1, 10, -1, -1, 13, -1, 17, 16, -1, -1, -1,
        -1, -1, 38, 29, 28, 25, -1, 27, -1, -1, -1, 37, 36, 35, 34, -1, -1, -1,
        -1, -1, -1
      ],
      "feature": [
        6, 12, 1, 9, 5, -2, 1, -2, 8, -2, -2, 10, -2, 6, 0, -2, -2, -2, -2, -2,
        15, 8, 7, 7, -2, 12, -2, -2, -2, 0, 8, 3, 3, -2, -2, -2, -2, -2, -2
      ],
      "threshold": [
        0.13033334910869598, 0.5601560473442078, 0.19312430918216705,
        0.08542657643556595, 0.5013431161642075, -2.0, 0.15181629359722137,
        -2.0, 0.034328339621424675, -2.0, -2.0, 0.40339188277721405, -2.0,
        0.12443321943283081, 0.10073681734502316, -2.0, -2.0, -2.0, -2.0, -2.0,
        0.5274912416934967, 0.08940588682889938, 0.22418241947889328,
        0.09039502963423729, -2.0, 0.5517939925193787, -2.0, -2.0, -2.0,
        0.11314690858125687, 0.13151603192090988, 0.5157043039798737,
        0.4446718096733093, -2.0, -2.0, -2.0, -2.0, -2.0, -2.0
      ],
      "value": [
        [0.41947565543071164, 0.5805243445692884],
        [0.573170731707317, 0.4268292682926829],
        [0.7175572519083969, 0.2824427480916031],
        [0.831858407079646, 0.168141592920354],
        [0.9263157894736842, 0.07368421052631578],
        [0.0, 1.0],
        [0.9777777777777777, 0.022222222222222223],
        [1.0, 0.0],
        [0.8666666666666667, 0.13333333333333333],
        [0.0, 1.0],
        [1.0, 0.0],
        [0.3333333333333333, 0.6666666666666666],
        [1.0, 0.0],
        [0.2, 0.8],
        [0.07692307692307693, 0.9230769230769231],
        [1.0, 0.0],
        [0.0, 1.0],
        [1.0, 0.0],
        [0.0, 1.0],
        [0.0, 1.0],
        [0.17475728155339806, 0.8252427184466019],
        [0.2647058823529412, 0.7352941176470589],
        [0.631578947368421, 0.3684210526315789],
        [0.8571428571428571, 0.14285714285714285],
        [0.0, 1.0],
        [0.9230769230769231, 0.07692307692307693],
        [1.0, 0.0],
        [0.0, 1.0],
        [0.0, 1.0],
        [0.12244897959183673, 0.8775510204081632],
        [0.5454545454545454, 0.45454545454545453],
        [0.6666666666666666, 0.3333333333333333],
        [0.8571428571428571, 0.14285714285714285],
        [0.0, 1.0],
        [1.0, 0.0],
        [0.0, 1.0],
        [0.0, 1.0],
        [0.0, 1.0],
        [0.0, 1.0]
      ]
    },
    {
      "children_left": [
        1, 2, 3, 4, -1, 6, 7, -1, 9, -1, 11, -1, -1, 14, 15, -1, 17, -1, -1, -1,
        21, 22, -1, 24, 25, -1, -1, 28, -1, 30, -1, -1, 33, 34, 35, -1, 37, 38,
        39, -1, 41, -1, -1, -1, 45, -1, -1, -1, 49, 50, 51, -1, 53, -1, -1, 56,
        57, -1, -1, -1, -1, -1, 63, 64, -1, 66, 67, 68, 69, -1, -1, -1, -1, -1,
        -1
      ],
      "children_right": [
        62, 61, 20, 5, -1, 13, 8, -1, 10, -1, 12, -1, -1, 19, 16, -1, 18, -1,
        -1, -1, 32, 23, -1, 27, 26, -1, -1, 29, -1, 31, -1, -1, 48, 47, 36, -1,
        44, 43, 40, -1, 42, -1, -1, -1, 46, -1, -1, -1, 60, 55, 52, -1, 54, -1,
        -1, 59, 58, -1, -1, -1, -1, -1, 74, 65, -1, 73, 72, 71, 70, -1, -1, -1,
        -1, -1, -1
      ],
      "feature": [
        15, 12, 15, 2, -2, 7, 12, -2, 12, -2, 11, -2, -2, 14, 13, -2, 6, -2, -2,
        -2, 3, 11, -2, 10, 8, -2, -2, 7, -2, 10, -2, -2, 7, 1, 5, -2, 7, 11, 6,
        -2, 3, -2, -2, -2, 9, -2, -2, -2, 8, 7, 5, -2, 13, -2, -2, 9, 9, -2, -2,
        -2, -2, -2, 13, 5, -2, 14, 1, 0, 7, -2, -2, -2, -2, -2, -2
      ],
      "threshold": [
        0.5316719710826874, 0.5588140487670898, 0.462153896689415,
        0.4184354841709137, -2.0, 0.12608838081359863, 0.4033059924840927, -2.0,
        0.5300839841365814, -2.0, 0.503114253282547, -2.0, -2.0,
        0.5369530320167542, 0.4783100038766861, -2.0, 0.14350970461964607, -2.0,
        -2.0, -2.0, 0.47335579991340637, 0.430822029709816, -2.0,
        0.419549822807312, 0.0702681913971901, -2.0, -2.0, 0.08638394996523857,
        -2.0, 0.5490641593933105, -2.0, -2.0, 0.14113859087228775,
        0.34445032477378845, 0.49180030822753906, -2.0, 0.13483089953660965,
        0.43866075575351715, 0.13792630285024643, -2.0, 0.5134938359260559,
        -2.0, -2.0, -2.0, 0.08452190458774567, -2.0, -2.0, -2.0,
        0.13056061416864395, 0.2053087055683136, 0.5513244271278381, -2.0,
        0.4559357613325119, -2.0, -2.0, 0.14186556823551655,
        0.04235539212822914, -2.0, -2.0, -2.0, -2.0, -2.0, 0.5297839045524597,
        0.5112971067428589, -2.0, 0.49138326942920685, 0.1430533304810524,
        0.1968388557434082, 0.20788900554180145, -2.0, -2.0, -2.0, -2.0, -2.0,
        -2.0
      ],
      "value": [
        [0.41947565543071164, 0.5805243445692884],
        [0.5353535353535354, 0.46464646464646464],
        [0.6583850931677019, 0.3416149068322981],
        [0.3548387096774194, 0.6451612903225806],
        [1.0, 0.0],
        [0.3103448275862069, 0.6896551724137931],
        [0.6666666666666666, 0.3333333333333333],
        [0.0, 1.0],
        [0.8571428571428571, 0.14285714285714285],
        [1.0, 0.0],
        [0.5, 0.5],
        [1.0, 0.0],
        [0.0, 1.0],
        [0.15, 0.85],
        [0.6, 0.4],
        [1.0, 0.0],
        [0.3333333333333333, 0.6666666666666666],
        [1.0, 0.0],
        [0.0, 1.0],
        [0.0, 1.0],
        [0.7307692307692307, 0.2692307692307692],
        [0.42857142857142855, 0.5714285714285714],
        [0.0, 1.0],
        [0.5454545454545454, 0.45454545454545453],
        [0.875, 0.125],
        [1.0, 0.0],
        [0.0, 1.0],
        [0.35714285714285715, 0.6428571428571429],
        [1.0, 0.0],
        [0.1, 0.9],
        [0.0, 1.0],
        [1.0, 0.0],
        [0.8137254901960784, 0.18627450980392157],
        [0.9487179487179487, 0.05128205128205128],
        [0.961038961038961, 0.03896103896103896],
        [0.0, 1.0],
        [0.9736842105263158, 0.02631578947368421],
        [0.9859154929577465, 0.014084507042253521],
        [0.875, 0.125],
        [1.0, 0.0],
        [0.5, 0.5],
        [1.0, 0.0],
        [0.0, 1.0],
        [1.0, 0.0],
        [0.8, 0.2],
        [1.0, 0.0],
        [0.0, 1.0],
        [0.0, 1.0],
        [0.375, 0.625],
        [0.6428571428571429, 0.35714285714285715],
        [0.875, 0.125],
        [1.0, 0.0],
        [0.6666666666666666, 0.3333333333333333],
        [1.0, 0.0],
        [0.0, 1.0],
        [0.3333333333333333, 0.6666666666666666],
        [0.6666666666666666, 0.3333333333333333],
        [0.0, 1.0],
        [1.0, 0.0],
        [0.0, 1.0],
        [0.0, 1.0],
        [0.0, 1.0],
        [0.08695652173913043, 0.9130434782608695],
        [0.20689655172413793, 0.7931034482758621],
        [1.0, 0.0],
        [0.17857142857142858, 0.8214285714285714],
        [0.3333333333333333, 0.6666666666666666],
        [0.625, 0.375],
        [0.8333333333333334, 0.16666666666666666],
        [1.0, 0.0],
        [0.0, 1.0],
        [0.0, 1.0],
        [0.0, 1.0],
        [0.0, 1.0],
        [0.0, 1.0]
      ]
    },
    {
      "children_left": [
        1, 2, 3, 4, -1, 6, 7, -1, -1, -1, 11, -1, 13, -1, -1, 16, 17, -1, -1,
        -1, 21, 22, 23, 24, -1, 26, 27, -1, -1, -1, 31, 32, 33, -1, -1, 36, -1,
        -1, -1, 40, 41, 42, -1, 44, -1, -1, -1, -1, 49, 50, 51, 52, 53, -1, -1,
        -1, -1, -1, -1
      ],
      "children_right": [
        20, 15, 10, 5, -1, 9, 8, -1, -1, -1, 12, -1, 14, -1, -1, 19, 18, -1, -1,
        -1, 48, 39, 30, 25, -1, 29, 28, -1, -1, -1, 38, 35, 34, -1, -1, 37, -1,
        -1, -1, 47, 46, 43, -1, 45, -1, -1, -1, -1, 58, 57, 56, 55, 54, -1, -1,
        -1, -1, -1, -1
      ],
      "feature": [
        5, 11, 12, 15, -2, 14, 11, -2, -2, -2, 7, -2, 7, -2, -2, 12, 11, -2, -2,
        -2, 9, 1, 6, 1, -2, 3, 5, -2, -2, -2, 1, 10, 8, -2, -2, 11, -2, -2, -2,
        11, 0, 8, -2, 9, -2, -2, -2, -2, 8, 8, 6, 14, 9, -2, -2, -2, -2, -2, -2
      ],
      "threshold": [
        0.49787797033786774, 0.5725593566894531, 0.5203643143177032,
        0.4994254559278488, -2.0, 0.4740384519100189, 0.547358363866806, -2.0,
        -2.0, -2.0, 0.2258378192782402, -2.0, 0.2351996973156929, -2.0, -2.0,
        0.5755422413349152, 0.5822324752807617, -2.0, -2.0, -2.0,
        0.08364270254969597, 0.18657102435827255, 0.1304137334227562,
        0.15181629359722137, -2.0, 0.48711034655570984, 0.5813461542129517,
        -2.0, -2.0, -2.0, 0.1792851909995079, 0.5248886346817017,
        0.0389019837602973, -2.0, -2.0, 0.42402614653110504, -2.0, -2.0, -2.0,
        0.4518350511789322, 0.1359138786792755, 0.09155646339058876, -2.0,
        0.05799531005322933, -2.0, -2.0, -2.0, -2.0, 0.1485380381345749,
        0.14115162193775177, 0.09958650916814804, 0.525453120470047,
        0.24027466401457787, -2.0, -2.0, -2.0, -2.0, -2.0, -2.0
      ],
      "value": [
        [0.41947565543071164, 0.5805243445692884],
        [0.07462686567164178, 0.9253731343283582],
        [0.04838709677419355, 0.9516129032258065],
        [0.2222222222222222, 0.7777777777777778],
        [1.0, 0.0],
        [0.125, 0.875],
        [0.5, 0.5],
        [0.0, 1.0],
        [1.0, 0.0],
        [0.0, 1.0],
        [0.018867924528301886, 0.9811320754716981],
        [0.0, 1.0],
        [0.07692307692307693, 0.9230769230769231],
        [1.0, 0.0],
        [0.0, 1.0],
        [0.4, 0.6],
        [0.6666666666666666, 0.3333333333333333],
        [1.0, 0.0],
        [0.0, 1.0],
        [0.0, 1.0],
        [0.535, 0.465],
        [0.7194244604316546, 0.2805755395683453],
        [0.8715596330275229, 0.12844036697247707],
        [0.9775280898876404, 0.02247191011235955],
        [1.0, 0.0],
        [0.8666666666666667, 0.13333333333333333],
        [0.3333333333333333, 0.6666666666666666],
        [1.0, 0.0],
        [0.0, 1.0],
        [1.0, 0.0],
        [0.4, 0.6],
        [0.25, 0.75],
        [0.09090909090909091, 0.9090909090909091],
        [1.0, 0.0],
        [0.0, 1.0],
        [0.6, 0.4],
        [0.0, 1.0],
        [1.0, 0.0],
        [1.0, 0.0],
        [0.16666666666666666, 0.8333333333333334],
        [0.38461538461538464, 0.6153846153846154],
        [0.7142857142857143, 0.2857142857142857],
        [1.0, 0.0],
        [0.3333333333333333, 0.6666666666666666],
        [0.0, 1.0],
        [1.0, 0.0],
        [0.0, 1.0],
        [0.0, 1.0],
        [0.11475409836065574, 0.8852459016393442],
        [0.2692307692307692, 0.7307692307692307],
        [0.17391304347826086, 0.8260869565217391],
        [0.4444444444444444, 0.5555555555555556],
        [0.8, 0.2],
        [1.0, 0.0],
        [0.0, 1.0],
        [0.0, 1.0],
        [0.0, 1.0],
        [1.0, 0.0],
        [0.0, 1.0]
      ]
    },
    {
      "children_left": [
        1, 2, 3, -1, 5, 6, -1, 8, 9, -1, 11, -1, -1, -1, 15, -1, 17, -1, -1, 20,
        21, 22, 23, 24, 25, 26, -1, -1, 29, 30, -1, 32, -1, -1, -1, -1, -1, -1,
        -1, 40, 41, -1, -1, -1, 45, 46, 47, -1, -1, -1, -1
      ],
      "children_right": [
        44, 19, 4, -1, 14, 7, -1, 13, 10, -1, 12, -1, -1, -1, 16, -1, 18, -1,
        -1, 39, 38, 37, 36, 35, 28, 27, -1, -1, 34, 31, -1, 33, -1, -1, -1, -1,
        -1, -1, -1, 43, 42, -1, -1, -1, 50, 49, 48, -1, -1, -1, -1
      ],
      "feature": [
        1, 7, 5, -2, 9, 13, -2, 8, 13, -2, 13, -2, -2, -2, 4, -2, 2, -2, -2, 9,
        5, 14, 0, 8, 1, 0, -2, -2, 10, 13, -2, 0, -2, -2, -2, -2, -2, -2, -2,
        14, 7, -2, -2, -2, 12, 0, 5, -2, -2, -2, -2
      ],
      "threshold": [
        0.19243743270635605, 0.13612085580825806, 0.5034387856721878, -2.0,
        0.08613782748579979, 0.4054054617881775, -2.0, 0.12373519688844681,
        0.5321214497089386, -2.0, 0.5630802810192108, -2.0, -2.0, -2.0,
        0.5429226160049438, -2.0, 0.5129652321338654, -2.0, -2.0,
        0.09285180643200874, 0.5673488080501556, 0.5693026483058929,
        0.19487622380256653, 0.1305585578083992, 0.06362239457666874,
        0.17293424904346466, -2.0, -2.0, 0.4124329090118408, 0.5087651312351227,
        -2.0, 0.17305663228034973, -2.0, -2.0, -2.0, -2.0, -2.0, -2.0, -2.0,
        0.4550493657588959, 0.2245279997587204, -2.0, -2.0, -2.0,
        0.5047125816345215, 0.12862271070480347, 0.5917888879776001, -2.0, -2.0,
        -2.0, -2.0
      ],
      "value": [
        [0.41947565543071164, 0.5805243445692884],
        [0.5369458128078818, 0.4630541871921182],
        [0.8557692307692307, 0.14423076923076922],
        [0.0, 1.0],
        [0.9175257731958762, 0.08247422680412371],
        [0.9662921348314607, 0.033707865168539325],
        [0.0, 1.0],
        [0.9772727272727273, 0.022727272727272728],
        [0.9885057471264368, 0.011494252873563218],
        [1.0, 0.0],
        [0.5, 0.5],
        [0.0, 1.0],
        [1.0, 0.0],
        [0.0, 1.0],
        [0.375, 0.625],
        [0.0, 1.0],
        [0.75, 0.25],
        [1.0, 0.0],
        [0.0, 1.0],
        [0.20202020202020202, 0.797979797979798],
        [0.4418604651162791, 0.5581395348837209],
        [0.5588235294117647, 0.4411764705882353],
        [0.6333333333333333, 0.36666666666666664],
        [0.76, 0.24],
        [0.8260869565217391, 0.17391304347826086],
        [0.3333333333333333, 0.6666666666666666],
        [0.0, 1.0],
        [1.0, 0.0],
        [0.9, 0.1],
        [0.6666666666666666, 0.3333333333333333],
        [1.0, 0.0],
        [0.3333333333333333, 0.6666666666666666],
        [1.0, 0.0],
        [0.0, 1.0],
        [1.0, 0.0],
        [0.0, 1.0],
        [0.0, 1.0],
        [0.0, 1.0],
        [0.0, 1.0],
        [0.017857142857142856, 0.9821428571428571],
        [0.25, 0.75],
        [1.0, 0.0],
        [0.0, 1.0],
        [0.0, 1.0],
        [0.046875, 0.953125],
        [0.125, 0.875],
        [0.75, 0.25],
        [1.0, 0.0],
        [0.0, 1.0],
        [0.0, 1.0],
        [0.0, 1.0]
      ]
    },
    {
      "children_left": [
        1, 2, 3, 4, 5, -1, 7, 8, -1, -1, 11, -1, 13, -1, -1, -1, -1, 18, 19, 20,
        21, -1, -1, -1, 25, 26, -1, 28, -1, -1, 31, -1, 33, -1, -1, -1, 37, 38,
        39, -1, -1, -1, -1
      ],
      "children_right": [
        36, 17, 16, 15, 6, -1, 10, 9, -1, -1, 12, -1, 14, -1, -1, -1, -1, 35,
        24, 23, 22, -1, -1, -1, 30, 27, -1, 29, -1, -1, 32, -1, 34, -1, -1, -1,
        42, 41, 40, -1, -1, -1, -1
      ],
      "feature": [
        13, 7, 1, 14, 13, -2, 12, 3, -2, -2, 9, -2, 0, -2, -2, -2, -2, 7, 1, 7,
        12, -2, -2, -2, 8, 11, -2, 15, -2, -2, 13, -2, 9, -2, -2, -2, 11, 14,
        10, -2, -2, -2, -2
      ],
      "threshold": [
        0.5297839045524597, 0.13612085580825806, 0.19070392102003098,
        0.6656909883022308, 0.4054054617881775, -2.0, 0.42306025326251984,
        0.5040195286273956, -2.0, -2.0, 0.08604799956083298, -2.0,
        0.15576722472906113, -2.0, -2.0, -2.0, -2.0, 0.22383496910333633,
        0.12493885308504105, 0.17279032617807388, 0.5280283689498901, -2.0,
        -2.0, -2.0, 0.09155646339058876, 0.47001880407333374, -2.0,
        0.5241946578025818, -2.0, -2.0, 0.49867211282253265, -2.0,
        0.07847180590033531, -2.0, -2.0, -2.0, 0.3930723965167999,
        0.5130070447921753, 0.492659255862236, -2.0, -2.0, -2.0, -2.0
      ],
      "value": [
        [0.41947565543071164, 0.5805243445692884],
        [0.5670103092783505, 0.4329896907216495],
        [0.822429906542056, 0.17757009345794392],
        [0.946236559139785, 0.053763440860215055],
        [0.967032967032967, 0.03296703296703297],
        [0.0, 1.0],
        [0.9777777777777777, 0.022222222222222223],
        [0.6666666666666666, 0.3333333333333333],
        [1.0, 0.0],
        [0.0, 1.0],
        [0.9885057471264368, 0.011494252873563218],
        [1.0, 0.0],
        [0.75, 0.25],
        [1.0, 0.0],
        [0.0, 1.0],
        [0.0, 1.0],
        [0.0, 1.0],
        [0.25287356321839083, 0.7471264367816092],
        [0.3548387096774194, 0.6451612903225806],
        [0.75, 0.25],
        [0.2, 0.8],
        [0.0, 1.0],
        [1.0, 0.0],
        [1.0, 0.0],
        [0.21739130434782608, 0.782608695652174],
        [0.4666666666666667, 0.5333333333333333],
        [1.0, 0.0],
        [0.1111111111111111, 0.8888888888888888],
        [0.0, 1.0],
        [1.0, 0.0],
        [0.0967741935483871, 0.9032258064516129],
        [0.0, 1.0],
        [0.5, 0.5],
        [1.0, 0.0],
        [0.0, 1.0],
        [0.0, 1.0],
        [0.0273972602739726, 0.9726027397260274],
        [0.3333333333333333, 0.6666666666666666],
        [0.6666666666666666, 0.3333333333333333],
        [0.0, 1.0],
        [1.0, 0.0],
        [0.0, 1.0],
        [0.0, 1.0]
      ]
    },
    {
      "children_left": [
        1, 2, 3, 4, 5, 6, 7, -1, 9, -1, -1, 12, 13, -1, -1, -1, 17, 18, 19, -1,
        -1, 22, -1, 24, -1, -1, 27, -1, -1, -1, -1, 32, 33, 34, -1, -1, 37, -1,
        -1, 40, 41, -1, 43, -1, -1, -1, 47, 48, -1, -1, 51, -1, 53, -1, -1
      ],
      "children_right": [
        46, 31, 30, 29, 16, 11, 8, -1, 10, -1, -1, 15, 14, -1, -1, -1, 26, 21,
        20, -1, -1, 23, -1, 25, -1, -1, 28, -1, -1, -1, -1, 39, 36, 35, -1, -1,
        38, -1, -1, 45, 42, -1, 44, -1, -1, -1, 50, 49, -1, -1, 52, -1, 54, -1,
        -1
      ],
      "feature": [
        13, 8, 1, 7, 3, 9, 13, -2, 15, -2, -2, 5, 0, -2, -2, -2, 12, 14, 10, -2,
        -2, 6, -2, 9, -2, -2, 0, -2, -2, -2, -2, 7, 3, 8, -2, -2, 12, -2, -2, 9,
        6, -2, 0, -2, -2, -2, 7, 5, -2, -2, 10, -2, 12, -2, -2
      ],
      "threshold": [
        0.5297839045524597, 0.08543850108981133, 0.20601963251829147,
        0.22418241947889328, 0.4739251583814621, 0.08334340900182724,
        0.42893455922603607, -2.0, 0.5777221024036407, -2.0, -2.0,
        0.5194883942604065, 0.18740854412317276, -2.0, -2.0, -2.0,
        0.5367744565010071, 0.4869457334280014, 0.49409882724285126, -2.0, -2.0,
        0.10511045530438423, -2.0, 0.07694217190146446, -2.0, -2.0,
        0.10764607414603233, -2.0, -2.0, -2.0, -2.0, 0.14110919833183289,
        0.47278015315532684, 0.1333332508802414, -2.0, -2.0,
        0.46853338181972504, -2.0, -2.0, 0.0718708261847496,
        0.20140741765499115, -2.0, 0.1330382414162159, -2.0, -2.0, -2.0,
        0.023005643859505653, 0.495796263217926, -2.0, -2.0, 0.5437788367271423,
        -2.0, 0.5646056532859802, -2.0, -2.0
      ],
      "value": [
        [0.41947565543071164, 0.5805243445692884],
        [0.5670103092783505, 0.4329896907216495],
        [0.7627118644067796, 0.23728813559322035],
        [0.8256880733944955, 0.1743119266055046],
        [0.8823529411764706, 0.11764705882352941],
        [0.5909090909090909, 0.4090909090909091],
        [0.8333333333333334, 0.16666666666666666],
        [0.0, 1.0],
        [0.9090909090909091, 0.09090909090909091],
        [1.0, 0.0],
        [0.0, 1.0],
        [0.3, 0.7],
        [0.6, 0.4],
        [1.0, 0.0],
        [0.0, 1.0],
        [0.0, 1.0],
        [0.9625, 0.0375],
        [0.974025974025974, 0.025974025974025976],
        [0.8571428571428571, 0.14285714285714285],
        [1.0, 0.0],
        [0.0, 1.0],
        [0.9857142857142858, 0.014285714285714285],
        [1.0, 0.0],
        [0.9285714285714286, 0.07142857142857142],
        [1.0, 0.0],
        [0.0, 1.0],
        [0.6666666666666666, 0.3333333333333333],
        [1.0, 0.0],
        [0.0, 1.0],
        [0.0, 1.0],
        [0.0, 1.0],
        [0.2631578947368421, 0.7368421052631579],
        [0.68, 0.32],
        [0.16666666666666666, 0.8333333333333334],
        [0.0, 1.0],
        [1.0, 0.0],
        [0.8421052631578947, 0.15789473684210525],
        [0.0, 1.0],
        [1.0, 0.0],
        [0.058823529411764705, 0.9411764705882353],
        [0.17647058823529413, 0.8235294117647058],
        [0.0, 1.0],
        [0.6, 0.4],
        [1.0, 0.0],
        [0.0, 1.0],
        [0.0, 1.0],
        [0.0273972602739726, 0.9726027397260274],
        [0.3333333333333333, 0.6666666666666666],
        [0.0, 1.0],
        [1.0, 0.0],
        [0.014285714285714285, 0.9857142857142858],
        [0.0, 1.0],
        [0.125, 0.875],
        [1.0, 0.0],
        [0.0, 1.0]
      ]
    },
    {
      "children_left": [
        1, 2, 3, 4, 5, 6, -1, 8, 9, -1, -1, -1, -1, 14, 15, -1, -1, 18, -1, -1,
        21, 22, -1, 24, 25, -1, -1, 28, -1, 30, 31, -1, 33, -1, -1, 36, -1, -1,
        -1, 40, -1, 42, 43, -1, -1, -1, 47, 48, -1, 50, 51, -1, 53, -1, -1, -1,
        57, 58, 59, -1, -1, -1, -1
      ],
      "children_right": [
        46, 39, 20, 13, 12, 7, -1, 11, 10, -1, -1, -1, -1, 17, 16, -1, -1, 19,
        -1, -1, 38, 23, -1, 27, 26, -1, -1, 29, -1, 35, 32, -1, 34, -1, -1, 37,
        -1, -1, -1, 41, -1, 45, 44, -1, -1, -1, 56, 49, -1, 55, 52, -1, 54, -1,
        -1, -1, 62, 61, 60, -1, -1, -1, -1
      ],
      "feature": [
        8, 1, 3, 1, 13, 11, -2, 9, 0, -2, -2, -2, -2, 7, 5, -2, -2, 10, -2, -2,
        9, 10, -2, 5, 7, -2, -2, 13, -2, 15, 6, -2, 6, -2, -2, 2, -2, -2, -2,
        10, -2, 0, 10, -2, -2, -2, 6, 11, -2, 13, 15, -2, 14, -2, -2, -2, 8, 2,
        14, -2, -2, -2, -2
      ],
      "threshold": [
        0.1147669069468975, 0.20601963251829147, 0.47335579991340637,
        0.13616817444562912, 0.5321120619773865, 0.5218945145606995, -2.0,
        0.08334340900182724, 0.20163564383983612, -2.0, -2.0, -2.0, -2.0,
        0.06281503662467003, 0.5413867235183716, -2.0, -2.0, 0.5490641593933105,
        -2.0, -2.0, 0.08604799956083298, 0.4115469753742218, -2.0,
        0.5072817504405975, 0.15452681109309196, -2.0, -2.0, 0.4044905751943588,
        -2.0, 0.5495257377624512, 0.15180803835391998, -2.0,
        0.15894684195518494, -2.0, -2.0, 0.5235843658447266, -2.0, -2.0, -2.0,
        0.5370401442050934, -2.0, 0.23357967287302017, 0.5557439029216766, -2.0,
        -2.0, -2.0, 0.12939708679914474, 0.46189744770526886, -2.0,
        0.5287878811359406, 0.5606687366962433, -2.0, 0.46155522763729095, -2.0,
        -2.0, -2.0, 0.1305585578083992, 0.40659092366695404, 0.5554100275039673,
        -2.0, -2.0, -2.0, -2.0
      ],
      "value": [
        [0.41947565543071164, 0.5805243445692884],
        [0.5578947368421052, 0.4421052631578947],
        [0.7142857142857143, 0.2857142857142857],
        [0.30952380952380953, 0.6904761904761905],
        [0.5238095238095238, 0.47619047619047616],
        [0.6470588235294118, 0.35294117647058826],
        [1.0, 0.0],
        [0.45454545454545453, 0.5454545454545454],
        [0.8333333333333334, 0.16666666666666666],
        [1.0, 0.0],
        [0.0, 1.0],
        [0.0, 1.0],
        [0.0, 1.0],
        [0.09523809523809523, 0.9047619047619048],
        [0.5, 0.5],
        [0.0, 1.0],
        [1.0, 0.0],
        [0.05263157894736842, 0.9473684210526315],
        [0.0, 1.0],
        [1.0, 0.0],
        [0.8761904761904762, 0.12380952380952381],
        [0.9387755102040817, 0.061224489795918366],
        [0.0, 1.0],
        [0.9484536082474226, 0.05154639175257732],
        [0.5, 0.5],
        [0.0, 1.0],
        [1.0, 0.0],
        [0.967741935483871, 0.03225806451612903],
        [0.0, 1.0],
        [0.9782608695652174, 0.021739130434782608],
        [0.9888888888888889, 0.011111111111111112],
        [1.0, 0.0],
        [0.875, 0.125],
        [0.0, 1.0],
        [1.0, 0.0],
        [0.5, 0.5],
        [0.0, 1.0],
        [1.0, 0.0],
        [0.0, 1.0],
        [0.023255813953488372, 0.9767441860465116],
        [0.0, 1.0],
        [0.2, 0.8],
        [0.5, 0.5],
        [1.0, 0.0],
        [0.0, 1.0],
        [0.0, 1.0],
        [0.07792207792207792, 0.922077922077922],
        [0.2857142857142857, 0.7142857142857143],
        [1.0, 0.0],
        [0.09090909090909091, 0.9090909090909091],
        [0.25, 0.75],
        [0.0, 1.0],
        [0.5, 0.5],
        [0.0, 1.0],
        [1.0, 0.0],
        [0.0, 1.0],
        [0.031746031746031744, 0.9682539682539683],
        [0.2, 0.8],
        [0.6666666666666666, 0.3333333333333333],
        [1.0, 0.0],
        [0.0, 1.0],
        [0.0, 1.0],
        [0.0, 1.0]
      ]
    },
    {
      "children_left": [
        1, 2, 3, 4, 5, 6, -1, 8, 9, -1, 11, 12, 13, 14, -1, -1, -1, -1, -1, -1,
        -1, 22, -1, -1, -1, 26, 27, -1, 29, -1, -1, -1, 33, 34, 35, -1, -1, 38,
        39, -1, -1, -1, -1
      ],
      "children_right": [
        32, 25, 24, 21, 20, 7, -1, 19, 10, -1, 18, 17, 16, 15, -1, -1, -1, -1,
        -1, -1, -1, 23, -1, -1, -1, 31, 28, -1, 30, -1, -1, -1, 42, 37, 36, -1,
        -1, 41, 40, -1, -1, -1, -1
      ],
      "feature": [
        9, 13, 0, 12, 10, 5, -2, 9, 5, -2, 6, 12, 8, 13, -2, -2, -2, -2, -2, -2,
        -2, 7, -2, -2, -2, 0, 4, -2, 8, -2, -2, -2, 14, 10, 12, -2, -2, 7, 12,
        -2, -2, -2, -2
      ],
      "threshold": [
        0.08542657643556595, 0.5297839045524597, 0.20809735357761383,
        0.552735447883606, 0.566608726978302, 0.46529021859169006, -2.0,
        0.08366459235548973, 0.5981303155422211, -2.0, 0.12102591246366501,
        0.5360568463802338, 0.028949777595698833, 0.4307524263858795, -2.0,
        -2.0, -2.0, -2.0, -2.0, -2.0, -2.0, 0.14096397161483765, -2.0, -2.0,
        -2.0, 0.13300135731697083, 0.43336451053619385, -2.0,
        0.1074560284614563, -2.0, -2.0, -2.0, 0.5200592875480652,
        0.3943312466144562, 0.49407657980918884, -2.0, -2.0,
        0.13686414062976837, 0.5128798484802246, -2.0, -2.0, -2.0, -2.0
      ],
      "value": [
        [0.41947565543071164, 0.5805243445692884],
        [0.572972972972973, 0.42702702702702705],
        [0.7323943661971831, 0.2676056338028169],
        [0.8524590163934426, 0.14754098360655737],
        [0.918918918918919, 0.08108108108108109],
        [0.9357798165137615, 0.06422018348623854],
        [0.0, 1.0],
        [0.9444444444444444, 0.05555555555555555],
        [0.9532710280373832, 0.04672897196261682],
        [1.0, 0.0],
        [0.8611111111111112, 0.1388888888888889],
        [0.9393939393939394, 0.06060606060606061],
        [0.96875, 0.03125],
        [0.6666666666666666, 0.3333333333333333],
        [0.0, 1.0],
        [1.0, 0.0],
        [1.0, 0.0],
        [0.0, 1.0],
        [0.0, 1.0],
        [0.0, 1.0],
        [0.0, 1.0],
        [0.18181818181818182, 0.8181818181818182],
        [1.0, 0.0],
        [0.0, 1.0],
        [0.0, 1.0],
        [0.046511627906976744, 0.9534883720930233],
        [0.5, 0.5],
        [1.0, 0.0],
        [0.3333333333333333, 0.6666666666666666],
        [0.0, 1.0],
        [1.0, 0.0],
        [0.0, 1.0],
        [0.07317073170731707, 0.926829268292683],
        [0.17142857142857143, 0.8285714285714286],
        [0.5, 0.5],
        [0.0, 1.0],
        [1.0, 0.0],
        [0.10344827586206896, 0.896551724137931],
        [0.5, 0.5],
        [1.0, 0.0],
        [0.0, 1.0],
        [0.0, 1.0],
        [0.0, 1.0]
      ]
    },
    {
      "children_left": [
        1, 2, 3, 4, 5, -1, 7, 8, -1, -1, 11, 12, -1, -1, -1, 16, 17, -1, 19, -1,
        21, -1, -1, 24, 25, 26, -1, -1, -1, 30, 31, 32, 33, 34, -1, -1, -1, -1,
        -1, -1, 41, 42, -1, -1, -1, -1, -1
      ],
      "children_right": [
        46, 45, 40, 15, 6, -1, 10, 9, -1, -1, 14, 13, -1, -1, -1, 23, 18, -1,
        20, -1, 22, -1, -1, 29, 28, 27, -1, -1, -1, 39, 38, 37, 36, 35, -1, -1,
        -1, -1, -1, -1, 44, 43, -1, -1, -1, -1, -1
      ],
      "feature": [
        12, 0, 8, 5, 0, -2, 8, 9, -2, -2, 3, 2, -2, -2, -2, 6, 13, -2, 2, -2, 0,
        -2, -2, 3, 15, 15, -2, -2, -2, 9, 13, 5, 15, 1, -2, -2, -2, -2, -2, -2,
        6, 10, -2, -2, -2, -2, -2
      ],
      "threshold": [
        0.5588140487670898, 0.20809735357761383, 0.1305585578083992,
        0.4998823255300522, 0.10970067605376244, -2.0, 0.04659278877079487,
        0.07287566363811493, -2.0, -2.0, 0.4192381650209427,
        0.47521190345287323, -2.0, -2.0, -2.0, 0.10301926359534264,
        0.4054054617881775, -2.0, 0.5669257938861847, -2.0, 0.1732960343360901,
        -2.0, -2.0, 0.47482720017433167, 0.4955326020717621,
        0.48068466782569885, -2.0, -2.0, -2.0, 0.08604799956083298,
        0.5161432027816772, 0.5951675474643707, 0.44605816900730133,
        0.15507615357637405, -2.0, -2.0, -2.0, -2.0, -2.0, -2.0,
        0.14520426839590073, 0.4884830713272095, -2.0, -2.0, -2.0, -2.0, -2.0
      ],
      "value": [
        [0.41947565543071164, 0.5805243445692884],
        [0.5436893203883495, 0.4563106796116505],
        [0.632768361581921, 0.3672316384180791],
        [0.7622377622377622, 0.23776223776223776],
        [0.2857142857142857, 0.7142857142857143],
        [1.0, 0.0],
        [0.21052631578947367, 0.7894736842105263],
        [0.6666666666666666, 0.3333333333333333],
        [1.0, 0.0],
        [0.0, 1.0],
        [0.125, 0.875],
        [0.3333333333333333, 0.6666666666666666],
        [0.0, 1.0],
        [1.0, 0.0],
        [0.0, 1.0],
        [0.8442622950819673, 0.1557377049180328],
        [0.9615384615384616, 0.038461538461538464],
        [0.0, 1.0],
        [0.9868421052631579, 0.013157894736842105],
        [1.0, 0.0],
        [0.75, 0.25],
        [1.0, 0.0],
        [0.0, 1.0],
        [0.6363636363636364, 0.36363636363636365],
        [0.2222222222222222, 0.7777777777777778],
        [0.4, 0.6],
        [0.0, 1.0],
        [1.0, 0.0],
        [0.0, 1.0],
        [0.7428571428571429, 0.2571428571428571],
        [0.8666666666666667, 0.13333333333333333],
        [0.9285714285714286, 0.07142857142857142],
        [0.9629629629629629, 0.037037037037037035],
        [0.6666666666666666, 0.3333333333333333],
        [0.0, 1.0],
        [1.0, 0.0],
        [1.0, 0.0],
        [0.0, 1.0],
        [0.0, 1.0],
        [0.0, 1.0],
        [0.08823529411764706, 0.9117647058823529],
        [0.5, 0.5],
        [0.0, 1.0],
        [1.0, 0.0],
        [0.0, 1.0],
        [0.0, 1.0],
        [0.0, 1.0]
      ]
    },
    {
      "children_left": [
        1, 2, 3, -1, 5, 6, -1, 8, 9, -1, -1, -1, -1, 14, 15, 16, -1, 18, -1, 20,
        -1, -1, -1, 24, -1, 26, 27, -1, 29, -1, 31, -1, -1, -1, 35, 36, -1, -1,
        39, 40, -1, -1, -1
      ],
      "children_right": [
        34, 13, 4, -1, 12, 7, -1, 11, 10, -1, -1, -1, -1, 23, 22, 17, -1, 19,
        -1, 21, -1, -1, -1, 25, -1, 33, 28, -1, 30, -1, 32, -1, -1, -1, 38, 37,
        -1, -1, 42, 41, -1, -1, -1
      ],
      "feature": [
        9, 5, 6, -2, 0, 8, -2, 5, 2, -2, -2, -2, -2, 8, 0, 13, -2, 1, -2, 12,
        -2, -2, -2, 3, -2, 0, 3, -2, 5, -2, 14, -2, -2, -2, 10, 7, -2, -2, 7,
        12, -2, -2, -2
      ],
      "threshold": [
        0.08542657643556595, 0.5080480873584747, 0.1396835446357727, -2.0,
        0.1808166354894638, 0.011355366790667176, -2.0, 0.46529021859169006,
        0.4425819367170334, -2.0, -2.0, -2.0, -2.0, 0.08543850108981133,
        0.21464546024799347, 0.4054054617881775, -2.0, 0.19564881920814514,
        -2.0, 0.4789621829986572, -2.0, -2.0, -2.0, 0.47278015315532684, -2.0,
        0.12671002745628357, 0.5242190957069397, -2.0, 0.6083492934703827, -2.0,
        0.625147670507431, -2.0, -2.0, -2.0, 0.3943312466144562,
        0.2096121609210968, -2.0, -2.0, 0.13483089953660965, 0.5128798484802246,
        -2.0, -2.0, -2.0
      ],
      "value": [
        [0.41947565543071164, 0.5805243445692884],
        [0.572972972972973, 0.42702702702702705],
        [0.125, 0.875],
        [0.0, 1.0],
        [0.375, 0.625],
        [0.6666666666666666, 0.3333333333333333],
        [0.0, 1.0],
        [0.75, 0.25],
        [0.3333333333333333, 0.6666666666666666],
        [1.0, 0.0],
        [0.0, 1.0],
        [1.0, 0.0],
        [0.0, 1.0],
        [0.7299270072992701, 0.27007299270072993],
        [0.8723404255319149, 0.1276595744680851],
        [0.9647058823529412, 0.03529411764705882],
        [0.0, 1.0],
        [0.9879518072289156, 0.012048192771084338],
        [1.0, 0.0],
        [0.5, 0.5],
        [1.0, 0.0],
        [0.0, 1.0],
        [0.0, 1.0],
        [0.4186046511627907, 0.5813953488372093],
        [0.0, 1.0],
        [0.6666666666666666, 0.3333333333333333],
        [0.8181818181818182, 0.18181818181818182],
        [1.0, 0.0],
        [0.3333333333333333, 0.6666666666666666],
        [0.0, 1.0],
        [0.6666666666666666, 0.3333333333333333],
        [1.0, 0.0],
        [0.0, 1.0],
        [0.0, 1.0],
        [0.07317073170731707, 0.926829268292683],
        [0.375, 0.625],
        [1.0, 0.0],
        [0.0, 1.0],
        [0.04054054054054054, 0.9594594594594594],
        [0.23076923076923078, 0.7692307692307693],
        [1.0, 0.0],
        [0.0, 1.0],
        [0.0, 1.0]
      ]
    },
    {
      "children_left": [
        1, 2, 3, -1, 5, -1, 7, 8, -1, 10, -1, 12, 13, 14, 15, -1, -1, -1, -1,
        20, -1, -1, -1, 24, 25, 26, 27, -1, -1, 30, -1, 32, -1, -1, 35, -1, -1,
        38, -1, 40, -1, -1, 43, 44, 45, -1, -1, 48, 49, -1, -1, -1, -1
      ],
      "children_right": [
        42, 23, 4, -1, 6, -1, 22, 9, -1, 11, -1, 19, 18, 17, 16, -1, -1, -1, -1,
        21, -1, -1, -1, 37, 34, 29, 28, -1, -1, 31, -1, 33, -1, -1, 36, -1, -1,
        39, -1, 41, -1, -1, 52, 47, 46, -1, -1, 51, 50, -1, -1, -1, -1
      ],
      "feature": [
        13, 7, 3, -2, 12, -2, 1, 9, -2, 13, -2, 7, 7, 14, 7, -2, -2, -2, -2, 8,
        -2, -2, -2, 8, 4, 9, 5, -2, -2, 13, -2, 10, -2, -2, 9, -2, -2, 13, -2,
        9, -2, -2, 14, 7, 5, -2, -2, 2, 3, -2, -2, -2, -2
      ],
      "threshold": [
        0.5297839045524597, 0.13612085580825806, 0.3957208842039108, -2.0,
        0.391801118850708, -2.0, 0.19070392102003098, 0.05218290537595749, -2.0,
        0.4054054617881775, -2.0, 0.13483089953660965, 0.07391152903437614,
        0.5067344158887863, 0.06899320334196091, -2.0, -2.0, -2.0, -2.0,
        0.07918747141957283, -2.0, -2.0, -2.0, 0.09155646339058876,
        0.5587843656539917, 0.08247806131839752, 0.46529021859169006, -2.0,
        -2.0, 0.5025783479213715, -2.0, 0.4077007323503494, -2.0, -2.0,
        0.050446970388293266, -2.0, -2.0, 0.49867211282253265, -2.0,
        0.07847180590033531, -2.0, -2.0, 0.5009277164936066,
        0.02300772164016962, 0.495796263217926, -2.0, -2.0, 0.4099700003862381,
        0.44116662442684174, -2.0, -2.0, -2.0, -2.0
      ],
      "value": [
        [0.41947565543071164, 0.5805243445692884],
        [0.5670103092783505, 0.4329896907216495],
        [0.822429906542056, 0.17757009345794392],
        [0.0, 1.0],
        [0.8888888888888888, 0.1111111111111111],
        [0.0, 1.0],
        [0.9361702127659575, 0.06382978723404255],
        [0.967032967032967, 0.03296703296703297],
        [1.0, 0.0],
        [0.85, 0.15],
        [0.0, 1.0],
        [0.8947368421052632, 0.10526315789473684],
        [0.9411764705882353, 0.058823529411764705],
        [0.8, 0.2],
        [0.5, 0.5],
        [1.0, 0.0],
        [0.0, 1.0],
        [1.0, 0.0],
        [1.0, 0.0],
        [0.5, 0.5],
        [0.0, 1.0],
        [1.0, 0.0],
        [0.0, 1.0],
        [0.25287356321839083, 0.7471264367816092],
        [0.5, 0.5],
        [0.6, 0.4],
        [0.8823529411764706, 0.11764705882352941],
        [0.0, 1.0],
        [1.0, 0.0],
        [0.23076923076923078, 0.7692307692307693],
        [0.0, 1.0],
        [0.6, 0.4],
        [1.0, 0.0],
        [0.0, 1.0],
        [0.125, 0.875],
        [1.0, 0.0],
        [0.0, 1.0],
        [0.061224489795918366, 0.9387755102040817],
        [0.0, 1.0],
        [0.2727272727272727, 0.7272727272727273],
        [1.0, 0.0],
        [0.0, 1.0],
        [0.0273972602739726, 0.9726027397260274],
        [0.06451612903225806, 0.9354838709677419],
        [0.3333333333333333, 0.6666666666666666],
        [0.0, 1.0],
        [1.0, 0.0],
        [0.03571428571428571, 0.9642857142857143],
        [0.25, 0.75],
        [0.0, 1.0],
        [1.0, 0.0],
        [0.0, 1.0],
        [0.0, 1.0]
      ]
    },
    {
      "children_left": [
        1, 2, 3, 4, 5, 6, -1, -1, 9, -1, -1, 12, 13, 14, 15, 16, -1, -1, 19, 20,
        -1, 22, -1, -1, 25, -1, 27, -1, -1, 30, -1, -1, 33, -1, -1, 36, -1, -1,
        -1, 40, 41, 42, -1, -1, -1, -1, -1
      ],
      "children_right": [
        46, 39, 38, 11, 8, 7, -1, -1, 10, -1, -1, 35, 32, 29, 18, 17, -1, -1,
        24, 21, -1, 23, -1, -1, 26, -1, 28, -1, -1, 31, -1, -1, 34, -1, -1, 37,
        -1, -1, -1, 45, 44, 43, -1, -1, -1, -1, -1
      ],
      "feature": [
        12, 9, 0, 3, 11, 1, -2, -2, 7, -2, -2, 14, 1, 7, 12, 8, -2, -2, 3, 11,
        -2, 1, -2, -2, 13, -2, 14, -2, -2, 9, -2, -2, 0, -2, -2, 1, -2, -2, -2,
        11, 9, 14, -2, -2, -2, -2, -2
      ],
      "threshold": [
        0.5588140487670898, 0.08542657643556595, 0.20809735357761383,
        0.4433988779783249, 0.5089249610900879, 0.13088911026716232, -2.0, -2.0,
        0.0908840810880065, -2.0, -2.0, 0.5792514681816101, 0.19558943808078766,
        0.22418241947889328, 0.4429759383201599, 0.08447698131203651, -2.0,
        -2.0, 0.47335579991340637, 0.5468545258045197, -2.0,
        0.15455639362335205, -2.0, -2.0, 0.5439877808094025, -2.0,
        0.4911779463291168, -2.0, -2.0, 0.04819978401064873, -2.0, -2.0,
        0.14323432743549347, -2.0, -2.0, 0.11773756146430969, -2.0, -2.0, -2.0,
        0.5046153664588928, 0.11936615034937859, 0.5295565724372864, -2.0, -2.0,
        -2.0, -2.0, -2.0
      ],
      "value": [
        [0.41947565543071164, 0.5805243445692884],
        [0.5436893203883495, 0.4563106796116505],
        [0.6973684210526315, 0.3026315789473684],
        [0.8346456692913385, 0.16535433070866143],
        [0.3076923076923077, 0.6923076923076923],
        [0.1111111111111111, 0.8888888888888888],
        [1.0, 0.0],
        [0.0, 1.0],
        [0.75, 0.25],
        [0.0, 1.0],
        [1.0, 0.0],
        [0.8947368421052632, 0.10526315789473684],
        [0.926605504587156, 0.07339449541284404],
        [0.9514563106796117, 0.04854368932038835],
        [0.9603960396039604, 0.039603960396039604],
        [0.8333333333333334, 0.16666666666666666],
        [1.0, 0.0],
        [0.0, 1.0],
        [0.9775280898876404, 0.02247191011235955],
        [0.8571428571428571, 0.14285714285714285],
        [1.0, 0.0],
        [0.6666666666666666, 0.3333333333333333],
        [1.0, 0.0],
        [0.0, 1.0],
        [0.9878048780487805, 0.012195121951219513],
        [1.0, 0.0],
        [0.5, 0.5],
        [1.0, 0.0],
        [0.0, 1.0],
        [0.5, 0.5],
        [0.0, 1.0],
        [1.0, 0.0],
        [0.5, 0.5],
        [1.0, 0.0],
        [0.0, 1.0],
        [0.2, 0.8],
        [1.0, 0.0],
        [0.0, 1.0],
        [0.0, 1.0],
        [0.1111111111111111, 0.8888888888888888],
        [0.2222222222222222, 0.7777777777777778],
        [0.6666666666666666, 0.3333333333333333],
        [1.0, 0.0],
        [0.0, 1.0],
        [0.0, 1.0],
        [0.0, 1.0],
        [0.0, 1.0]
      ]
    }
  ]
}
